tree
version=v2
num_class=1
num_tree_per_iteration=1
label_index=0
max_feature_idx=25
objective=binary sigmoid:1
feature_names=average_inner_amplitude average_outer_amplitude average_turn_rate increase_before_fallback max_increase pb_height pe_height profit_growth sma10_120 sma120_250 sma50_120 variance volume_ratio business_growth pe pb mkt_cap new_high_days days_with_lower_price days_from_bottom eps close_sma50 eps_growth rps50 rps120 rps250
feature_infos=[0.42786375296454138:5.4338903789610002] [1.0946992633319512:9.6738147892406996] [0.1965015748031497:12.331715116279071] [0:16.914395710894361] [13.892552466639314:2422.913369143911] [0:1] [0:1] [-31189.323709054217:440391.48275077483] [0.92152749471135575:2.3602265645255427] [0.69812182583921922:1.8391607907053795] [0.87013496670169854:2.049828860855861] [0.00025931498613177603:38572.961869843908] [0.0036385521839132798:36.982273889179844] [-135.2970303976864:559056.9004253936] [-140429:17168.700000000001] [-777.55100000000004:848.99300000000005] [2:2144] [249:2157] [248:2157] [1:2088] [-4.4104000000000001:3.8799999999999999] [1.0403704954297917:10.788209844038864] [-30975.675675675677:83266.666666666642] [2.30237912509594:99.958540630182398] [3.4914950760966801:99.9579831932773] [5.9181897302001705:99.955456570155903]
tree_sizes=1838 1695 1918 2005 2082 1949 2014 2167 2017 1494 2103 1492 1718 1942 1719 2326 2476 1727 2177 2032 1944 1483 1722 2025 1802 1871 1954 1716 1875 1951 2094 2183 1802 1726 1952 1950 2037 1419 1942 1408 2104 1957 1343 1885 2111 1803 1957 2112 1864 1961 1888 1423 1418 1880 1717 1341 1571 2413 1182 1351 1420 1883 1186 1497 1182 1272 1496 962 1266 1261 1191 1647 1340 1342 1255 1196 2187 1115 1189 1114 1486 1347 1267 965 1337 1340 1180 1029 1111 1257 1187 1277 1036 1335 2111 1430 1191 1251 1110 1184

Tree=0
num_leaves=23
num_cat=0
split_feature=18 18 0 18 12 8 16 18 16 11 19 12 23 12 10 21 15 2 6 4 21 12
split_gain=672.809 57.8653 37.9209 26.3467 23.242 20.294 18.2413 16.9435 16.6437 16.5573 15.6041 14.8275 14.1189 12.9465 12.0013 11.9455 10.957 9.22369 6.00369 3.91773 2.5051 2.41692
threshold=522.50000000000011 427.50000000000006 2.0006145840728062 467.50000000000006 0.34278109939344853 1.0617413209822721 19.500000000000004 314.50000000000006 10.500000000000002 0.041626258877108815 161.50000000000003 5.2905352884649623 50.569138691931009 3.5304492729228958 1.242838306002805 1.173285513123054 2.6091000000000006 0.85107301567398119 0.93878579887731506 114.26038536828483 1.1488619952462149 3.3154595343804987
decision_type=2 2 2 2 2 2 2 2 2 2 2 2 2 2 2 2 2 2 2 2 2 2
left_child=1 2 7 15 -2 11 -5 10 -9 -7 -1 17 -8 16 -11 21 -4 -6 -17 -15 -13 -3
right_child=4 3 13 6 5 9 12 8 -10 14 -12 20 -14 19 -16 18 -18 -19 -20 -21 -22 -23
leaf_value=-0.84216447032938779 -0.84738342133032041 -0.73502746807447106 -0.84162457884653274 -0.76836962553125521 -0.8409890309147634 -0.86518925415703152 -0.83497895808172706 -0.9023831357247637 -0.82554305872575762 -0.94516205936020581 -0.78246824997625486 -0.92392803601066487 -0.94087071752093876 -0.89145456311597326 -0.91033448921753812 -0.77897114796869815 -0.88539607936696363 -0.90360015337186184 -0.83346621866116688 -0.9431169063575281 -0.97263824535270227 -0.77257845698362004
leaf_count=84 35 82 145 31 37 34 46 52 101 1826 146 20 23 39 129 83 134 127 35 33 36 28
internal_value=0 1.44728 1.1029 2.21795 -0.684944 -0.713217 1.27345 1.58313 1.01398 -0.783571 1.96175 -0.0771519 0.641629 0.578878 -0.810127 2.63221 0.794204 0.257663 2.14445 -0.25551 -1.05768 3.15543
internal_count=3306 1062 734 328 2244 2209 100 383 153 1989 230 220 69 351 1955 228 279 164 118 72 56 110
shrinkage=1


Tree=1
num_leaves=21
num_cat=0
split_feature=18 18 0 12 8 8 6 18 11 12 21 12 16 10 12 15 17 23 4 21
split_gain=597.528 47.4828 30.407 21.1176 20.7628 18.9471 18.0991 15.822 15.2251 14.1113 13.7739 13.6525 12.5533 11.2794 11.1335 9.61974 8.27481 7.37908 6.33213 2.41343
threshold=522.50000000000011 424.50000000000006 2.0006145840728062 0.34278109939344853 1.2429071764704485 1.0617413209822721 0.98386269481159994 314.50000000000006 0.041626258877108815 6.425547703205428 1.288173530103262 5.2905352884649623 10.500000000000002 1.242838306002805 3.0721327428072254 2.6091000000000006 812.50000000000011 75.399831933130358 111.02229937046694 1.1488619952462149
decision_type=2 2 2 2 2 2 2 2 2 2 2 2 2 2 2 2 2 2 2 2
left_child=1 2 7 -2 10 11 -6 9 -7 -1 17 16 -9 -10 15 -4 -5 -3 -16 -13
right_child=3 4 14 5 6 8 -8 12 13 -11 -12 19 -14 -15 18 -17 -18 -19 -20 -21
leaf_value=0.098818467981872771 0.051026434520794132 0.1275104951463357 0.05883802042669907 0.02313315169700815 0.088581664707015562 0.034754953031974088 -0.038546602670789201 -2.422610508054548e-05 -0.041442313418794813 0.01254300910959269 0.04642332256703105 -0.02068660449190779 0.066813383528948209 -0.0076043923890772944 0.02110805441029585 0.015588242596903596 -0.043557333280568211 0.074070279628025079 -0.036328318562241772 -0.068904215033140662
leaf_count=205 35 216 133 137 34 34 22 52 1826 25 34 20 97 129 50 115 27 35 44 36
internal_value=0 1.33382 1.01431 -0.660756 1.99588 -0.688427 0.779013 1.43582 -0.75745 1.78965 2.2294 -0.0737417 0.879201 -0.783557 0.537837 0.779481 0.243302 2.40211 -0.11048 -1.0289
internal_count=3306 1062 721 2244 341 2209 56 379 1989 230 285 220 149 1955 342 248 164 251 94 56
shrinkage=0.05


Tree=2
num_leaves=24
num_cat=0
split_feature=18 18 0 12 18 8 0 11 11 12 16 5 9 10 12 22 21 2 12 6 11 21 12
split_gain=532.921 39.819 27.4706 19.2144 18.4991 17.6868 14.5481 14.0083 13.3568 12.5806 11.7682 11.4715 11.1993 10.6043 10.392 9.38022 8.3522 7.9877 4.85609 4.74636 3.41444 2.33189 1.79159
threshold=522.50000000000011 427.50000000000006 2.0006145840728062 0.34278109939344853 467.50000000000006 1.0617413209822721 2.5608731719722146 0.041626258877108815 0.051086136540720813 5.2905352884649623 11.500000000000002 0.99807855587138705 1.0325331960118114 1.242838306002805 3.6770248082402222 -13.957404441366174 1.173285513123054 0.85107301567398119 2.70298420012965 0.77733695652173929 0.50432147201786015 1.1488619952462149 3.3154595343804987
decision_type=2 2 2 2 2 2 2 2 2 2 2 2 2 2 2 2 2 2 2 2 2 2 2
left_child=1 2 8 -2 16 9 11 -7 12 17 -10 -6 -1 -9 15 -4 22 -5 -18 -16 -8 -11 -3
right_child=3 4 14 5 6 7 20 13 10 21 -12 -13 -14 -15 19 -17 18 -19 -20 -21 -22 -23 -24
leaf_value=0.11408448903211664 0.047496563696142413 0.13721311405479084 0.095376388699592585 0.05579168990865755 0.055128760337171359 0.032549097265836602 0.12885513188273984 -0.040128333318845237 0.0023202561124527257 -0.019834955569964931 0.062971824932191472 -0.049063096525626716 0.062130429902369458 -0.0072483232000394556 -0.042199428512812942 0.02790200860713777 0.1062211634616303 -0.0017597479299920997 0.062088235683186915 0.017302963464721134 0.071399389775882269 -0.067645496534279634 0.10638479866149633
leaf_count=92 35 82 27 37 30 34 20 1826 51 20 142 21 98 129 35 258 72 127 46 31 29 36 28
internal_value=0 1.23587 0.952532 -0.637495 1.8471 -0.66456 1.07197 -0.73227 1.34588 -0.070501 0.94701 0.264711 1.74765 -0.757926 0.507979 0.685344 2.17482 0.229835 1.78049 -0.286497 1.90475 -1.00157 2.58863
internal_count=3306 1062 734 2244 328 2209 100 1989 383 220 193 51 190 1955 351 285 228 164 118 66 49 56 110
shrinkage=0.05


Tree=3
num_leaves=25
num_cat=0
split_feature=18 18 0 8 12 8 6 12 11 18 19 4 21 11 21 22 2 0 12 19 8 12 5 21
split_gain=476.873 34.1421 22.3093 17.9108 16.3407 15.3219 15.0364 12.5166 12.1915 11.9579 11.6289 11.4045 10.1313 9.40069 10.5478 10.4802 7.71163 9.65607 6.99744 6.86383 6.69893 6.01888 4.23843 2.25879
threshold=522.50000000000011 424.50000000000006 2.0006145840728062 1.0617413209822721 1.2581653903812018 1.2429071764704485 0.98386269481159994 5.2905352884649623 0.041626258877108815 314.50000000000006 161.50000000000003 59.184747615124458 1.288173530103262 0.029358477924760002 1.1619386331264294 -13.957404441366174 0.85107301567398119 1.5153747788367584 0.34278109939344853 164.50000000000003 1.1065451900782335 3.2782989328855341 0.43890124077800136 1.1488619952462149
decision_type=2 2 2 2 2 2 2 2 2 2 2 2 2 2 2 2 2 2 2 2 2 2 2 2
left_child=1 2 9 7 18 12 -7 16 -6 10 -1 -11 21 14 -4 -15 22 -18 -5 -10 -20 -3 -2 -9
right_child=3 5 13 4 8 6 -8 23 19 11 -12 -13 -14 15 -16 -17 17 -19 20 -21 -22 -23 -24 -25
leaf_value=0.044885085509141213 0.019003526628852855 0.10990260960061218 0.11277565097400521 0.04104209450848998 0.026570344462552881 0.076295356961506772 -0.0384746010512012 -0.019014284311240446 -0.026264075126988296 0.11058885068426881 0.094145213023012722 0.025601945418723251 0.039353994497059001 0.071609560226985891 0.03084112663110546 0.0042174956228585494 -0.049789529908216675 0.017744240150893181 0.029119503941468401 -0.043654831163039573 -0.022879738494765812 0.071358223310376043 0.088986784671356081 -0.066491333813081491
leaf_count=84 20 194 25 28 33 34 22 20 373 21 146 128 34 31 68 218 35 96 37 1320 226 57 20 36
internal_value=0 1.15002 0.881529 -0.6151 -0.68428 1.6922 0.660927 -0.0274438 -0.768395 1.2312 1.52819 0.753842 1.88347 0.474791 1.06018 0.253331 0.257071 -0.00590952 -0.191424 -0.796253 -0.311719 2.02449 1.07868 -0.975532
internal_count=3306 1062 721 2244 2017 341 56 227 1726 379 230 149 285 342 93 249 171 131 291 1693 263 251 40 56
shrinkage=0.05


Tree=4
num_leaves=26
num_cat=0
split_feature=18 18 0 8 12 18 0 12 11 12 9 5 12 1 3 19 21 19 12 22 6 15 11 21 3
split_gain=427.924 29.6056 20.7142 16.6601 15.3419 14.2077 12.0928 11.5245 11.2792 10.9253 12.412 9.53535 9.12079 9.07239 7.43789 7.70334 6.74707 6.54287 6.28417 6.62026 4.18049 3.5005 2.73689 2.19274 1.27853
threshold=522.50000000000011 427.50000000000006 2.0006145840728062 1.0617413209822721 1.2581653903812018 467.50000000000006 2.5608731719722146 5.2905352884649623 0.041626258877108815 6.425547703205428 1.0298987065790812 0.99807855587138705 3.5304492729228958 5.5268706107708612 0.23024569564752115 215.50000000000003 1.173285513123054 164.50000000000003 0.34278109939344853 28.176538497785319 0.93878579887731506 2.2508000000000004 0.50432147201786015 1.1488619952462149 0.23382085565635222
decision_type=2 2 2 2 2 2 2 2 2 2 2 2 2 2 2 2 2 2 2 2 2 2 2 2 2
left_child=1 2 9 7 18 16 11 14 -6 10 -1 -7 13 -4 -2 -16 24 -10 -5 -20 -18 -14 -8 -9 -3
right_child=3 5 12 4 8 6 22 23 17 -11 -12 -13 21 -15 15 -17 20 -19 19 -21 -22 -23 -24 -25 -26
leaf_value=0.093509107928157364 0.055157223006628397 0.091032221190488635 0.04238649159853819 0.038421014149958022 0.024986091656987595 0.046023675079604046 0.11184551162211648 -0.018223517288584349 -0.025270768190821715 0.0017283777762997013 0.050589316489424385 -0.048490163370378842 -0.048579877482725353 -0.0019829406591890552 -0.05323229590605847 0.012982667437564625 0.08846178263194994 -0.042371890975780049 -0.027818331347311216 0.010249772616478936 0.045655527936617271 0.0037417351305390097 0.061716826167272455 -0.0654304624536029 0.11727723345170078
leaf_count=105 37 25 207 28 33 30 20 20 373 35 243 21 23 72 26 108 83 1320 174 89 35 49 29 36 85
internal_value=0 1.0741 0.832075 -0.593502 -0.661205 1.5872 0.917965 -0.0265461 -0.743935 1.16475 1.27607 0.184557 0.447697 0.619972 0.242808 0.00166115 1.86504 -0.771372 -0.18292 -0.298449 1.51906 -0.25675 1.65353 -0.950629 2.22621
internal_count=3306 1062 734 2244 2017 328 100 227 1726 383 348 51 351 279 171 134 228 1693 291 263 118 72 49 56 110
shrinkage=0.05


Tree=5
num_leaves=24
num_cat=0
split_feature=18 18 11 8 1 12 8 6 6 12 11 22 12 1 21 14 7 5 19 12 22 23 21
split_gain=384.887 26.1239 18.6727 15.5004 14.5435 14.4029 11.8427 12.6858 11.3607 10.6176 10.4378 9.98137 9.1166 8.77961 8.15529 6.8368 7.25621 6.40082 6.24085 5.64923 6.12022 5.38239 2.13256
threshold=522.50000000000011 424.50000000000006 0.033180404787351209 1.0617413209822721 3.9998300839158598 1.2581653903812018 1.2429071764704485 0.98386269481159994 0.98920441573760509 5.2905352884649623 0.041626258877108815 -13.957404441366174 5.4005489444646608 4.4687166316615192 1.288173530103262 123.75750000000001 -53.150396758588705 0.85995783619612431 164.50000000000003 0.34278109939344853 -13.13951870913896 75.399831933130358 1.1488619952462149
decision_type=2 2 2 2 2 2 2 2 2 2 2 2 2 2 2 2 2 2 2 2 2 2 2
left_child=1 2 8 9 12 19 14 -8 13 15 -7 -6 -4 -1 21 16 -2 -10 -12 -5 -21 -3 -11
right_child=3 6 4 5 11 10 7 -9 17 22 18 -13 -14 -15 -16 -17 -18 -19 -20 20 -22 -23 -24
leaf_value=0.089543755791288315 0.054595474291760017 0.093838539498504014 0.056835191008107071 0.036026068878719113 0.060684412757729095 0.023517297768516517 0.067033247422040504 -0.037983615362572033 -0.0098981341616705618 -0.017461643033800312 -0.024309576734040994 0.00090322428028394351 -0.00019857623885019787 0.040798507470357417 0.033246509523994494 0.065132078496450987 -0.0086640571740838786 0.062224243039032012 -0.04113002961297707 -0.033828006042919349 0.0011809873689710808 0.050487235975185618 -0.064453165822120781
leaf_count=128 26 216 172 28 37 33 34 22 32 20 373 230 38 61 34 24 121 23 1320 117 146 35 36
internal_value=0 1.00634 0.773699 -0.572624 0.526138 -0.63889 1.47112 0.571838 1.24215 -0.0256184 -0.720255 0.187184 0.933447 1.48683 1.63453 0.229386 0.0525085 0.408108 -0.747269 -0.174783 -0.28569 1.75786 -0.926732
internal_count=3306 1062 721 2244 477 2017 341 56 244 227 1726 267 210 189 285 171 147 55 1693 291 263 251 56
shrinkage=0.05


Tree=6
num_leaves=25
num_cat=0
split_feature=18 18 0 8 12 21 12 11 12 9 8 6 12 14 2 0 19 7 14 6 10 23 17 21
split_gain=346.794 23.2094 16.0461 14.4169 13.5181 11.5077 9.78726 9.66069 9.00361 10.3752 8.3788 9.07914 8.08965 7.36361 6.68627 8.56744 5.95511 5.3586 5.16517 4.27546 4.25397 4.10252 3.59745 2.07731
threshold=522.50000000000011 427.50000000000006 2.0006145840728062 1.0617413209822721 1.2581653903812018 1.288173530103262 5.2905352884649623 0.041626258877108815 6.425547703205428 1.0298987065790812 1.2444781166264691 0.96766175657708009 3.6770248082402222 103.51350000000001 0.85107301567398119 1.5153747788367584 164.50000000000003 257.18349220649151 -101.45649999999999 0.77733695652173929 1.0031404308258374 75.399831933130358 361.50000000000006 1.1488619952462149
decision_type=2 2 2 2 2 2 2 2 2 2 2 2 2 2 2 2 2 2 2 2 2 2 2 2
left_child=1 2 8 6 17 10 14 -6 9 -1 21 -12 13 -4 22 -16 -9 18 -5 -14 -7 -3 -2 -8
right_child=3 5 12 4 7 20 23 16 -10 -11 11 -13 19 -15 15 -17 -18 -19 -20 -21 -22 -23 -24 -25
leaf_value=0.082603953690162824 0.079995450659150258 0.089225534309736704 0.034961890653889521 0.040281533447676467 0.022152597043984354 -0.014819515123218899 -0.01672771735888821 -0.023379325360589821 -6.2614264792483452e-05 0.044015995477937414 0.081412221184576819 -0.012884785829561719 -0.041933280577620524 -0.011276577600038352 -0.04868137878118739 0.015186574540498883 -0.039925609439884685 0.038190186321924759 -0.01814486248619868 0.014304027682588025 0.051083294194680773 0.049544765762470959 0.016389804107662876 -0.063550997020622738
leaf_count=105 20 208 238 21 33 21 20 373 35 243 22 24 35 47 35 96 1320 28 242 31 22 31 20 36
internal_value=0 0.945156 0.73295 -0.552449 -0.617289 1.39291 -0.0247191 -0.697297 1.02037 1.11893 1.53744 0.701691 0.396085 0.547412 0.216798 -0.0287326 -0.723886 -0.167001 -0.268693 -0.304538 0.379174 1.68328 0.969784 -0.903728
internal_count=3306 1062 734 2244 2017 328 227 1726 383 348 285 46 351 285 171 131 1693 291 263 66 43 239 40 56
shrinkage=0.05


Tree=7
num_leaves=27
num_cat=0
split_feature=18 18 11 8 12 1 18 0 6 12 11 12 15 19 25 16 17 19 2 12 8 21 23 24 16 21
split_gain=313.016 20.9213 15.6185 13.3883 12.6988 11.7869 10.2702 10.0803 9.70635 9.0264 8.94229 8.8806 7.85704 7.65399 7.43687 6.41292 6.99793 5.68346 5.62623 5.01587 6.10889 4.94711 3.19528 2.65431 2.2364 2.02618
threshold=522.50000000000011 424.50000000000006 0.033180404787351209 1.0617413209822721 1.2581653903812018 3.9998300839158598 467.50000000000006 2.5608731719722146 0.98920441573760509 5.2905352884649623 0.041626258877108815 2.1953449672267538 3.2617000000000007 155.50000000000003 37.293786631497504 17.500000000000004 303.50000000000006 164.50000000000003 1.7274354894301467 0.34278109939344853 1.1065451900782335 1.173285513123054 29.323061104437603 75.109526096284711 25.500000000000004 1.1488619952462149
decision_type=2 2 2 2 2 2 2 2 2 2 2 2 2 2 2 2 2 2 2 2 2 2 2 2 2 2
left_child=1 2 8 9 19 13 21 12 14 15 -6 -7 -8 -4 -1 -2 -17 -12 -10 -5 -21 23 -23 -3 -9 -11
right_child=3 6 5 4 10 11 7 24 18 25 17 -13 -14 -15 -16 16 -18 -19 -20 20 -22 22 -24 -25 -26 -27
leaf_value=0.040534195716303303 0.064630473134655878 0.099484749206730061 0.0025766776870475246 0.033933538525103987 0.020882139717104356 0.027844813219498738 0.048536985417248775 0.095412685088705179 0.044761466916681841 -0.016020846930844542 -0.022478958148255138 -0.01127501340603404 -0.034527396573674311 0.051153280480856593 0.082628273473028327 0.048248053444426356 -0.0098960218702677741 -0.038755496334401777 -0.022543230768331386 0.029370436398167471 -0.020434635639925511 0.026056330986357179 0.069296500842856365 0.064787399462104336 0.051005290927597417 -0.06271661159896133
leaf_count=74 22 88 44 28 33 127 22 20 32 20 373 140 29 166 115 30 119 1320 23 37 226 21 102 30 29 36
internal_value=0 0.889867 0.683643 -0.532927 -0.59628 0.458418 1.30161 0.736522 1.10605 -0.0239168 -0.675011 0.153708 0.0709006 0.819679 1.32781 0.205118 0.0425253 -0.701171 0.33938 -0.159426 -0.265578 1.52264 1.23627 1.81491 1.39157 -0.881518
internal_count=3306 1062 721 2244 2017 477 341 100 244 227 1726 267 51 210 189 171 149 1693 55 291 263 241 123 118 49 56
shrinkage=0.05


Tree=8
num_leaves=25
num_cat=0
split_feature=18 18 0 18 8 12 13 18 11 21 12 11 4 3 19 22 19 21 25 10 17 24 10 21
split_gain=282.862 18.8903 13.2859 12.9934 12.4396 11.9117 11.7868 10.9675 10.1525 9.99105 8.32768 8.27754 7.14488 5.9182 7.03511 5.47368 5.42412 5.20801 4.87207 5.36142 3.87348 3.66462 3.65083 1.9785
threshold=522.50000000000011 427.50000000000006 2.2062245902505908 303.50000000000006 1.0617413209822721 1.2581653903812018 -33.029159374229245 368.50000000000006 0.033180404787351209 1.288173530103262 5.2905352884649623 0.041626258877108815 320.9835788334625 0.23024569564752115 215.50000000000003 -13.957404441366174 164.50000000000003 1.173285513123054 57.581630396155006 1.242838306002805 298.50000000000006 51.006083738388703 1.0031404308258374 1.1488619952462149
decision_type=2 2 2 2 2 2 2 2 2 2 2 2 2 2 2 2 2 2 2 2 2 2 2 2
left_child=1 2 3 8 10 18 20 -5 -1 12 13 -7 17 -2 -15 -8 -13 -3 21 -20 -4 -6 -11 -12
right_child=4 9 6 7 5 11 15 -9 -10 22 23 16 -14 14 -16 -17 -18 -19 19 -21 -22 -23 -24 -25
leaf_value=0.076799396693729274 0.047201411898402094 0.087315437050837941 0.096820849670055734 -0.011934711641920571 0.0018762089251182072 0.019697341932839691 0.049140474259816512 0.038769663122841622 0.037711392274454317 -0.016159330881519971 -0.015340186167496382 -0.021607513230287145 0.0080618950834338184 -0.052560257992814156 0.010977099584432853 -0.005662353733200948 -0.03761698607580391 0.05903000863310949 -0.0056529881563405025 0.049027573866280767 0.0326847271025116 -0.051078480443133872 0.044421774344393455 -0.061943560068556051
leaf_count=131 37 130 20 69 26 33 23 143 149 21 20 373 20 26 108 176 1320 135 189 26 23 50 22 36
internal_value=0 0.839244 0.649596 0.840142 -0.51404 -0.575967 0.235823 0.448122 1.12741 1.2407 -0.0230828 -0.653353 1.37467 0.19404 -0.0228204 0.0164822 -0.67908 1.45921 -0.1523 0.0209067 1.24721 -0.653585 0.303879 -0.860016
internal_count=3306 1062 734 492 2244 2017 242 212 280 328 227 1726 285 171 134 199 1693 265 291 215 43 76 43 56
shrinkage=0.05


Tree=9
num_leaves=18
num_cat=0
split_feature=18 4 18 11 12 19 8 3 23 25 21 19 18 16 23 10 19
split_gain=255.866 17.4215 18.5213 13.1448 11.9052 11.264 17.5654 13.988 11.1674 10.3128 9.71195 9.6749 9.02283 10.9314 7.42432 6.91636 4.68055
threshold=522.50000000000011 493.35583842881528 410.50000000000006 0.046009163501520796 0.34278109939344853 286.50000000000006 1.1065451900782335 0.23024569564752115 36.878843938580154 77.093122991101822 1.173285513123054 164.50000000000003 598.50000000000011 99.500000000000014 86.089762813047074 1.0463664797498884 365.50000000000006
decision_type=2 2 2 2 2 2 2 2 2 2 2 2 2 2 2 2 2
left_child=1 2 3 8 -2 6 7 -6 -1 -5 15 -8 13 -7 -12 -4 -14
right_child=4 -3 10 9 5 12 11 -9 -10 -11 14 -13 16 -15 -16 -17 -18
leaf_value=0.0055849673113156327 0.035710965083142684 -0.049510668652451711 0.092363665377051846 0.0023484791902392901 0.046287060889023797 -0.029983135374846433 -0.016402672428032075 -0.0089531761669493712 0.056671966574817226 0.038594760477548257 0.050465815833004773 -0.043167099218236422 -0.054995674105096509 0.042162463193738862 -0.013121682625844037 0.051696422356572916 -0.034521088358455743
leaf_count=57 35 24 107 215 74 89 415 294 232 144 188 348 203 44 22 73 742
internal_value=0 0.79268 0.831844 0.613541 -0.495701 -0.520098 -0.357868 0.0549917 0.935944 0.341633 1.17936 -0.564893 -0.695723 -0.116861 0.880727 1.52463 -0.777833
internal_count=3306 1062 1038 648 2244 2209 1131 368 289 359 390 763 1078 133 210 180 945
shrinkage=0.05


Tree=10
num_leaves=26
num_cat=0
split_feature=18 18 11 8 12 6 12 18 23 3 6 11 17 17 14 12 5 19 19 7 1 12 6 21 12
split_gain=231.552 15.8524 11.5457 11.1219 10.6232 10.0558 8.97899 8.67886 8.93787 8.37792 8.01162 7.38768 7.2492 7.22798 6.68596 5.98797 5.42202 5.23938 5.15025 4.79548 4.81704 4.54421 5.58752 4.4926 4.15909
threshold=522.50000000000011 424.50000000000006 0.033180404787351209 1.059557505307803 1.2581653903812018 0.52471531790468684 2.9807730812210855 467.50000000000006 50.569138691931009 0.20605058081120217 0.98920441573760509 0.11024097974085122 257.50000000000006 447.50000000000006 36.432150000000007 4.7642343663692861 0.85995783619612431 204.50000000000003 1192.5000000000002 257.18349220649151 4.1742269973630197 3.3154595343804987 0.65028343652923659 1.2074415593888319 5.2905352884649623
decision_type=2 2 2 2 2 2 2 2 2 2 2 2 2 2 2 2 2 2 2 2 2 2 2 2 2
left_child=1 2 10 9 19 12 -7 21 14 -2 15 13 -4 -6 -9 -1 -12 -11 -13 20 -5 23 -23 -3 -19
right_child=3 7 5 4 11 6 -8 8 -10 17 16 18 -14 -15 -16 -17 -18 24 -20 -21 -22 22 -24 -25 -26
leaf_value=0.064097667109320175 0.045669511080735734 0.084968320514911655 0.043443025658159384 0.010383537999969003 0.012415150305394879 0.045639220407502824 0.0073943235320158111 0.085438825218245085 -0.017447509736141752 -0.051046594069557895 -0.015704088612584863 -0.030791220795113469 -0.0093600282078583254 -0.05653133286679847 0.021372040546744891 0.013734444308150053 0.049566656867307865 0.0075340270881406567 -0.056586210163829899 0.037169283020765692 -0.022581182936739747 0.07138952151078469 0.012709846309478244 0.050430473299250211 -0.043402198155617869
leaf_count=160 37 119 34 87 91 178 109 30 31 37 32 1496 156 27 39 29 23 111 124 28 177 34 32 56 29
internal_value=0 0.749317 0.572217 -0.477767 -0.535844 0.379746 0.626911 1.10637 0.592625 0.00364653 0.930183 -0.610359 0.00642479 -0.0548146 0.995505 1.12793 0.238776 -0.211404 -0.654772 -0.134214 -0.23258 1.30961 0.858518 1.47876 -0.0245402
internal_count=3306 1062 721 2244 2030 477 287 341 100 214 244 1738 190 118 69 189 55 177 1620 292 264 241 66 175 140
shrinkage=0.05


Tree=11
num_leaves=18
num_cat=0
split_feature=18 4 18 0 23 12 19 8 3 18 19 18 16 21 23 19 10
split_gain=209.752 15.4416 15.7748 10.9281 10.9768 10.5522 10.4228 15.9528 11.8671 10.3982 9.26095 8.62281 9.9133 6.5215 5.46159 4.67585 4.22032
threshold=522.50000000000011 493.35583842881528 427.50000000000006 2.2062245902505908 79.913444100745707 0.34278109939344853 286.50000000000006 1.1065451900782335 0.23024569564752115 314.50000000000006 164.50000000000003 598.50000000000011 99.500000000000014 1.288173530103262 75.399831933130358 365.50000000000006 1.0031404308258374
decision_type=2 2 2 2 2 2 2 2 2 2 2 2 2 2 2 2 2
left_child=1 2 3 9 -5 -2 7 8 -7 -1 -9 12 -8 14 -4 -13 -15
right_child=5 -3 13 4 -6 6 11 10 -10 -11 -12 15 -14 16 -16 -17 -18
leaf_value=0.049338868989345933 0.033636068536254199 -0.048799092554687645 0.066702819136415778 -0.0036334407648123089 0.048627481306846965 0.042947249095349915 -0.027994540820730059 -0.014776974788495757 -0.0076653712891305674 0.01864631225439619 -0.041368931682544435 -0.053440037963642439 0.040887617835927571 -0.016877071229377781 0.024550314050943517 -0.032528535937113086 0.049934452463200468
leaf_count=290 35 24 243 175 60 74 89 415 294 194 348 203 44 20 36 742 20
internal_value=0 0.709392 0.745818 0.573605 0.195848 -0.460437 -0.484171 -0.326963 0.0668067 0.745491 -0.528445 -0.656687 -0.0862805 1.11787 1.22541 -0.739188 0.339446
internal_count=3306 1062 1038 719 235 2244 2209 1131 368 484 763 1078 133 319 279 945 40
shrinkage=0.05


Tree=12
num_leaves=21
num_cat=0
split_feature=18 4 18 0 18 8 12 21 12 23 11 14 25 21 10 23 19 13 11 14
split_gain=190.128 13.9444 14.6236 11.1704 12.5166 9.90803 9.77577 8.46123 7.71488 7.43474 6.85895 7.45273 6.62256 9.02236 6.42564 6.19249 5.0639 4.60165 6.73547 3.27986
threshold=522.50000000000011 493.35583842881528 410.50000000000006 2.201718937069566 314.50000000000006 1.059557505307803 1.2581653903812018 1.173285513123054 2.0813344244518919 79.913444100745707 0.098079936774410764 17.077750000000005 44.4510371700162 1.144171212597437 1.0463664797498884 86.089762813047074 1192.5000000000002 90.193664401432912 1.2824169877952578 40.065600000000011
decision_type=2 2 2 2 2 2 2 2 2 2 2 2 2 2 2 2 2 2 2 2
left_child=1 2 3 4 -1 8 17 14 19 -5 11 -8 -10 -14 -4 -9 -12 18 -7 -2
right_child=5 -3 7 9 -6 6 10 15 12 -11 16 -13 13 -15 -16 -17 -18 -19 -20 -21
leaf_value=0.047073351588740077 0.014023810528440366 -0.0471055986609673 0.082698480370128974 -0.0055355309949495007 0.01007787864733176 0.0090070478386649853 -0.040914172576046452 0.042784258435002082 0.042422919047742244 0.039457802836548594 -0.028807971531698118 0.022794986290293747 0.0084921920840825404 -0.049308601293220525 0.043533529091927314 -0.015082864379235667 -0.055032981118719841 0.046880325400937117 -0.027369610439102465 0.070294469089069292
leaf_count=287 29 24 107 162 145 133 38 188 23 54 1508 68 64 78 73 22 124 20 139 20
internal_value=0 0.672301 0.706562 0.514839 0.69967 -0.443619 -0.499793 1.01553 0.0119997 0.118122 -0.573034 -0.00592582 -0.234622 -0.426732 1.33912 0.738919 -0.614764 -0.112498 -0.192451 0.748218
internal_count=3306 1062 1038 648 432 2244 2030 390 214 216 1738 106 165 142 180 210 1632 292 272 49
shrinkage=0.05


Tree=13
num_leaves=24
num_cat=0
split_feature=18 4 18 20 19 8 12 19 15 19 17 12 16 19 16 19 18 0 21 1 1 9 9
split_gain=172.457 12.6079 13.4779 10.1878 9.44358 13.1795 10.807 11.3715 9.16927 8.07941 8.46848 14.3581 9.69371 7.73041 7.61668 8.51285 6.04048 9.33083 4.06565 3.05291 1.64866 1.57643 0.295585
threshold=522.50000000000011 493.35583842881528 427.50000000000006 0.21949999940000001 286.50000000000006 1.1065451900782335 1.7530197911532512 230.50000000000003 2.6091000000000006 365.50000000000006 603.50000000000011 1.0741540195069883 40.500000000000007 243.50000000000003 182.50000000000003 164.50000000000003 467.50000000000006 2.5608731719722146 1.173285513123054 3.0660898944588904 4.703190321607174 1.0255402659725699 1.1252441179655166
decision_type=2 2 2 2 2 2 2 2 2 2 2 2 2 2 2 2 2 2 2 2 2 2 2
left_child=1 2 3 8 5 6 13 -8 -1 20 12 -12 -11 -2 15 -7 18 -18 -4 -5 21 -6 -16
right_child=4 -3 16 19 9 14 7 -9 -10 10 11 -13 -14 -15 22 -17 17 -19 -20 -21 -22 -23 -24
leaf_value=0.031641549338751872 0.069771390937447317 -0.045490758302205156 0.073892180761911244 0.10041337736073984 -0.024099636618080924 -0.0073139583557828101 -0.026010738725856592 0.020055168099452292 0.0067804621672227566 -0.037047967266504889 0.028508284106357376 -0.036923986292481094 0.015549373420053745 -0.011514367245106039 -0.065585348512319827 -0.034131659312842941 -0.003304295584379096 0.061069075147197172 0.046688889470157043 0.048984873662931111 -0.018345013136700641 -0.059288558754400783 -0.0480316201133495
leaf_count=412 47 24 109 20 21 375 173 128 258 80 47 625 136 22 50 329 48 46 116 29 21 170 20
internal_value=0 0.637892 0.670166 0.512323 -0.427299 -0.277241 0.0804311 -0.11819 0.445024 -0.592021 -0.490859 -0.630222 -0.0802513 0.880726 -0.461549 -0.385083 1.01551 0.579182 1.194 1.40441 -1.03053 -1.1033 -1.21651
internal_count=3306 1062 1038 719 2244 1144 370 301 670 1100 888 672 216 69 774 704 319 94 225 49 212 191 70
shrinkage=0.05


Tree=14
num_leaves=21
num_cat=0
split_feature=18 8 25 19 13 12 19 8 3 19 12 14 18 16 7 15 19 22 11 19
split_gain=156.485 11.6229 11.8222 11.5479 11.4605 9.04453 9.03439 13.4008 9.81847 8.46431 8.34896 7.76093 7.70451 8.88952 6.40953 5.86219 4.54988 4.45098 4.082 2.8954
threshold=522.50000000000011 1.1167033326905085 97.080270509697016 164.50000000000003 -33.029159374229245 0.34278109939344853 286.50000000000006 1.1065451900782335 0.23024569564752115 164.50000000000003 2.4818413627159654 57.354700000000001 598.50000000000011 212.50000000000003 -250.2248302124577 2.2232000000000003 365.50000000000006 -1.0000000180025095e-35 0.033180404787351209 218.50000000000003
decision_type=2 2 2 2 2 2 2 2 2 2 2 2 2 2 2 2 2 2 2 2
left_child=1 3 4 15 18 -2 7 8 -7 -9 17 -12 13 -8 -6 -1 -14 -5 -3 -4
right_child=5 2 19 10 14 6 12 9 -10 -11 11 -13 16 -15 -16 -17 -18 -19 -20 -21
leaf_value=0.027698153438029734 0.031624491223799622 0.07536774530499657 -0.0046800453301668208 0.088977594161809725 -0.036833813431868007 0.039207581526988187 -0.017884622079536342 -0.012695865527112663 -0.0065562344173019944 -0.03869989158705113 0.046263383165550662 0.0072956284006958257 -0.051030379073560145 0.062263474495231202 0.018815391086860655 -0.047391548000410177 -0.0296514371136226 0.053389108424067744 0.0373122174881996 -0.059919891573106468
leaf_count=22 35 44 20 47 24 74 110 415 294 348 163 80 203 23 373 21 742 161 85 22
internal_value=0 0.60553 0.403425 0.833192 0.485632 -0.411492 -0.43446 -0.286853 0.073247 -0.47743 0.929807 0.672719 -0.600292 -0.057505 0.31075 -0.172976 -0.681957 1.22943 1.01282 -0.671273
internal_count=3306 1062 568 494 526 2244 2209 1131 368 763 451 243 1078 133 397 43 945 208 129 42
shrinkage=0.05


Tree=15
num_leaves=29
num_cat=0
split_feature=18 18 11 6 6 8 12 8 14 1 12 6 12 11 17 22 25 14 23 17 16 25 12 15 5 13 21 6
split_gain=141.938 11.6157 9.18577 8.60563 8.63089 8.51066 9.05755 7.07863 11.1073 6.99174 6.54883 6.49842 6.29482 6.22093 6.57149 5.60844 12.0547 10.2177 5.53819 5.24722 7.02363 5.14974 4.71115 4.77652 4.35425 2.65419 1.96731 1.23413
threshold=522.50000000000011 424.50000000000006 0.030729802077440006 0.52471531790468684 0.6367733990894836 1.0617413209822721 1.2909784693118391 1.1004972525066423 34.151150000000008 4.7646953231140161 5.2905352884649623 0.98920441573760509 4.7642343663692861 0.11024097974085122 562.00000000000011 -13.13951870913896 92.931141446426565 86.549350000000018 28.252378481308305 1138.5000000000002 113.50000000000001 43.038972968734257 2.7510284932416327 2.3006500000000005 0.85995783619612431 33.352622394578724 1.1488619952462149 0.53438205025187757
decision_type=2 2 2 2 2 2 2 2 2 2 2 2 2 2 2 2 2 2 2 2 2 2 2 2 2 2 2 2
left_child=1 2 11 18 -5 10 15 22 25 -10 19 12 -1 14 -8 16 -7 -17 -4 20 -2 -15 27 -24 -13 -9 -12 -3
right_child=5 7 3 4 -6 6 13 8 9 -11 26 24 -14 21 -16 17 -18 -19 -20 -21 -22 -23 23 -25 -26 -27 -28 -29
leaf_value=0.054795343813081203 0.00760872903924805 0.059273320160404534 -0.05632965773585067 0.075387787810069634 0.018128012475763199 -0.037176191793208684 0.012298529798879116 0.06716535459706123 -0.036511279977328191 0.024500334629283957 -0.010938740018462269 -0.018631430489225189 0.0025120269857945333 -0.046378925259751229 -0.063621911319097557 -0.0032496834340372386 0.058875688442133027 0.072506183265337684 0.0020371733961414879 -0.038710199075810116 0.074315847957776127 -0.025685634787813494 0.065337560013944085 0.015768615984661432 0.039816366494433562 0.025402476616158954 -0.059593146268043899 0.084397472187756839
leaf_count=153 126 32 20 31 260 119 93 61 30 60 20 31 28 224 21 142 20 29 175 24 21 1369 41 39 23 21 36 57
internal_value=0 0.574571 0.426207 0.261683 0.486577 -0.396199 -0.451855 0.88416 0.592495 0.0909963 0.0144066 0.75279 0.935272 -0.52778 -0.00256844 -0.0881085 -0.444209 0.189982 -0.0749002 0.200866 0.350491 -0.571435 1.18039 0.825077 0.131005 1.129 -0.775672 1.5066
internal_count=3306 1062 721 486 291 2244 2017 341 172 90 227 235 181 1707 114 310 139 171 195 171 147 1593 169 80 54 82 56 89
shrinkage=0.05


Tree=16
num_leaves=31
num_cat=0
split_feature=18 18 19 22 0 8 4 1 18 8 19 17 12 2 12 7 12 10 18 0 5 16 16 12 6 21 4 11 1 9
split_gain=128.894 10.7479 8.35298 11.9662 9.21172 9.1274 8.86568 8.32374 8.6589 9.03901 7.62099 7.79256 11.4404 7.83015 7.1494 7.67484 7.04232 6.89681 6.79262 7.66644 6.37834 6.05947 6.02351 4.13452 4.8413 4.14126 3.9076 1.91577 1.67901 1.60975
threshold=522.50000000000011 424.50000000000006 286.50000000000006 -13.957404441366174 2.8377083617220134 1.1070648227609412 74.020937365842002 4.7557861463708635 303.50000000000006 1.2696440442417356 365.50000000000006 615.50000000000011 1.0412310652621368 4.3522559523809532 2.2800482706510166 -73.114160560427251 6.425547703205428 1.1929922247391949 467.50000000000006 2.5608731719722146 0.99807855587138705 194.50000000000003 15.500000000000002 3.3154595343804987 0.65028343652923659 1.2393495596737436 81.982405669754229 0.50432147201786015 4.703190321607174 1.0255402659725699
decision_type=2 2 2 2 2 2 2 2 2 2 2 2 2 2 2 2 2 2 2 2 2 2 2 2 2 2 2 2 2 2
left_child=1 7 3 4 22 6 -5 8 16 -10 28 13 -13 -12 15 -9 -1 -6 23 20 -20 -7 -2 25 -25 -3 -16 -21 29 -4
right_child=2 18 10 5 17 21 -8 14 9 -11 11 12 -14 -15 26 -17 -18 -19 19 27 -22 -23 -24 24 -26 -27 -28 -29 -30 -31
leaf_value=0.042998375365399563 0.0030671856341389341 0.066699511848255219 -0.020972005280292381 0.044821058299088716 -0.0099913422252588761 -0.0065223240881328087 -0.0042817083950534357 0.054937354879190228 0.017764470421644946 -0.056117101373522105 0.0095347199190251308 0.027016289034054952 -0.034948580816752312 -0.036926086491357507 0.015578626864260174 -0.0019585180840347707 -0.010785537987185507 0.079791367018401782 0.02051209065862631 0.072157934607725613 -0.054833980881236116 -0.064290801190242927 -0.033625362637543781 0.05668332476187226 0.0017328438164445903 0.023606354210637431 -0.037294089320238817 0.031381476850871552 -0.014877115156610604 -0.057496147425835586
leaf_count=268 75 148 21 95 34 307 101 39 213 20 179 41 589 79 21 73 28 20 30 20 21 30 482 34 32 27 59 29 21 170
internal_value=0 0.546208 -0.38141 -0.238984 -0.475547 0.0213981 0.408076 0.404027 0.533094 0.23444 -0.540877 -0.441893 -0.597007 -0.0877628 0.0275461 0.361972 0.76037 0.487146 0.845313 0.39507 -0.175558 -0.233849 -0.569551 1.03059 0.599297 1.19676 -0.461283 0.961017 -0.984615 -1.06184
internal_count=3306 1062 2244 1144 611 533 196 721 529 233 1100 888 630 258 192 112 296 54 341 100 51 337 557 241 66 175 80 49 212 191
shrinkage=0.05


Tree=17
num_leaves=21
num_cat=0
split_feature=18 4 18 23 17 2 19 21 1 23 12 12 10 21 23 10 12 3 17 13
split_gain=117.127 10.2677 10.9914 8.55498 8.19442 9.3031 10.7659 11.2735 9.70073 8.73393 7.89386 7.41707 6.98405 5.65614 4.90708 3.32251 3.14155 3.03871 2.13522 0.337647
threshold=522.50000000000011 579.49164218429053 427.50000000000006 30.482277398962299 1302.5000000000002 1.4212826166007904 232.50000000000003 1.124601940245274 3.2313296365710764 56.446271627053655 5.4005489444646608 1.7267651694572759 1.242838306002805 1.288173530103262 75.399831933130358 1.0031404308258374 1.1979591312390789 0.23024569564752115 665.00000000000011 -0.81297911011341684
decision_type=2 2 2 2 2 2 2 2 2 2 2 2 2 2 2 2 2 2 2 2
left_child=1 2 3 11 5 6 9 -8 18 -2 -5 -1 -10 14 -4 -15 -6 -18 -7 -19
right_child=4 -3 13 10 16 8 7 -9 12 -11 -12 -13 -14 15 -16 -17 17 19 -20 -21
leaf_value=0.040829973405755622 0.053904527678255723 -0.050017544940172236 0.053770187359463921 0.028366965950755375 -0.0018277083056689213 -0.060023539574759921 0.060806012733872955 -0.0046916174367958021 -0.02055359810460183 -0.020763381990122516 -0.0073704745713874479 -0.029809546155370476 0.0094001913462494271 -0.022430180334902867 0.013586397055261618 0.036285248899533391 -0.010571410594673609 -0.042849887789669104 -0.015701102520032841 -0.061418394304641112
leaf_count=21 22 21 243 566 20 114 67 85 1363 268 74 61 121 20 36 20 26 20 21 117
internal_value=0 0.519931 0.546707 0.407105 -0.367009 -0.323726 -0.0192335 0.496859 -0.414785 -0.289302 0.485906 -0.223382 -0.357063 0.864349 0.968804 0.148827 -0.887985 -1.02035 -1.06546 -1.17606
internal_count=3306 1062 1041 722 2244 2061 442 152 1619 290 640 82 1484 319 279 40 183 163 135 137
shrinkage=0.05


Tree=18
num_leaves=27
num_cat=0
split_feature=18 8 25 13 19 19 22 7 4 0 20 21 25 19 17 12 15 17 10 16 7 15 11 19 1 9
split_gain=106.334 9.70577 9.8621 9.82015 9.77783 7.82335 11.0807 8.98015 11.4469 8.43555 7.61499 9.7074 7.53184 7.41522 7.13293 10.4644 7.58581 6.77099 5.74535 5.6525 5.63486 5.1504 3.3682 2.61177 1.6486 1.59291
threshold=522.50000000000011 1.1167033326905085 97.080270509697016 -33.029159374229245 164.50000000000003 286.50000000000006 -13.957404441366174 74.203749896254507 74.020937365842002 2.8377083617220134 0.0083000000000000018 1.2074415593888319 80.754507249523073 365.50000000000006 615.50000000000011 1.0412310652621368 4.3201000000000009 439.50000000000006 1.1929922247391949 15.500000000000002 -250.2248302124577 2.2232000000000003 0.033180404787351209 218.50000000000003 4.703190321607174 1.0255402659725699
decision_type=2 2 2 2 2 2 2 2 2 2 2 2 2 2 2 2 2 2 2 2 2 2 2 2 2 2
left_child=1 4 3 22 21 6 9 8 -8 19 11 -6 -9 24 16 -16 -15 -12 -11 -2 -5 -1 -3 -4 25 -7
right_child=5 2 23 20 10 13 7 12 -10 18 17 -13 -14 14 15 -17 -18 -19 -20 -21 -22 -23 -24 -25 -26 -27
leaf_value=0.022956481228102878 0.0037354770146884376 0.066051081213785626 -0.0063954803737618889 -0.037874319864216903 0.056713621460461286 -0.019668233716103715 0.036329058619319912 -0.045048287660246683 -0.0062415749313259111 -0.0086277847565619844 -0.00017446931257305466 0.018263896050772704 0.0083341295971538203 0.03430910624498007 0.025893483758371017 -0.033264550122327742 -0.01531033186375292 0.067263279713559429 0.072543049238357679 -0.032012713118746226 0.014250081332792874 -0.04753380899797674 0.031556387774160692 -0.059082483386790868 -0.013606148720920903 -0.05645602201179252
leaf_count=22 75 44 20 24 263 21 152 93 222 34 75 93 66 60 41 589 198 20 20 482 373 21 85 22 21 170
internal_value=0 0.494453 0.310941 0.385302 0.70435 -0.352845 -0.214245 0.0367624 0.23954 -0.44549 0.794101 0.931727 -0.447029 -0.509926 -0.411785 -0.563912 -0.0725159 0.277765 0.471755 -0.538047 0.223822 -0.22253 0.871752 -0.67557 -0.958495 -1.03793
internal_count=3306 1062 568 526 494 2244 1144 533 374 611 451 356 159 1100 888 630 258 95 54 557 397 43 129 42 212 191
shrinkage=0.05


Tree=19
num_leaves=25
num_cat=0
split_feature=18 18 17 22 11 18 10 7 11 1 19 15 22 8 6 6 1 2 12 21 6 12 3 13
split_gain=96.5845 9.09259 7.69789 8.53393 10.3624 9.47128 8.91687 7.89942 7.49697 7.8577 7.67995 7.38347 7.23771 6.10401 8.70015 5.84089 5.27067 3.98276 3.79808 6.73933 5.31411 2.91957 3.03014 0.343448
threshold=522.50000000000011 424.50000000000006 1302.5000000000002 1.2742245926448332 0.041626258877108815 1489.5000000000002 1.242838306002805 46.268859273788301 0.030729802077440006 3.9998300839158598 135.50000000000003 9.1681500000000025 -15.234224474512681 1.2429071764704485 0.98386269481159994 0.98920441573760509 4.4687166316615192 1.7274354894301467 3.2782989328855341 1.2393495596737436 0.65028343652923659 1.1979591312390789 0.23024569564752115 -0.81297911011341684
decision_type=2 2 2 2 2 2 2 2 2 2 2 2 2 2 2 2 2 2 2 2 2 2 2 2
left_child=1 8 3 4 -2 11 -6 -7 15 10 -10 -5 -11 18 -15 16 -1 -17 19 -3 -20 -4 -23 -24
right_child=2 13 21 5 6 7 -8 -9 9 12 -12 -13 -14 14 -16 17 -18 -19 20 -21 -22 22 23 -25
leaf_value=0.052402026300813691 0.036723004136474009 0.060572206701949939 -0.001933622663614456 -0.01618999129092542 -0.027585296212167577 0.055926942455015151 0.018184089845572279 -0.0082200526684840236 -0.025493063519313311 0.040676991168922656 0.031376659136935652 0.016157806961072673 -0.0090704126474491636 0.03752876864575555 -0.046963781407525135 0.024987834876786311 0.015499388118801326 -0.031397385131082117 0.052169291989010137 0.016250398564582085 -0.0034906510614212977 -0.0087299929716268317 -0.041175028030567558 -0.0603973236622539
leaf_count=122 34 167 20 673 1047 59 65 53 28 36 186 130 236 34 22 32 59 22 35 46 37 26 20 117
internal_value=0 0.470418 -0.339341 -0.297464 -0.443073 -0.119147 -0.491711 0.533146 0.341054 0.193457 0.479154 -0.217425 -0.0463911 0.749757 0.124841 0.636408 0.809746 0.0483801 0.872401 1.01323 0.467307 -0.856739 -0.990895 -1.15332
internal_count=3306 1062 2244 2061 1146 915 1112 112 721 486 214 803 272 341 56 235 181 54 285 213 72 183 163 137
shrinkage=0.05


Tree=20
num_leaves=24
num_cat=0
split_feature=18 4 18 20 17 21 19 8 12 19 16 19 19 19 2 19 8 10 5 1 1 9 9
split_gain=87.8232 10.8119 9.38443 8.19318 8.91167 8.16257 7.67689 9.98076 8.6362 10.5886 7.59215 7.34339 6.90099 6.43112 9.35812 6.19083 4.84475 4.60373 3.17946 2.94371 1.77378 1.55252 0.331337
threshold=534.00000000000011 493.35583842881528 410.50000000000006 0.21949999940000001 296.50000000000006 1.173285513123054 286.50000000000006 1.1065451900782335 1.7530197911532512 230.50000000000003 182.50000000000003 164.50000000000003 365.50000000000006 1192.5000000000002 1.1380062182641981 243.50000000000003 1.262127471340742 1.0463664797498884 0.59445930131777958 3.0660898944588904 4.703190321607174 1.0255402659725699 1.1252441179655166
decision_type=2 2 2 2 2 2 2 2 2 2 2 2 2 2 2 2 2 2 2 2 2 2 2
left_child=1 2 3 4 -1 17 7 8 15 -10 11 -9 20 14 -14 -2 -7 -4 -15 -5 21 -8 -12
right_child=6 -3 5 19 -6 16 12 10 9 -11 22 -13 13 18 -16 -17 -18 -19 -20 -21 -22 -23 -24
leaf_value=0.023305224203081121 0.063903067862035867 -0.045691039818290868 0.067300995833958849 0.085996498972998103 -0.0021089016250643582 0.028270082476682241 -0.01880981810531128 -0.0029064500507752205 -0.023152702099249124 0.022094239809424463 -0.063196099851238488 -0.028890602418680408 0.039276371739338109 -0.0058379823429666189 -0.0185544736580684 -0.0093364871428694828 -0.021889849939477915 0.033803184927831374 -0.053045027425918434 0.035244510688427794 -0.0096711603527832903 -0.055474239329570491 -0.04342300266616398
leaf_count=353 47 29 107 20 247 189 21 374 173 128 50 329 44 30 672 22 24 79 130 28 20 170 20
internal_value=0 0.445012 0.476453 0.325885 0.25997 0.728434 -0.32861 -0.191052 0.121988 -0.0623635 -0.36093 -0.282723 -0.488405 -0.392169 -0.292199 0.831542 0.45893 1.05581 -0.87667 1.12868 -0.93224 -1.01563 -1.15886
internal_count=3306 1076 1047 648 600 399 2230 1143 370 301 773 703 1087 876 716 69 213 186 160 48 211 191 70
shrinkage=0.05


Tree=21
num_leaves=18
num_cat=0
split_feature=18 4 18 20 12 19 8 12 12 2 9 1 9 21 5 8 7
split_gain=79.8139 9.84236 8.84849 7.69474 7.5412 7.4651 8.3765 12.4386 7.26097 6.95703 7.80437 6.87868 6.31401 6.03129 5.33833 4.82755 2.75359
threshold=534.00000000000011 493.35583842881528 427.50000000000006 0.21949999940000001 0.34278109939344853 252.50000000000003 1.1077653672930368 1.8235817498878126 2.3046736482704535 2.6580167877663947 1.0633488330442142 5.0245216430157811 1.2981799506986256 1.173285513123054 0.99271840370442377 1.25595601410185 -56.101757945142673
decision_type=2 2 2 2 2 2 2 2 2 2 2 2 2 2 2 2 2
left_child=1 2 3 8 -2 6 7 -6 -1 10 -7 -8 -11 14 -4 -15 -5
right_child=4 -3 13 16 5 9 11 -9 -10 12 -12 -13 -14 15 -16 -17 -18
leaf_value=0.025265807746082697 0.031928678201309485 -0.044266416951357968 0.071510270608914434 0.02592870215973065 0.050595739639598708 0.0096020158991180753 -0.025278933641927744 -0.0062723727173735304 0.0038779876695904008 -0.039706973762627107 -0.024750863371143555 0.0029568406127477836 -0.012827048646916271 0.031267032099541729 0.028956610443160287 -0.020120161754095221 0.074822919406665453
leaf_count=301 35 29 85 20 63 171 495 240 369 546 293 185 202 163 57 23 29
internal_value=0 0.423852 0.453632 0.328916 -0.315872 -0.338743 -0.182088 0.138965 0.271124 -0.479989 -0.23574 -0.345194 -0.640537 0.741065 1.08299 0.504905 1.10236
internal_count=3306 1076 1047 719 2230 2195 983 303 670 1212 464 680 748 328 142 186 49
shrinkage=0.05


Tree=22
num_leaves=21
num_cat=0
split_feature=18 4 18 23 12 19 8 25 22 15 12 12 21 5 7 8 5 21 15 9
split_gain=72.5167 8.96081 8.23199 7.51645 7.08968 6.91101 7.56891 7.81821 8.73257 7.53281 6.74425 6.30448 5.70032 5.15223 4.95186 4.37568 3.08506 2.02581 0.968514 0.257889
threshold=534.00000000000011 493.35583842881528 427.50000000000006 30.482277398962299 3.0721327428072254 1192.5000000000002 1.0617413209822721 87.397230939727663 -13.13951870913896 3.4055000000000004 5.2905352884649623 1.7267651694572759 1.173285513123054 0.99271840370442377 108.49462160616474 1.25595601410185 0.59445930131777958 1.149816877938717 14.875950000000001 1.0474818160684654
decision_type=2 2 2 2 2 2 2 2 2 2 2 2 2 2 2 2 2 2 2 2
left_child=1 2 3 11 -5 6 10 8 -8 -9 14 -1 13 -4 -2 -14 -7 -12 19 -18
right_child=5 -3 12 4 -6 16 7 9 -10 -11 17 -13 15 -15 -16 -17 18 -19 -20 -21
leaf_value=0.033689680062361976 0.025126404153868971 -0.042892707292537552 0.069725199490834305 0.027502613868125126 0.0051865186404925871 -0.0049332309893913764 -0.031099146922119916 -0.034074531417683462 -0.011002768701195985 0.007937505676474766 -0.0063900490051735596 -0.031105614666791882 0.029828028390271599 0.027642924408908354 -0.033049135963777801 -0.019187546204088014 -0.043733758073160836 -0.058206241731451697 -0.025742176689158097 -0.060533942408770872
leaf_count=21 130 29 85 400 237 30 716 85 732 330 20 61 163 57 22 23 21 35 22 87
internal_value=0 0.403656 0.431858 0.312078 0.386071 -0.303513 -0.266438 -0.323996 -0.414954 -0.0177939 0.144459 -0.277309 0.710825 1.04693 0.347623 0.481649 -0.848899 -0.699759 -1.03791 -1.14447
internal_count=3306 1076 1047 719 637 2230 2070 1863 1448 415 207 82 328 142 152 186 160 55 130 108
shrinkage=0.05


Tree=23
num_leaves=25
num_cat=0
split_feature=18 4 18 20 15 19 22 9 25 0 19 19 2 16 21 5 18 8 5 15 13 15 25 12
split_gain=65.8851 8.16188 7.65673 6.90691 6.86183 6.84803 8.83089 8.93798 9.20406 7.62939 6.7836 5.84726 8.11332 5.6092 5.39354 4.98538 4.94046 3.96712 2.98108 2.61031 1.82265 3.42297 0.675839 0.0117424
threshold=534.00000000000011 493.35583842881528 427.50000000000006 0.21949999940000001 2.6091000000000006 286.50000000000006 -13.957404441366174 0.9511602210298099 88.992581570378064 2.8377083617220134 365.50000000000006 1192.5000000000002 1.1380062182641981 15.500000000000002 1.173285513123054 0.99271840370442377 885.50000000000011 1.25595601410185 0.59445930131777958 1.6843500000000002 5.4802571543749563 4.1179500000000013 79.19283490678356 1.7357719392233724
decision_type=2 2 2 2 2 2 2 2 2 2 2 2 2 2 2 2 2 2 2 2 2 2 2 2
left_child=1 2 3 4 -1 6 9 22 -9 13 20 12 -12 -2 15 -4 -11 -16 -13 -5 21 -7 -8 -22
right_child=5 -3 14 19 -6 10 7 8 -10 16 11 18 -14 -15 17 -17 -18 -19 -20 -21 23 -23 -24 -25
leaf_value=0.020166516643059254 0.0078299773676306188 -0.041565420897431524 0.068073822411819543 0.078717658846203992 -0.0011369089875361707 -0.059452217517022871 -0.033468394681900042 0.00035514875202859186 0.045083021502620987 0.069027498255521846 0.03700883930524048 -0.0047013081687126493 -0.016555316590446689 -0.028726613031248183 0.028461778362534298 0.026390360416189959 -0.0062887565437362864 -0.018297792333519549 -0.051085068463502942 0.031428083676565167 -0.062358899435510977 -0.011616219335198318 -0.064207952570349822 -0.058684858707490739
leaf_count=412 74 29 85 21 258 54 20 411 79 22 44 30 672 482 163 57 32 23 130 28 20 63 23 74
internal_value=0 0.384584 0.41131 0.296246 0.241653 -0.291457 -0.16058 0.0635971 0.156911 -0.375533 -0.446098 -0.349884 -0.254794 -0.468455 0.682066 1.01278 0.502073 0.459557 -0.830269 1.02979 -0.90068 -0.669057 -1.00416 -1.19113
internal_count=3306 1076 1047 719 670 2230 1143 533 490 610 1087 876 716 556 328 142 54 186 160 49 211 117 43 94
shrinkage=0.05


Tree=24
num_leaves=22
num_cat=0
split_feature=18 12 11 16 8 22 22 21 12 17 1 4 24 8 13 6 9 19 9 2 8
split_gain=59.8963 7.92631 10.2021 10.9347 7.8553 7.95392 7.14676 7.66634 6.70906 6.83582 9.01074 8.86845 8.04089 6.26336 6.15915 4.85853 6.81049 6.13803 4.82663 3.84597 1.66031
threshold=513.00000000000011 3.0721327428072254 0.006960820929482866 9.5000000000000018 1.1173356675131167 2.8039215686274517 -1.0000000180025095e-35 1.2074415593888319 0.34278109939344853 603.50000000000011 5.0245216430157811 71.090726386745203 92.243194137788919 1.2124144829069226 18.062804159747785 0.71361568324345226 1.0871058990087861 509.50000000000006 1.0407027519812433 1.8302311074847057 1.0793664596997359
decision_type=2 2 2 2 2 2 2 2 2 2 2 2 2 2 2 2 2 2 2 2 2
left_child=1 4 -3 18 6 14 20 -8 -2 10 11 -10 -12 -5 -6 16 -11 -17 -4 -7 -1
right_child=8 2 3 13 5 19 7 -9 9 15 12 -13 -14 -15 -16 17 -18 -19 -20 -21 -22
leaf_value=0.051789054866826029 0.03123064704909554 0.065418537717755257 0.0068000129708560651 0.019788007145846803 0.030277157072380795 0.018785016080850099 0.039904289215051778 -0.0049146362037568387 -0.0019889115616915014 0.0078944800870767058 0.016630469728132671 -0.024895495388717354 -0.028409831077308829 -0.028533476736467139 -0.00094482820183415528 -0.0087644230686451975 -0.030109510823863359 -0.04841624708136693 -0.047002263957804345 -0.032386932817921113 0.086633657436438208
leaf_count=30 35 27 25 184 254 23 185 52 425 141 281 730 79 37 91 98 211 257 61 48 32
internal_value=0 0.373602 0.109944 0.0005446 0.496284 0.316485 0.757533 0.595062 -0.274754 -0.296666 -0.204357 -0.316763 0.13677 0.245954 0.44402 -0.51949 -0.298105 -0.744926 -0.624334 -0.313114 1.40276
internal_count=3306 1049 334 307 715 416 299 237 2257 2222 1515 1155 360 221 345 707 352 355 86 71 62
shrinkage=0.05


Tree=25
num_leaves=23
num_cat=0
split_feature=18 4 18 0 18 21 12 7 19 15 8 15 23 7 25 4 22 11 4 7 13 11
split_gain=54.4269 7.29689 7.36937 7.4182 9.06389 6.64966 6.48135 11.0745 7.96673 7.64527 7.30821 6.12358 5.83664 5.83236 5.48887 7.55794 5.66297 4.77627 11.5107 4.46511 4.37415 3.89275
threshold=534.00000000000011 493.35583842881528 410.50000000000006 2.201718937069566 314.50000000000006 1.173285513123054 1.5353894292006587 257.18349220649151 241.50000000000003 1.8178500000000002 1.0688827920391912 4.795300000000001 79.913444100745707 -99.745131745243626 72.989743485399416 69.926912253850688 61.810870238133354 1.8277831423573201 160.83288722741722 108.49462160616474 3.4283555788229019 2.6798825871400358
decision_type=2 2 2 2 2 2 2 2 2 2 2 2 2 2 2 2 2 2 2 2 2 2
left_child=1 2 3 4 -1 19 7 8 9 -2 14 -9 -5 -10 16 -16 -8 18 -12 -4 -7 -19
right_child=6 -3 5 12 -6 20 10 11 13 -11 17 -13 -14 -15 15 -17 -18 21 -20 -21 -22 -23
leaf_value=0.030129581929423839 -0.053474813297949259 -0.040590560814442955 0.052194308323577944 -0.01361322156338611 -0.0010400389372723143 0.035084706282567317 0.025989887393586791 0.0093293131512220909 0.017274754294072697 0.019112434782906612 -0.023987803937923279 0.095935324879263581 0.025403151255173635 -0.030396544245635204 0.020331299697956849 -0.045862209824872192 -0.041544832499449624 -0.05374868963808898 0.011104257499784467 0.0029092066098726044 0.0051970336298512408 -0.025692820997722538
leaf_count=287 24 29 162 162 145 92 119 23 49 182 723 22 54 226 40 70 21 117 208 24 121 406
internal_value=0 0.349302 0.374462 0.242768 0.3943 0.603352 -0.268622 -0.0321677 -0.148539 0.209276 -0.351178 1.07538 -0.0726853 -0.434889 0.0222547 -0.397778 0.324707 -0.4307 -0.317879 0.910794 0.361114 -0.639356
internal_count=3306 1076 1047 648 432 399 2230 526 481 206 1704 45 216 275 250 110 140 1454 931 186 213 523
shrinkage=0.05


Tree=26
num_leaves=24
num_cat=0
split_feature=18 12 11 16 8 22 8 18 6 17 22 11 2 6 10 1 13 5 2 5 1 15 12
split_gain=49.5083 7.213 9.26324 11.0364 7.05299 7.09597 7.04371 6.66417 6.8987 6.1685 6.99555 9.03093 7.74421 13.0022 7.06259 5.65643 5.35849 5.05518 4.98529 3.61067 3.04538 2.42942 0.720003
threshold=513.00000000000011 3.0721327428072254 0.0086187908829316821 9.5000000000000018 1.1173356675131167 2.8039215686274517 1.1049285459522535 407.50000000000006 0.29225605370414781 1302.5000000000002 1.0000000180025095e-35 0.041626258877108815 1.7071935875492581 0.73094342507645271 1.242838306002805 3.5318441107482954 18.062804159747785 0.67468731169939955 2.3226249847314544 0.97991293588099759 5.251877467825504 3.5001500000000001 1.4090546507591342
decision_type=2 2 2 2 2 2 2 2 2 2 2 2 2 2 2 2 2 2 2 2 2 2 2
left_child=1 4 -3 17 7 16 -5 8 -1 10 11 -2 13 -12 -13 -14 -6 -4 -9 -7 21 -11 -23
right_child=9 2 3 6 5 19 -8 18 -10 20 12 14 15 -15 -16 -17 -18 -19 -20 -21 -22 22 -24
leaf_value=0.067548347396931496 0.037351037025224146 0.054512405415284765 -0.076255194011968355 0.029650739524597337 0.02792501407524094 -0.042747432453690268 -0.0079125255882348793 0.067420327684016221 0.0084725043041775777 -0.00080098478298546165 0.031110211129159474 -0.023077629880905001 -0.039623746237434483 -0.028850578957452355 0.01778623130834657 -0.00562724394688645 -0.0012320443052859268 -0.018308799482002914 0.02889779054644652 0.0044086971009958753 0.002086751839061807 -0.03169169552234375 -0.05833962978503824
leaf_count=25 34 35 22 107 254 30 109 94 112 20 185 1044 105 78 66 562 91 61 68 41 31 20 112
internal_value=0 0.339592 0.0875754 -0.0317021 0.457098 0.287209 0.216575 0.707015 0.386237 -0.253162 -0.216378 -0.354924 -0.0542628 0.28908 -0.403725 -0.211418 0.407804 -0.67389 1.01605 -0.3078 -0.754799 -0.922204 -1.06426
internal_count=3306 1049 334 299 715 416 216 299 137 2257 2074 1144 930 263 1110 667 345 83 162 71 183 152 132
shrinkage=0.05


Tree=27
num_leaves=21
num_cat=0
split_feature=18 9 16 19 10 21 9 12 19 0 12 24 8 8 18 12 16 24 17 0
split_gain=45.2593 7.89596 9.26982 7.71993 7.52696 9.20803 9.63881 7.4247 6.84651 7.68411 8.7908 7.02975 6.82195 6.7309 6.51881 6.08148 5.37337 4.48564 7.12254 4.66747
threshold=591.50000000000011 1.450714332869967 123.50000000000001 286.50000000000006 0.99816825384333507 1.1660561613032139 1.223480962432496 1.5353894292006587 317.50000000000006 1.545586790116996 5.4005489444646608 87.627441395254607 1.0935694457438629 1.0891205639476662 272.50000000000006 0.63978634399801027 14.500000000000002 84.395633519250865 1211.0000000000002 3.2134508399997261
decision_type=2 2 2 2 2 2 2 2 2 2 2 2 2 2 2 2 2 2 2 2
left_child=1 8 -3 4 5 -2 -7 12 9 14 -11 13 -6 -10 -1 -5 -9 19 -19 -17
right_child=3 2 -4 15 7 6 -8 16 11 10 -12 -13 -14 -15 -16 17 -18 18 -20 -21
leaf_value=0.0061092265274377833 0.067058759696717929 -0.067329919140122874 0.032019419911344084 0.028478887887305848 0.065114511010616494 -0.015014909064442195 0.075548698367755837 0.019291591924534501 0.045960659049299891 0.010148052073874468 -0.032342512159398547 0.085700980786747455 0.00011409205192589054 0.013917650111664771 0.049908568889342031 -0.034709483956805502 -0.020998289763370103 -0.00075802319424847801 -0.041794314070576585 0.03201652895411302
leaf_count=59 36 36 20 26 21 106 22 57 121 548 59 25 232 224 88 555 663 260 128 20
internal_value=0 0.300287 -0.576337 -0.262963 -0.127073 0.35411 0.0146855 -0.215048 0.334312 0.226252 0.122717 0.582944 0.143108 0.502438 0.644074 -0.446574 -0.352952 -0.492053 -0.260987 -0.646174
internal_count=3306 1180 56 2126 1137 164 128 973 1124 754 607 370 253 345 147 989 720 963 388 575
shrinkage=0.05


Tree=28
num_leaves=23
num_cat=0
split_feature=18 9 16 19 22 9 25 1 18 19 23 12 21 5 12 23 19 6 22 12 0 10
split_gain=41.1079 7.18209 8.66249 7.17544 6.9947 8.1751 7.92885 6.99338 10.3725 6.23516 7.03625 7.81141 6.46592 6.92307 5.56797 5.56646 4.28821 5.27454 3.3873 3.19766 2.55203 0.68423
threshold=591.50000000000011 1.450714332869967 123.50000000000001 286.50000000000006 -13.957404441366174 0.9511602210298099 88.992581570378064 5.3802026541448873 788.50000000000011 317.50000000000006 30.482277398962299 3.0721327428072254 1.2264382100807494 0.99336633663366347 0.63978634399801027 82.340407635311465 365.50000000000006 0.49417490159094646 11.834733893557429 1.7267651694572759 2.120207194511774 1.0931888138100241
decision_type=2 2 2 2 2 2 2 2 2 2 2 2 2 2 2 2 2 2 2 2 2 2
left_child=1 9 -3 4 7 21 -7 15 -9 10 19 -12 13 -11 -5 -2 20 -18 -14 -1 -16 -6
right_child=3 2 -4 14 5 6 -8 8 -10 12 11 -13 18 -15 16 -17 17 -19 -20 -21 -22 -23
leaf_value=0.017932676235147018 -0.0098299612423514513 -0.066309857890445578 0.030011755503463574 0.026822147307164708 -0.031309764934497233 0.0012266005158949661 0.042638664969992586 0.091784621009914205 -0.0092393548328995427 0.053939864321387344 0.022880726353053049 -0.00029078227260358284 0.018579429044403861 0.017162725260572994 -0.05035352382344517 -0.037100314078801704 -0.0024141339882972862 -0.027067314863329497 -0.022123408782663969 -0.027607713236722717 -0.0051184063153119535 -0.063006939276223251
leaf_count=21 300 36 20 26 20 410 79 20 61 142 418 246 81 111 172 224 232 529 36 69 30 23
internal_value=0 0.285826 -0.557238 -0.25244 -0.121498 0.0784608 0.167119 -0.319229 0.362799 0.318071 0.21504 0.287754 0.55589 0.756681 -0.43125 -0.434504 -0.475664 -0.38622 0.137244 -0.329972 -0.862717 -0.969855
internal_count=3306 1180 56 2126 1137 532 489 605 81 1124 754 664 370 253 989 524 963 761 117 90 202 43
shrinkage=0.05


Tree=29
num_leaves=24
num_cat=0
split_feature=18 11 12 20 24 2 0 20 21 10 22 19 0 24 14 1 18 19 9 1 8 5 10
split_gain=37.3427 6.90782 9.21458 7.61919 10.2636 9.6505 9.16847 7.1072 6.70131 7.96602 6.45639 6.37544 6.17469 6.00242 5.76288 4.83063 3.9209 7.50552 5.63731 3.08255 2.82517 2.32293 0.67588
threshold=591.50000000000011 0.32266034880841049 0.34278109939344853 0.090050000000000005 53.499637971898402 2.457102669834645 1.4604454106348199 0.013100000000000002 1.1710079872328312 1.0266863957863086 17.911255411255414 509.50000000000006 1.5808837870874082 27.174770201335701 103.51350000000001 5.3802026541448873 427.50000000000006 198.50000000000003 1.4703725427416934 3.3957260673078737 1.0947068587894082 0.93834618408940995 1.0101245062190434
decision_type=2 2 2 2 2 2 2 2 2 2 2 2 2 2 2 2 2 2 2 2 2 2 2
left_child=8 3 -3 6 -5 -6 22 -8 9 19 15 -12 20 -11 -15 -4 17 -14 -18 -1 -10 -21 -2
right_child=1 2 10 4 5 -7 7 -9 12 13 11 -13 16 14 -16 -17 18 -19 -20 21 -22 -23 -24
leaf_value=0.023781950942227004 -0.034651420077681398 0.042775510311685271 -0.029965952834485068 0.1011576220292672 0.031496219050604027 -0.035750566582022657 0.020435933242860367 -0.021886038592114895 0.010545680305012795 -0.032600548102867395 0.0020489393230383153 -0.026360045972097901 0.0079081405146381126 0.023883428124047881 -0.014152226694726867 -0.0059206931393790208 0.017565086665886728 -0.024857629631730428 -0.042300608464346121 0.071561820497425419 0.055957591757116544 0.026701916269998661 -0.062804323850964724
leaf_count=39 20 27 795 21 101 59 130 128 24 28 384 234 192 343 51 181 241 121 27 59 35 20 46
internal_value=0 -0.242215 -0.330672 0.0149067 0.430799 0.201566 -0.220747 -0.00579252 0.272228 0.446403 -0.365049 -0.154416 0.126233 0.315948 0.3808 -0.504624 0.0573748 -0.0932506 0.258934 0.954549 0.751717 1.21675 -1.08028
internal_count=3306 2126 1621 505 181 160 324 258 1180 540 1594 618 640 422 394 976 581 313 268 118 59 79 66
shrinkage=0.05


Tree=30
num_leaves=26
num_cat=0
split_feature=18 18 10 10 11 18 8 16 22 21 23 12 8 12 12 8 8 12 0 6 10 14 21 3 23
split_gain=34.0711 6.62923 6.27596 10.0043 12.8128 7.13863 6.63313 6.48366 6.65124 5.99845 5.68599 6.09085 6.27015 5.17682 4.90534 4.67621 5.2987 4.5767 4.27794 4.09486 2.8285 2.75544 2.08181 1.52738 0.797627
threshold=505.50000000000006 427.50000000000006 1.242838306002805 1.2962817743689257 1.4506201231513023 591.50000000000011 1.0617413209822721 313.50000000000006 1.0000000180025095e-35 1.288173530103262 30.482277398962299 5.4005489444646608 1.1904369180922083 5.2905352884649623 1.7267651694572759 1.2585905039700165 1.0327074875302675 4.4732385522039824 1.5808837870874082 0.86122971818958172 1.0031404308258374 50.105200000000004 1.1488619952462149 0.42549969366125573 90.442139532785475
decision_type=2 2 2 2 2 2 2 2 2 2 2 2 2 2 2 2 2 2 2 2 2 2 2 2 2
left_child=1 10 6 4 -4 -5 13 8 -8 15 14 12 -12 17 -1 16 -3 -2 -13 -16 -11 -6 -15 -9 -7
right_child=2 9 3 5 21 24 7 23 -10 20 11 18 -14 22 19 -17 -18 -19 -20 -21 -22 -23 -24 -25 -26
leaf_value=0.025403108087304633 0.0073435234093453695 -0.010761644596001799 0.10154461267939159 0.032833317676469131 0.03347413549811637 -0.030584222136725271 -0.02136864818983104 -0.024285699616276427 -0.0049477154592719036 -0.034217817463731745 0.023701390235450981 0.016431245959872279 0.0011695011621921879 -0.003105707146426604 -0.051465026081699242 -0.012444876781884901 0.04476976300458458 0.063618322635751554 -0.033659338677332638 0.0053386645150133062 0.019661642234896557 -0.028144137512344347 -0.057243446473457818 -0.061942968764059247 -0.064023101823727141
leaf_count=21 150 24 30 21 20 20 1001 26 812 21 376 28 198 20 40 22 215 21 50 21 20 23 36 64 26
internal_value=0 0.284834 -0.212971 0.277206 0.882845 -0.405838 -0.252216 -0.311195 -0.275539 0.562326 0.184301 0.247671 0.319749 0.120107 -0.330085 0.693909 0.786709 0.28225 -0.296448 -0.635983 -0.159022 0.01217 -0.652835 -1.00854 -0.996981
internal_count=3306 1036 2270 140 73 67 2130 1903 1813 302 734 652 574 227 82 261 239 171 78 61 41 43 56 90 46
shrinkage=0.05


Tree=31
num_leaves=27
num_cat=0
split_feature=18 18 12 10 12 24 13 7 22 16 21 6 19 10 15 11 6 16 18 25 6 12 6 8 19 15
split_gain=30.9579 6.96957 5.86025 6.88041 10.8261 10.2115 6.97409 6.38765 6.01216 7.48446 5.72693 5.41401 5.32397 7.08712 6.92571 5.19091 7.3648 7.41697 5.08342 8.16293 6.23154 4.88802 4.82448 4.7308 2.04141 1.05887
threshold=493.50000000000006 427.50000000000006 1.5353894292006587 0.99816825384333507 1.9883468107358555 58.759099240638903 1.5627495435859844 257.18349220649151 -620.07751937984483 14.500000000000002 1.2574272972061029 0.73094342507645271 241.50000000000003 1.2005774658608899 1.8178500000000002 0.030729802077440006 0.52471531790468684 9.5000000000000018 303.50000000000006 35.737363627750803 0.5862657094828152 1.1979591312390789 0.15018736504840849 1.0327074875302675 341.50000000000006 13.496250000000002
decision_type=2 2 2 2 2 2 2 2 2 2 2 2 2 2 2 2 2 2 2 2 2 2 2 2 2 2
left_child=1 15 7 4 5 -4 -6 12 25 -10 23 -12 14 -14 -2 18 22 -18 19 -1 -20 -9 -17 -3 -25 -5
right_child=2 10 3 8 6 -7 -8 21 9 -11 11 -13 13 -15 -16 16 17 -19 20 -21 -22 -23 -24 24 -26 -27
leaf_value=-0.0023475769221693254 -0.05147426846458876 -0.010179958038104647 -0.014116576204460864 -0.057358400717056848 0.027036914783272976 0.10630495329827766 -0.023847710783901386 0.007676084446794228 0.026684975922652121 -0.017864145365327693 0.039768778232705249 -0.027295960919417796 -0.022529741091094922 0.037004658354224687 0.019458616319777147 0.010837319816571985 -0.018980412959250959 0.021075017692427946 0.028198113203320607 0.045445601426321036 -0.035347397096835535 0.082110896742448258 -0.023762949640968391 0.050546125812580125 0.027220659700277611 -0.022090113298622212
leaf_count=54 24 24 20 80 67 29 147 25 66 1311 21 33 260 32 182 62 62 238 32 120 32 23 134 136 71 21
internal_value=0 0.275697 -0.201257 -0.282073 0.105399 1.19128 -0.153692 0.0200851 -0.356066 -0.310159 0.573987 -0.0220502 -0.0707772 -0.297756 0.227229 0.175326 0.0553173 0.257679 0.423662 0.60659 -0.0660337 0.82239 -0.254606 0.737927 0.847238 -1.00599
internal_count=3306 1019 2287 1741 263 49 214 546 1478 1377 285 54 498 292 206 734 496 300 238 174 64 48 196 231 207 101
shrinkage=0.05


Tree=32
num_leaves=22
num_cat=0
split_feature=18 11 12 20 24 2 0 20 9 16 22 7 21 10 16 5 0 19 1 8 16
split_gain=28.3873 6.3787 8.45406 6.95933 8.68778 8.79191 8.60256 6.34397 5.90159 7.96772 5.74433 5.93436 5.27646 6.63759 7.21777 5.25126 4.90383 5.32218 4.54197 2.50555 0.698012
threshold=591.50000000000011 0.32266034880841049 0.34278109939344853 0.090050000000000005 53.499637971898402 2.457102669834645 1.4604454106348199 0.013100000000000002 1.450714332869967 123.50000000000001 17.911255411255414 41.998714561768679 1.1710079872328312 1.044270154990685 9.5000000000000018 0.40825000000000006 1.545586790116996 323.50000000000006 5.5139531902689525 1.0947068587894082 18.500000000000004
decision_type=2 2 2 2 2 2 2 2 2 2 2 2 2 2 2 2 2 2 2 2 2
left_child=8 3 -3 6 -5 -6 20 -8 12 -10 18 -12 13 15 -15 -1 19 -18 -4 -14 -2
right_child=1 2 10 4 5 -7 7 -9 9 -11 11 -13 16 14 -16 -17 17 -19 -20 -21 -22
leaf_value=-0.0096585047000734003 -0.032934027476298484 0.041638498125437511 -0.027832893608409449 0.093119879259356636 0.030838048805199161 -0.034204142208152051 0.020034656430645257 -0.020246156758878277 -0.065362443558047822 0.027686552166068714 0.011072464000846088 -0.016427701136675889 0.0098905082058816634 -0.011007241242550933 0.022661489007875509 0.044355808547592621 -0.003885386497640884 0.018059082587426698 -0.0029102846376074208 0.055036295909953993 -0.062001758100479087
leaf_count=23 21 27 820 21 101 59 130 128 36 20 211 407 22 98 231 173 346 200 156 31 45
internal_value=0 -0.214728 -0.301277 0.0338386 0.430975 0.214169 -0.195002 0.0116195 0.237638 -0.536762 -0.335174 -0.135774 0.266872 0.423818 0.247704 0.749797 0.133038 0.0720153 -0.470079 0.725736 -1.05199
internal_count=3306 2126 1621 505 181 160 324 258 1180 56 1594 618 1124 525 329 196 599 546 976 53 66
shrinkage=0.05


Tree=33
num_leaves=21
num_cat=0
split_feature=18 19 8 16 0 3 25 13 4 3 19 9 12 16 15 14 13 0 0 9
split_gain=25.7831 6.24106 6.51481 7.75264 7.09997 9.29251 6.59493 6.20319 5.44965 5.7831 4.94385 5.31789 8.52436 4.95633 4.64051 7.64346 6.65295 2.43066 1.74255 0.377219
threshold=591.50000000000011 286.50000000000006 1.1065451900782335 182.50000000000003 1.4712190560524629 0.23024569564752115 40.266500219106852 1.5627495435859844 687.01332558632441 2.4347852331952482 365.50000000000006 1.0871058990087861 1.3043662820348743 36.500000000000007 2.6091000000000006 45.18330000000001 106.13357735152177 2.120207194511774 1.4862623870766554 1.1252441179655166
decision_type=2 2 2 2 2 2 2 2 2 2 2 2 2 2 2 2 2 2 2 2
left_child=8 2 4 6 5 -2 -4 -6 9 14 17 12 -12 -13 16 -16 -1 18 -3 -5
right_child=1 10 3 19 7 -7 -8 -9 -10 -11 11 13 -14 -15 15 -17 -18 -19 -20 -21
leaf_value=0.01501207811837281 0.034620528220309636 -0.024458491130173406 -0.03749466035382451 -0.061319262375133271 0.042167067701902324 -0.043862206784817732 -0.0019435071036148607 0.0042814924749942258 -0.044351417202999031 0.056828077341674367 0.061533935916740272 0.0012940195560655814 -0.0086154204987546196 -0.031095072356511069 0.014079184335356343 -0.012623102840527116 0.073580136995684414 -0.0022941497167346756 -0.057533546558876186 -0.03848688883126565
leaf_count=580 27 52 119 49 106 77 580 159 25 34 29 118 256 380 307 213 21 30 124 20
internal_value=0 -0.205865 -0.0826903 -0.230548 0.174239 -0.371459 -0.149107 0.381941 0.226382 0.245208 -0.378144 -0.283494 0.0162399 -0.460344 0.219831 0.0686975 0.343349 -0.804143 -0.947955 -1.10508
internal_count=3306 2126 1137 768 369 104 699 265 1180 1155 989 783 285 498 1121 520 601 206 176 69
shrinkage=0.05


Tree=34
num_leaves=24
num_cat=0
split_feature=18 2 19 18 10 10 18 16 21 23 12 18 2 20 6 20 12 8 8 6 10 25 5
split_gain=23.4009 5.85133 6.19025 5.7078 5.53308 6.27973 6.07637 5.42086 5.20005 4.95817 5.51768 5.9071 4.64513 8.28749 5.01723 4.37258 4.30791 4.10801 4.74523 3.68271 2.57158 0.41629 0.013687
threshold=505.50000000000006 4.3239783286480984 1369.5000000000002 427.50000000000006 1.242838306002805 0.99433650998525791 793.50000000000011 15.500000000000002 1.288173530103262 30.482277398962299 5.4005489444646608 299.50000000000006 5.4082727348574444 0.071550000000000016 0.59285500074973763 0.0094000000000000004 1.7267651694572759 1.2585905039700165 1.0327074875302675 0.86122971818958172 1.0031404308258374 96.879731093820325 0.75148647030229598
decision_type=2 2 2 2 2 2 2 2 2 2 2 2 2 2 2 2 2 2 2 2 2 2 2
left_child=3 2 4 9 5 -2 -6 -3 17 16 11 -11 14 -14 -9 -12 -1 18 -5 -18 -10 22 -4
right_child=1 7 21 8 6 -7 -8 12 20 10 15 -13 13 -15 -16 -17 19 -19 -20 -21 -22 -23 -24
leaf_value=0.022409412351870394 0.013952423544167604 0.03145623709628835 -0.061969717079336545 -0.011698515135360948 0.046418566059461527 -0.0099742910628630374 -0.0093494387752265633 -0.012430141372166999 -0.033758106283903792 0.023858073466779033 -0.033643828918998447 0.0030528756146029094 0.02731512150089457 -0.042036668837072327 -0.053207631692278268 0.018076481900679148 -0.050143157606032031 -0.012945421258950644 0.041189499098272499 0.0038564206851217659 0.017793878982599775 -0.032863413828658893 -0.056776567642811429
leaf_count=21 206 26 20 24 57 1460 55 89 21 291 50 283 70 69 174 28 40 22 215 21 20 20 24
internal_value=0 -0.180287 -0.118158 0.236364 -0.092422 -0.135024 0.41703 -0.477505 0.499441 0.143881 0.203141 0.271908 -0.566918 -0.145088 -0.784158 -0.31594 -0.338141 0.626218 0.716623 -0.626432 -0.172747 -1.03588 -1.18967
internal_count=3306 2270 1842 1036 1778 1666 112 428 302 734 652 574 402 139 263 78 82 261 239 61 41 64 44
shrinkage=0.05


Tree=35
num_leaves=24
num_cat=0
split_feature=18 11 4 21 2 25 12 21 19 16 21 10 24 0 14 24 22 4 16 18 1 7 5
split_gain=21.3214 5.75268 6.62204 7.72542 7.21737 6.71258 6.24155 6.52661 8.77553 5.37561 5.23659 6.79555 5.04356 4.97762 4.78857 4.65794 4.43818 3.39785 3.70601 3.18876 3.25751 2.52694 0.763777
threshold=591.50000000000011 1.516237952987517 162.40017672663407 1.124601940245274 3.4365720472440944 84.595105652549066 0.68318709495960206 1.243948449850113 142.50000000000003 12.500000000000002 1.1710079872328312 1.0266863957863086 27.174770201335701 1.5808837870874082 103.51350000000001 86.628120491933814 -99.852071005917168 55.742670292093315 151.50000000000003 410.50000000000006 3.3957260673078737 -1.0000000180025095e-35 0.9606086175155607
decision_type=2 2 2 2 2 2 2 2 2 2 2 2 2 2 2 2 2 2 2 2 2 2 2
left_child=10 2 4 -4 9 -5 -3 8 -8 -2 11 19 -13 21 -14 -6 -9 -15 -19 20 -1 -12 -21
right_child=1 6 3 5 15 -7 7 16 -10 -11 13 12 14 17 -16 -17 -18 18 -20 22 -22 -23 -24
leaf_value=-0.002030831298970478 0.04666314237338523 0.030733941297238273 0.074836581705983465 -0.0056562126947476542 -0.042939915840860182 0.04986285846208658 0.062164931248113557 -0.0023033691920269026 -0.018096753683988127 -0.0059487075264584291 0.015708711615879858 -0.032773767512296485 0.019568500016241844 0.030687904970694086 -0.015285498542650357 0.010843518389433923 -0.054072604567726883 -0.0037400079998827621 0.03365393807581326 0.068541106560878792 0.051486100848795804 0.059755066976118404 0.040318185641234176
leaf_count=25 28 29 31 179 179 43 23 40 557 812 37 28 343 38 51 41 164 509 34 50 23 22 20
internal_value=0 -0.189194 -0.0823563 0.293742 -0.17803 0.121673 -0.374938 -0.43452 -0.284644 -0.0747418 0.205769 0.361921 0.242426 0.0760949 0.302104 -0.654308 -0.870673 0.0141044 -0.0303764 0.846624 0.469369 0.64443 1.21089
internal_count=3306 2126 1313 253 1060 222 813 784 580 840 1180 540 422 640 394 220 204 581 543 118 48 59 70
shrinkage=0.05


Tree=36
num_leaves=25
num_cat=0
split_feature=18 18 19 2 16 12 20 20 21 1 11 6 16 6 25 6 5 6 12 25 12 0 15 24
split_gain=19.4318 6.01155 5.37159 5.62724 5.67166 5.34413 7.86604 5.74262 5.18644 4.75883 4.65321 6.90773 6.35665 5.19653 4.80909 4.62779 4.04013 3.35932 3.49844 3.08772 2.0042 0.920262 0.435756 0.0112829
threshold=493.50000000000006 427.50000000000006 1369.5000000000002 4.3239783286480984 15.500000000000002 2.0813344244518919 -0.18049999999999997 0.090050000000000005 1.173285513123054 5.4812738979229758 0.033180404787351209 0.52471531790468684 7.5000000000000009 0.98920441573760509 26.375630738688105 0.15018736504840849 0.85995783619612431 0.49417490159094646 2.2285310346510392 68.536527679836922 3.3154595343804987 2.397754284766048 11.150000000000002 82.364538395168267
decision_type=2 2 2 2 2 2 2 2 2 2 2 2 2 2 2 2 2 2 2 2 2 2 2 2
left_child=1 10 3 5 -5 6 -2 -7 20 -6 13 15 -13 14 -1 -12 -15 18 -10 -19 21 -3 23 -4
right_child=2 8 22 4 9 7 -8 -9 17 -11 11 12 -14 16 -16 -17 -18 19 -20 -21 -22 -23 -24 -25
leaf_value=-0.0048308378566505154 0.077804756940720587 0.062259346001209553 -0.061153935581143917 0.032615230809126199 -0.039781288013042135 -0.021046701382291241 0.0011464925534806724 4.4532900035457228e-05 0.072231784697850354 -0.0082966985027936035 0.0087520166653969333 -0.038512544296072863 0.014991735960341594 -0.033172141170591571 0.034591710898842186 -0.025686460835185471 0.023367571822342368 -0.0090331914523129175 0.016031147845963222 0.030157260275053822 0.018874670385710911 0.033451915078146578 -0.031058103904365267 -0.056473810505090496
leaf_count=41 22 73 20 27 251 517 816 436 20 151 60 26 270 32 151 131 23 74 37 33 28 20 20 27
internal_value=0 0.218864 -0.163428 -0.143688 -0.437593 -0.0818432 0.0647666 -0.224361 0.503403 -0.534283 0.126675 0.0101218 0.206818 0.35732 0.518252 -0.295294 -0.198375 0.277585 0.699795 0.0574799 0.912941 1.10073 -1.02267 -1.17527
internal_count=3306 1019 2287 2220 429 1791 838 953 285 402 734 487 296 247 192 191 55 164 57 107 121 93 67 47
shrinkage=0.05


Tree=37
num_leaves=17
num_cat=0
split_feature=18 16 2 1 22 19 19 21 4 3 15 19 0 23 9 17
split_gain=17.6829 5.44104 6.92932 10.2666 7.19393 7.4722 6.01025 5.54192 4.94627 5.21946 3.96602 9.46055 5.47926 2.06663 1.23056 0.462884
threshold=591.50000000000011 236.00000000000003 1.5010381652661056 3.2313296365710764 -712.49999999999989 232.50000000000003 251.50000000000003 1.1051884749038252 687.01332558632441 2.4347852331952482 2.3350500000000003 170.50000000000003 2.201718937069566 63.396112852405658 1.0619303293888889 756.50000000000011
decision_type=2 2 2 2 2 2 2 2 2 2 2 2 2 2 2 2
left_child=8 2 4 14 -2 -6 -5 -3 9 10 12 -12 -1 -9 -4 -15
right_child=1 7 3 6 5 -7 -8 13 -10 -11 11 -13 -14 15 -16 -17
leaf_value=0.021880551899081169 -0.05493169368275002 0.019089744619608218 -0.027993692670745404 0.0017517793846233678 -0.0023078833559085428 0.032895604750748764 -0.016460600903605703 -0.0081424822611549392 -0.043965798522612398 0.052623846582184934 -0.027921090966170899 0.0089551462992379736 -0.0029800843598918707 -0.060805014608379906 -0.058832156195395946 -0.035809106942125017
leaf_count=396 28 25 36 562 253 160 846 20 25 34 88 507 130 79 97 20
internal_value=0 -0.173842 -0.136844 -0.231225 0.138231 0.223535 -0.164161 -0.687836 0.187563 0.205604 0.181215 0.0588923 0.313212 -0.957516 -1.00159 -1.12701
internal_count=3306 2126 1982 1541 441 413 1408 144 1180 1155 1121 595 526 119 133 99
shrinkage=0.05


Tree=38
num_leaves=24
num_cat=0
split_feature=18 18 19 2 16 22 2 13 21 2 23 6 6 12 12 6 6 12 21 12 0 15 24
split_gain=16.1902 5.55236 5.16818 5.11919 5.1748 4.98464 13.9799 5.65418 4.9485 4.69823 4.39242 5.27825 8.89953 6.7422 3.85316 3.4149 3.08509 3.38507 2.95382 1.98101 0.916735 0.443109 0.00982094
threshold=493.50000000000006 427.50000000000006 1369.5000000000002 4.3239783286480984 15.500000000000002 -8.4025919357608405 4.1352226653177739 -32.452403453341397 1.173285513123054 5.4082727348574444 30.482277398962299 0.98767845233770546 0.96766175657708009 2.2800482706510166 1.7267651694572759 0.86122971818958172 0.49417490159094646 2.2285310346510392 1.2574272972061029 3.3154595343804987 2.397754284766048 11.150000000000002 82.364538395168267
decision_type=2 2 2 2 2 2 2 2 2 2 2 2 2 2 2 2 2 2 2 2 2 2 2
left_child=1 10 3 5 -5 7 -7 -2 19 -6 14 12 -12 -13 -1 -16 17 -10 -18 20 -3 22 -4
right_child=2 8 21 4 9 6 -8 -9 16 -11 11 13 -14 -15 15 -17 18 -19 -20 -21 -22 -23 -24
leaf_value=0.020089831204493619 0.015418377148941363 0.061348079836372138 -0.060614507808858624 0.030889035958478236 -0.036687927390334142 -2.7561966404392603e-05 0.09196579666481354 -0.01581188747173487 0.070652275748679647 -0.0036459307566062515 0.010266235407672405 0.019513020465681645 0.080680396987543299 -0.02949941233431197 -0.049185090736116432 0.0029348721431822389 0.015015945051366768 0.014703675042463383 -0.022238629082172397 0.017493640337649354 0.032268707693635601 -0.029905114196840218 -0.056160929927868142
leaf_count=21 122 73 20 27 265 895 31 743 20 137 506 48 20 78 40 21 72 37 35 28 20 20 27
internal_value=0 0.200099 -0.150328 -0.131122 -0.415239 -0.0722998 0.0564036 -0.224916 0.47634 -0.510583 0.111831 0.167721 0.258235 -0.211668 -0.343579 -0.61762 0.256813 0.665572 0.0464365 0.885133 1.07724 -1.0096 -1.16688
internal_count=3306 1019 2287 2220 429 1791 926 865 285 402 734 652 526 126 82 61 164 57 107 121 93 67 47
shrinkage=0.05


Tree=39
num_leaves=17
num_cat=0
split_feature=18 16 21 12 11 0 21 4 20 9 19 7 1 16 23 13
split_gain=14.7182 5.85398 9.48231 7.67771 6.04701 7.39702 5.87988 4.99194 4.46157 6.02878 6.81356 3.44792 7.86916 4.03444 1.51556 1.467
threshold=598.50000000000011 193.50000000000003 1.1014091669385764 0.34278109939344853 1.516237952987517 1.4652637342801245 1.243948449850113 687.01332558632441 0.21949999940000001 1.450714332869967 161.50000000000003 24.891943596527636 3.8166506821549944 82.500000000000014 63.396112852405658 58.188512219121399
decision_type=2 2 2 2 2 2 2 2 2 2 2 2 2 2 2 2
left_child=7 3 -3 -2 5 -5 -6 8 9 10 -1 12 -10 -13 -4 -16
right_child=1 2 14 4 6 -7 -8 -9 11 -11 -12 13 -14 -15 15 -17
leaf_value=-0.010517115169808459 0.050461418584309574 0.030403309277119414 -0.016132284595179562 -0.025512408239618652 -0.010632675765228434 0.002889134165836223 -0.041617042534345658 -0.04403305672402167 0.049544070174860663 -0.0458672940837416 0.012470474893226538 0.01690498207797125 -0.033852516615227521 0.081588353821273302 -0.060254843113671408 -0.017977148876881763
leaf_count=164 25 31 24 204 492 1021 172 27 28 34 883 21 25 26 109 20
internal_value=0 -0.162241 -0.63377 -0.117716 -0.144457 -0.0354367 -0.367333 0.168653 0.186981 0.147116 0.171335 0.625692 0.253701 1.06187 -0.951165 -1.07701
internal_count=3306 2098 184 1914 1889 1225 664 1208 1181 1081 1047 100 53 47 153 129
shrinkage=0.05


Tree=40
num_leaves=26
num_cat=0
split_feature=18 18 19 25 21 10 8 3 0 21 11 6 16 23 18 25 6 5 6 12 25 12 15 0 9
split_gain=13.4795 5.12606 4.92551 5.80268 7.09891 8.07845 6.1873 6.98522 6.39307 4.73806 4.19482 5.84072 6.28877 4.56534 4.29558 6.85032 5.7726 3.39802 2.81776 3.26537 2.91162 1.95738 1.33074 0.91769 0.290102
threshold=493.50000000000006 427.50000000000006 1192.5000000000002 87.397230939727663 1.4073211716422811 0.98099527095313122 1.0726655632511477 0.25195998336001085 2.7685571929263082 1.173285513123054 0.030729802077440006 0.52471531790468684 7.5000000000000009 91.148570815695763 303.50000000000006 35.737363627750803 0.5862657094828152 0.59445930131777958 0.49417490159094646 2.2285310346510392 68.536527679836922 3.3154595343804987 14.875950000000001 2.397754284766048 1.0474818160684654
decision_type=2 2 2 2 2 2 2 2 2 2 2 2 2 2 2 2 2 2 2 2 2 2 2 2 2
left_child=1 10 3 6 5 -5 7 -2 -8 21 14 13 -13 -12 15 -1 -16 -4 19 -11 -20 23 24 -3 -19
right_child=2 9 17 4 -6 -7 8 -9 -10 18 11 12 -14 -15 16 -17 -18 22 20 -21 -22 -23 -24 -25 -26
leaf_value=-0.0050608119849325679 0.044707737448614671 0.060558264610436487 0.0089844478298567593 0.08581212212571665 -0.061242346110628891 0.0071954600652178085 -0.017102240353441756 -0.0034164494638921567 0.0078932091366818533 0.069119477034906548 -0.0082683889574871258 -0.03741355649044463 0.013420354369126542 -0.055400216340994658 0.024090625564086737 0.039147806432380888 -0.037386676934380837 -0.03709497429205514 -0.0097413323769387494 0.013441503573910205 0.028581808273524401 0.016254049093577125 -0.010142043903155599 0.031094366511924893 -0.057540952249140881
leaf_count=54 51 73 30 21 26 416 1217 192 204 20 171 29 271 25 32 120 32 21 74 37 33 28 22 20 87
internal_value=0 0.182819 -0.138178 -0.108497 0.15297 0.231219 -0.184077 0.171211 -0.26053 0.451108 0.0984191 -0.00898121 0.171705 -0.28558 0.325227 0.497259 -0.125976 -0.673647 0.236946 0.631572 0.0360226 0.859493 -0.918302 1.05603 -1.06534
internal_count=3306 1019 2287 2127 463 437 1664 243 1421 285 734 496 300 196 238 174 64 160 164 57 107 121 130 93 108
shrinkage=0.05


Tree=41
num_leaves=24
num_cat=0
split_feature=18 12 11 16 18 2 15 19 3 19 2 8 25 10 10 10 0 9 19 25 21 15 5
split_gain=12.2424 5.02101 7.75311 8.17163 5.19179 6.2078 6.10122 9.06802 6.0855 4.78873 4.98686 7.79985 8.97274 6.85903 14.4683 8.26904 6.83213 4.68892 4.21759 3.98134 3.20762 0.457861 0.00894685
threshold=493.50000000000006 3.0721327428072254 0.006960820929482866 9.5000000000000018 407.50000000000006 2.158295631211987 2.6091000000000006 208.50000000000003 1.0605839305731026 1369.5000000000002 2.6851165138181265 1.0628356323050732 50.464791605239959 1.1261179455024599 1.143087661772656 1.0914817033386617 2.2555235033564895 1.0407027519812433 319.50000000000006 67.310064244421966 1.201465378699883 11.150000000000002 0.75148647030229598
decision_type=2 2 2 2 2 2 2 2 2 2 2 2 2 2 2 2 2 2 2 2 2 2 2
left_child=1 4 -3 17 6 20 7 -1 -8 10 13 12 -12 15 -15 -2 -13 -4 -5 -7 -6 22 -11
right_child=9 2 3 18 5 19 8 -9 -10 21 11 16 -14 14 -16 -17 -18 -19 -20 -21 -22 -23 -24
leaf_value=0.029047213457931549 -0.00051969641343947454 0.052564715431575863 0.0037482777753520403 -0.0030423249429654027 0.06417439228941503 -0.00049368625904808996 -0.01699117755450295 -0.012499808330197738 0.043308192885950586 -0.059621020841636264 0.086013864614426783 -0.027872364701275298 -0.0077223776750243445 0.098934144007517946 0.006993335123589909 -0.04086170742229632 -0.005150530938359394 -0.049930325901555245 0.033959982159228984 0.035437708064464363 0.021506478555230864 -0.027900661401990413 -0.055168916873438195
leaf_count=188 732 27 25 172 73 102 134 78 20 23 22 544 40 34 209 112 527 61 46 62 31 20 24
internal_value=0 0.174535 -0.0384316 -0.134266 0.279141 0.535717 0.145264 0.333969 -0.180265 -0.132121 -0.113971 -0.248815 0.56972 0.00856083 0.386054 -0.106345 -0.315132 -0.680874 0.084814 0.268628 0.984205 -0.988145 -1.15448
internal_count=3306 1019 331 304 688 268 420 266 154 2287 2220 1133 62 1087 243 844 1071 86 218 164 104 67 47
shrinkage=0.05


Tree=42
num_leaves=16
num_cat=0
split_feature=18 16 21 12 11 7 1 4 14 22 22 19 7 15 13
split_gain=11.1498 5.49844 8.8426 6.79195 5.69729 6.9172 5.32201 4.64212 4.20448 6.35669 6.00085 5.65241 3.52437 1.51649 1.35232
threshold=598.50000000000011 193.50000000000003 1.1014091669385764 0.34278109939344853 0.32266034880841049 74.203749896254507 5.0399501677364986 687.01332558632441 103.51350000000001 -213.51960784313721 -29.788732394366196 463.50000000000006 -85.020047403395424 9.1681500000000025 56.344313985623359
decision_type=2 2 2 2 2 2 2 2 2 2 2 2 2 2 2
left_child=7 3 -3 -2 5 -5 -6 8 9 -1 -10 -11 -12 14 -4
right_child=1 2 13 4 6 -7 -8 -9 10 11 12 -13 -14 -15 -16
leaf_value=-0.033595133363821389 0.04782563990323907 0.029141919109783438 -0.059832431402630108 0.013635180348179768 -0.016444150143341569 -0.026208131729736645 0.0030317645376434946 -0.043552128192112495 0.033135743878862138 0.010759251136779911 0.014522853019702157 0.051547298724187507 -0.027670120025614142 -0.015438752727967013 -0.019806905070818455
leaf_count=37 25 31 105 381 1046 95 367 27 35 923 30 53 103 27 21
internal_value=0 -0.142899 -0.608384 -0.0997911 -0.12543 0.117209 -0.221328 0.147013 0.164744 0.216797 -0.154835 0.249706 -0.362173 -0.927997 -1.06173
internal_count=3306 2098 184 1914 1889 476 1413 1208 1181 1013 168 976 133 153 126
shrinkage=0.05


Tree=43
num_leaves=23
num_cat=0
split_feature=18 19 2 8 25 10 10 10 9 12 11 16 22 15 14 8 9 8 14 8 2 5
split_gain=10.3314 4.52029 5.07878 7.30713 7.86259 6.71696 11.7062 8.05188 6.06496 4.27189 7.02489 7.44517 5.25775 8.07483 7.28345 4.63221 4.2409 4.01197 3.41108 3.6044 0.474654 0.00887283
threshold=505.50000000000006 1369.5000000000002 2.6851165138181265 1.0628356323050732 50.464791605239959 1.1261179455024599 1.143087661772656 1.0914817033386617 1.1722924037851132 3.0721327428072254 0.006960820929482866 9.5000000000000018 -28.661609635066672 2.6091000000000006 103.51350000000001 1.0935694457438629 1.0407027519812433 1.2124144829069226 80.417200000000022 1.1840261448734974 2.2058005496993274 0.75148647030229598
decision_type=2 2 2 2 2 2 2 2 2 2 2 2 2 2 2 2 2 2 2 2 2 2
left_child=9 2 5 4 -4 7 -7 -2 -5 12 -11 16 18 15 -15 -14 -12 -13 19 -1 21 -3
right_child=1 20 3 8 -6 6 -8 -9 -10 10 11 17 13 14 -16 -17 -18 -19 -20 -21 -22 -23
leaf_value=0.044352675064997293 -0.00024890783727665305 -0.059473073406749802 0.079741186971225925 -0.026512072438715447 -0.0072882163534709809 0.088959749447030431 0.0080813285094332946 -0.041272549136372169 -0.0047570688113611169 0.050392110422078723 0.0032615277199137672 0.010142973923396538 0.039750172843665728 0.0028856013847878672 -0.045279086744139274 0.012285701460214491 -0.047830707966701524 -0.029150452785985104 0.072528121161200082 -0.0088864515085079598 -0.026293042942330598 -0.054984419735375302
leaf_count=44 732 21 22 554 40 34 206 110 505 27 25 183 108 218 43 244 61 37 24 22 20 26
internal_value=0 -0.123959 -0.106331 -0.245413 0.542285 0.0172853 0.392111 -0.0972974 -0.312149 0.158168 -0.0388113 -0.129222 0.253323 0.184553 -0.0994939 0.39511 -0.652735 0.0788968 0.750826 0.489622 -0.974438 -1.14726
internal_count=3306 2270 2203 1121 62 1082 240 842 1059 1036 333 306 703 613 261 352 86 220 90 66 67 47
shrinkage=0.05


Tree=44
num_leaves=26
num_cat=0
split_feature=18 12 7 10 12 24 13 22 16 21 3 21 6 15 22 6 19 20 20 25 15 14 12 23 15
split_gain=9.37752 4.45486 7.0365 5.77425 9.31012 7.75429 6.32412 5.96281 6.35721 5.4306 6.92665 6.38425 4.18928 8.81211 6.42467 6.3746 5.08531 6.76052 6.32264 4.6545 4.14055 2.899 2.61599 2.37174 1.13149
threshold=505.50000000000006 1.5353894292006587 257.18349220649151 0.99816825384333507 1.9883468107358555 72.708418572934121 1.5627495435859844 -620.07751937984483 14.500000000000002 1.124601940245274 0.44386473751125105 1.0989856511287017 0.98767845233770546 3.8780000000000006 -1.0000000180025095e-35 0.95881034482758631 161.50000000000003 0.17100000000000001 0.0083000000000000018 48.66718652049601 4.795300000000001 44.256400000000006 2.4338331428770252 65.553010736719969 13.496250000000002
decision_type=2 2 2 2 2 2 2 2 2 2 2 2 2 2 2 2 2 2 2 2 2 2 2 2 2
left_child=12 2 9 4 5 -3 -6 24 -9 11 -11 -2 15 14 22 16 17 -1 -18 -16 -4 -17 -14 -15 -5
right_child=1 3 20 7 6 -7 -8 8 -10 10 -12 -13 13 23 19 21 18 -19 -20 -21 -22 -23 -24 -25 -26
leaf_value=-0.017439031125234195 -0.0064026329707730645 0.0065334086294940794 0.0096847746908857186 -0.055446978144203234 0.029547343578038211 0.11234279429051802 -0.020114447210223499 0.028320983768834036 -0.013290636460428388 -0.028765792571053297 0.0070565229322851033 0.050962356014767035 0.064442002913892391 -0.072796894344463417 -0.036094847211226626 0.020569699298144929 0.018903320120664948 0.04818720608702394 -0.0072278709609278867 0.0068664546753137478 0.080209847810965726 0.073362343922119266 0.014781494025786341 -0.023171114965596609 -0.016975944914252219
leaf_count=124 68 25 23 80 67 23 147 66 1299 171 196 61 23 22 41 22 490 21 133 85 23 26 26 23 21
internal_value=0 -0.118498 0.0796553 -0.193425 0.172557 1.21405 -0.0758614 -0.265891 -0.218126 -0.0186746 -0.180292 0.435647 0.150853 -0.108609 0.101908 0.221958 0.174732 -0.172348 0.262064 -0.14509 0.948875 0.979299 0.765262 -0.965621 -0.952793
internal_count=3306 2270 542 1728 262 48 214 1466 1365 496 367 129 1036 220 175 816 768 145 623 126 46 48 49 45 101
shrinkage=0.05


Tree=45
num_leaves=22
num_cat=0
split_feature=11 16 25 13 17 25 19 19 8 19 19 19 6 25 2 7 12 0 5 15 9
split_gain=9.04581 5.37107 5.19381 5.6635 5.13898 5.84799 5.05366 4.9669 5.05774 9.76535 6.51959 5.72012 6.41579 5.1703 4.89761 4.40562 4.38532 4.63327 3.38866 1.38378 0.320116
threshold=0.046009163501520796 33.500000000000007 37.293786631497504 -28.423129632552328 303.50000000000006 84.762296321200367 236.50000000000003 1192.5000000000002 1.0744751597565838 223.50000000000003 236.50000000000003 990.00000000000011 0.71361568324345226 68.14742196909846 1.8040417027417026 52.460089862702567 3.4869028662885371 1.5860562660428776 0.59445930131777958 14.875950000000001 1.0474818160684654
decision_type=2 2 2 2 2 2 2 2 2 2 2 2 2 2 2 2 2 2 2 2 2
left_child=1 2 3 -1 5 -4 -6 8 9 15 -11 13 -13 -10 -5 -2 17 -3 -9 20 -20
right_child=7 16 4 14 6 -7 -8 18 11 10 -12 12 -14 -15 -16 -17 -18 -19 19 -21 -22
leaf_value=0.051071495216936748 -0.0080997209840618645 0.047223571208002517 0.051343380037304868 0.014579678065730128 -0.040378749377334822 0.00010776590831223164 0.024545183043205208 0.011884869989076723 -0.01270044928077849 0.080362452596898643 0.016258730738267776 0.060918904784869568 -0.025908824171422675 -0.00020666755052715436 -0.029897642860459012 -0.067901586855935739 -0.051956645836856635 -0.023757825694084151 -0.034452846552652502 -0.0068109087573420355 -0.056949700353807677
leaf_count=23 100 20 118 57 21 31 47 30 1008 22 280 54 28 1212 52 22 26 25 21 22 87
internal_value=0 0.283335 0.388027 0.0619435 0.594668 0.808592 0.0855098 -0.0627258 -0.0424002 0.196183 0.432706 -0.0930507 0.661398 -0.115012 -0.135477 -0.367126 -0.277563 0.122678 -0.626261 -0.886086 -1.04509
internal_count=3306 420 349 132 217 149 68 2886 2726 424 302 2302 82 2220 109 122 71 45 160 130 108
shrinkage=0.05


Tree=46
num_leaves=24
num_cat=0
split_feature=11 16 25 13 18 18 21 16 25 17 23 16 12 22 5 17 25 17 2 12 0 1 12
split_gain=8.20616 4.87183 4.7309 5.15377 4.71206 5.38134 7.9272 8.44111 6.70887 8.10466 6.55727 5.34947 6.17004 5.31099 4.92951 4.69188 5.36689 4.68646 4.42423 4.00903 4.20643 3.28606 0.0227432
threshold=0.046009163501520796 33.500000000000007 37.293786631497504 -28.423129632552328 598.50000000000011 368.50000000000006 1.2393495596737436 215.50000000000003 78.774045691634214 257.50000000000006 88.260562989065747 369.50000000000006 0.34278109939344853 1.2742245926448332 0.99524369690868586 303.50000000000006 84.762296321200367 350.50000000000006 1.8040417027417026 3.4869028662885371 1.5860562660428776 3.4380589707894091 1.3745048947583232
decision_type=2 2 2 2 2 2 2 2 2 2 2 2 2 2 2 2 2 2 2 2 2 2 2
left_child=1 2 3 -1 5 8 7 -7 9 -2 -8 12 -6 -14 -10 16 -4 -17 -5 20 -3 -13 -23
right_child=4 19 15 18 11 6 10 -9 14 -11 -12 21 13 -15 -16 17 -18 -19 -20 -21 -22 22 -24
leaf_value=0.048935169607178676 0.023916658220285079 0.045190445258455697 0.049233127214323026 0.013874746915390783 0.042426781844157165 0.012775365770171302 -0.0022932778159328615 0.070080195918295382 0.030391776726559405 -0.03503531870577694 -0.066420794223411544 0.0049993874364746855 -0.014084228143271933 0.00079419606476536706 -0.014884506481285862 -0.03250917738992503 0.00010237826751512358 0.027088572801580026 -0.028423484219074042 -0.049931599785713064 -0.022600494349287282 -0.062819991081770707 -0.057214980546171648
leaf_count=23 31 20 118 57 27 401 132 34 59 122 25 20 1065 860 45 25 31 43 52 26 25 20 45
internal_value=0 0.270542 0.370406 0.0590267 -0.059786 0.0667667 0.193282 0.350139 -0.176092 -0.455183 -0.245589 -0.145825 -0.116443 -0.142295 0.224621 0.568424 0.773854 0.0814569 -0.128858 -0.265418 0.117042 -0.852574 -1.18807
internal_count=3306 420 349 132 2886 849 592 435 257 153 157 2037 1952 1925 104 217 149 68 109 71 45 85 65
shrinkage=0.05


Tree=47
num_leaves=26
num_cat=0
split_feature=11 4 9 20 19 4 4 11 14 19 19 8 2 15 25 14 6 2 16 25 1 9 15 5 13
split_gain=7.74569 6.55927 9.76768 6.42947 6.82901 6.28357 9.61011 8.17048 6.31748 5.77515 5.68595 5.59849 6.00162 4.95881 5.60594 4.51799 7.16621 5.51574 4.06054 6.25613 5.16629 3.7102 2.99024 2.18774 1.53173
threshold=1.516237952987517 71.640032733355611 1.1718508528986551 -0.020499999999999997 175.50000000000003 162.40017672663407 184.60384410292775 0.058714620902760008 111.50450000000002 473.50000000000006 445.50000000000006 1.3450130659518675 2.6580167877663947 7.0640000000000009 72.373719158261721 -10.451399999999998 0.099742599742599761 2.4075308711705787 21.500000000000004 35.737363627750803 5.6831658679602954 1.0316063985326867 3.6666500000000002 0.75900254106432918 -29.093306749040853
decision_type=2 2 2 2 2 2 2 2 2 2 2 2 2 2 2 2 2 2 2 2 2 2 2 2 2
left_child=5 10 13 24 -5 7 11 18 9 -8 21 12 -7 23 -15 16 -9 -17 20 -20 -1 -2 -10 -3 -4
right_child=1 2 3 4 -6 6 8 15 22 -11 -12 -13 -14 14 -16 17 -18 -19 19 -21 -22 -23 -24 -25 -26
leaf_value=0.020859557698704678 0.0095985030183616885 -0.032392827499921506 -0.018864057089586161 0.055088277813049258 -0.0032200686704427686 -0.0034307895628330693 0.0067070490224508967 0.0026566730011609806 -0.002272032038075726 0.071575670652906764 -0.036229605398402337 0.09860600577699144 0.057406195140499876 0.032100419023520947 -0.033600772018693832 0.0043719433639973901 -0.045846884792392899 -0.01359459463731676 0.04493689359293157 -0.018101606359044637 -0.030637513156394937 0.086534037630687496 -0.064730417743951107 -0.06153673714211743 -0.060540992502990811
leaf_count=341 20 98 25 37 507 39 206 97 21 29 21 21 63 38 77 710 113 487 23 104 22 21 29 113 44
internal_value=0 -0.211101 -0.270417 -0.0766404 0.020076 0.0688202 0.342233 0.00974118 0.0972042 0.255264 0.623287 0.909654 0.656882 -0.677795 -0.201688 -0.101479 -0.457759 -0.0426374 0.239395 -0.11337 0.349681 1.10286 -0.730755 -0.938931 -0.869454
internal_count=3306 1001 939 613 544 2305 408 1897 285 235 62 123 102 326 115 1407 210 1197 490 127 363 41 50 211 69
shrinkage=0.05


Tree=48
num_leaves=23
num_cat=0
split_feature=18 20 22 10 10 2 18 22 25 11 25 23 7 12 15 0 12 7 18 14 12 12
split_gain=7.05987 4.41778 7.09689 5.0388 9.196 6.34008 4.12303 4.40238 5.06487 7.80575 7.23762 5.02177 6.29916 5.78186 3.99203 3.49422 4.19242 4.04183 3.96153 2.00407 1.86726 0.315013
threshold=505.50000000000006 -0.30964999999999993 -620.07751937984483 1.242838306002805 1.2867354914048881 1.5010381652661056 424.50000000000006 2.8039215686274517 68.995676565471214 0.94559653237446806 39.827279453796955 46.206993330251599 -167.61336330438175 1.7267651694572759 15.584900000000003 1.7887072321378168 2.70298420012965 -8.6546545970707545 464.50000000000006 123.75750000000001 4.4732385522039824 2.3742403181444858
decision_type=2 2 2 2 2 2 2 2 2 2 2 2 2 2 2 2 2 2 2 2 2 2
left_child=6 -2 14 5 -5 -4 7 11 10 -10 -9 13 -13 -1 19 20 18 -18 -17 -3 21 -8
right_child=1 2 3 4 -6 -7 15 8 9 -11 -12 12 -14 -15 -16 16 17 -19 -20 -21 -22 -23
leaf_value=0.02219331696149052 0.056961129474482175 -0.051705592054964222 0.006968954528152169 0.055390108811753797 -0.0095848597822583061 -0.010710414310896163 0.044381100103091181 0.00393847531979683 0.043083876572759146 -0.039150991809123736 -0.078943893516822822 -0.024543234583845136 0.014841968792595642 -0.024488460584103897 0.024826319581817614 0.03636440232326401 0.01640049937717775 -0.036622811123646182 0.0011981337428212131 -0.0028549973564203131 0.014411141775845196 0.065613813647850988
leaf_count=39 21 113 477 56 75 1487 21 20 26 23 26 50 433 104 21 110 33 35 66 20 20 30
internal_value=0 -0.10395 -0.115976 -0.0751964 0.382874 -0.115362 0.131207 0.0507726 -0.3625 0.0955122 -0.858066 0.114876 0.216601 -0.228271 -0.710646 0.359234 0.24053 -0.210168 0.436732 -0.886727 0.86141 1.15209
internal_count=3306 2270 2249 2095 131 1964 1036 721 95 49 46 626 483 143 154 315 244 68 176 133 71 51
shrinkage=0.05


Tree=49
num_leaves=24
num_cat=0
split_feature=11 12 16 4 4 11 4 9 20 19 14 14 19 15 25 11 9 3 21 5 6 13 22
split_gain=6.77617 6.28615 6.49067 5.8867 9.53548 6.88116 5.88021 9.16933 5.96839 5.94114 5.56406 8.29722 5.06778 4.72858 5.15678 4.28429 3.19607 3.10155 2.70611 2.20074 2.14417 1.50848 0.378271
threshold=1.516237952987517 5.4005489444646608 194.50000000000003 162.40017672663407 184.60384410292775 0.051086136540720813 71.640032733355611 1.1718508528986551 -0.020499999999999997 175.50000000000003 46.455600000000011 -16.199949999999998 445.50000000000006 7.0640000000000009 72.373719158261721 0.058714620902760008 1.0316063985326867 0.44628095710127286 1.1457826431541729 0.75900254106432918 0.84507069913589949 -29.093306749040853 -1.0000000180025095e-35
decision_type=2 2 2 2 2 2 2 2 2 2 2 2 2 2 2 2 2 2 2 2 2 2 2
left_child=1 2 3 5 -5 -1 12 13 21 -10 11 -3 16 19 -15 -13 -2 -4 -12 -8 -20 -9 -19
right_child=6 10 17 4 -6 -7 7 8 9 -11 18 15 -14 14 -16 -17 -18 22 20 -21 -22 -23 -24
leaf_value=0.015397466455042636 0.009233463739943347 -0.059088867173440189 -0.0067339174937726277 0.049731145336598503 0.0074255508951167701 -0.0018071151430715888 -0.031203797732139018 -0.01798079716111976 0.05082254593685908 -0.002842982698057198 -0.0023755653827138559 0.044518367025498051 -0.035394959904130704 0.03033153380455509 -0.032674931582672977 -0.0051983043505618061 0.08016882226022716 -0.044281935386988172 -0.077907919237115542 -0.06092084166126023 -0.031690516514010156 -0.059901580228707299 -0.071249398076174794
leaf_count=386 20 32 34 110 258 1258 98 25 37 507 20 35 21 38 77 64 21 20 32 113 34 44 22
internal_value=0 0.0642447 0.105427 0.129894 0.406 0.0671166 -0.198824 -0.255809 -0.0686166 0.0234628 -0.329943 -0.0366438 0.588561 -0.65663 -0.191135 0.273192 1.03052 -0.651223 -0.847858 -0.917736 -1.10317 -0.846709 -1.19798
internal_count=3306 2305 2088 2012 368 1644 1001 939 613 544 217 131 62 326 115 99 41 76 86 211 66 69 42
shrinkage=0.05


Tree=50
num_leaves=23
num_cat=0
split_feature=11 12 16 21 20 19 7 0 7 25 7 14 14 2 11 3 21 6 25 25 22 22
split_gain=6.1642 5.71184 5.93411 5.40002 6.17537 7.18187 5.59107 5.31514 5.30077 7.54523 7.46858 5.13732 7.64732 4.24787 3.84911 2.96325 2.54264 2.07365 1.92095 0.564722 0.366848 0.0120198
threshold=1.516237952987517 5.4005489444646608 194.50000000000003 1.243948449850113 -0.019749999999999997 142.50000000000003 -382.15589166586159 2.8633472266809248 -360.48541781122077 63.693497876240805 -99.745131745243626 46.455600000000011 -16.199949999999998 5.4082727348574444 0.058714620902760008 0.44628095710127286 1.1457826431541729 0.85719541679806588 64.608899190982598 90.551100244995965 -1.0000000180025095e-35 -403.5714285714285
decision_type=2 2 2 2 2 2 2 2 2 2 2 2 2 2 2 2 2 2 2 2 2 2
left_child=1 2 8 4 19 -6 -5 -7 9 -1 -10 12 -3 18 -14 -4 -13 -18 -8 21 -17 -2
right_child=3 11 15 6 5 7 13 -9 10 -11 -12 16 14 -15 -16 20 17 -19 -20 -21 -22 -23
leaf_value=0.012373041045698877 -0.056103140813270849 -0.057535502268251874 -0.0064107001480166077 0.040742770513213511 0.064380878705963665 -0.00786367712524297 -0.021765648099140195 0.029447897415994656 0.026259975495971574 -0.053124105444062666 0.0045158630342220629 -0.0022589302585430083 0.042137648533390588 0.015441451832032103 -0.0049437453438609504 -0.0432789623885683 -0.076121701712599937 -0.030177029970243394 -0.049916440355213892 -0.03027058885267489 -0.07025510933149888 -0.06137152585151167
leaf_count=55 20 32 34 20 25 569 78 73 275 56 1626 20 35 35 64 20 33 33 138 23 22 20
internal_value=0 0.0610359 0.100142 -0.190617 -0.0706157 0.00103121 -0.536605 -0.0614139 0.123339 -0.411231 0.152527 -0.31653 -0.0351448 -0.660124 0.259318 -0.629637 -0.819389 -1.0715 -0.802978 -0.963164 -1.17688 -1.18315
internal_count=3306 2305 2088 1001 730 667 271 642 2012 111 1901 217 131 251 99 76 86 66 216 63 42 40
shrinkage=0.05


Tree=51
num_leaves=17
num_cat=0
split_feature=18 16 21 12 2 16 4 4 20 19 20 7 7 1 23 13
split_gain=5.71554 4.76896 7.87867 5.34785 4.9688 7.05061 4.5982 4.10109 4.01547 4.93864 6.69899 6.26455 3.52446 4.06462 1.56747 1.52725
threshold=598.50000000000011 193.50000000000003 1.1014091669385764 0.34278109939344853 3.4365720472440944 86.500000000000014 119.42909057146751 687.01332558632441 0.21949999940000001 161.50000000000003 0.15240000000000001 -45.073192611156827 -63.964385511226617 3.5638846175734131 63.396112852405658 58.188512219121399
decision_type=2 2 2 2 2 2 2 2 2 2 2 2 2 2 2 2
left_child=7 3 -3 -2 5 -5 -6 8 9 11 -11 -1 -10 -14 -4 -16
right_child=1 2 14 4 6 -7 -8 -9 12 10 -12 -13 13 -15 15 -17
leaf_value=0.0080927330382902282 0.043381211578318223 0.028479424191033956 -0.010705883770912297 -0.0041825903320960667 -0.03752904252360667 0.024042399842992678 -0.0081447949181667183 -0.043182243365714183 -0.013108018746929337 0.009458433419763693 -0.037838358367397781 -0.03243442349144595 0.078671221218560142 0.022633452317389946 -0.058438513819412168 -0.012769051280081142
leaf_count=82 25 31 24 1036 183 207 463 27 22 879 38 82 20 58 109 20
internal_value=0 -0.105108 -0.557164 -0.0651451 -0.0887837 0.00586049 -0.310728 0.105452 0.122247 0.0836997 0.150026 -0.244497 0.542844 0.753402 -0.883281 -1.02415
internal_count=3306 2098 184 1914 1889 1243 646 1208 1181 1081 917 164 100 78 153 129
shrinkage=0.05


Tree=52
num_leaves=17
num_cat=0
