tree
version=v2
num_class=1
num_tree_per_iteration=1
label_index=0
max_feature_idx=24
objective=binary sigmoid:1
feature_names=average_inner_amplitude average_outer_amplitude average_turn_rate increase_before_fallback max_decrease pb_height pe_height profit_growth sma10_250 sma120_250 sma50_120 variance volume_ratio adjust_period business_growth pe pb mkt_cap new_high_days days_with_lower_price days_from_bottom roe eps close_sma50 eps_growth
feature_infos=[0.053030242646095828:6.7396665370694695] [0.120591601902653:11.47328566052361] [0:36.952527272727281] [-0.082922478507544126:28.796264235570849] [0.2884498538563473:29.999977709270944] [0:1] [0:1] [-294200.26989236259:104284.48337644064] [0.76947406573922505:4.8071931604681915] [0.64308491253643862:1.9039495265613915] [0.74925723432239177:1.9243646190791888] [2.932358383984395e-05:1482.5139158262939] [0.002594608915698187:49.080485795046712] [15:772] [-100:559056.9004253936] [-116436:3031380] [-2556.6300000000001:15183.799999999999] [0:12115] [0:3241] [109:3241] [0:3173] [-729.88897699999995:1104.900024] [-3.8769999999999998:15.91] [1.0000828350858773:18.262718276437219] [-55100:50510]
tree_sizes=2503 2520 2535 2542 2547 2539 2532 2535 2545 2543 2562 2550 2543 2551 2525 2532 2546 2539 2520 2523 2528 2542 2569 2535 2559 2541 2538 2544 2554 2536 2539 2548 2527 2555 2541 2542 2506 2519 2533 2549 2542 2527 2540 2541 2529 2527 2554 2550 2527 2550 2497 2531 2530 2525 2500 2518 2500 2550 2522 2523 2534 2538 2544 2475 2515 2506 2460 2524 2511 2545 2526 2479 2489 2504 2477 2522 2528 2531 2464 2507 2505 2486 2511 2484 2488 2534 2513 2552 2492 2508 2479 2457 2487 2510 2486 2496 2496 2496 2473 2498 2504 2468 2484 2513 2499 2451 2469 2505 2489 2490 2476 2534 2498 2504 2517 2511 2492 2467 2520 2501 2466 2489 2499 2486 2472 2472 2479 2463 2491 2479 2503 2502 2465 2485 2507 2492 2511 2493 2490 2504 2475 2504 2531 2481 2491 2481 2488 2454 2503 2490

Tree=0
num_leaves=31
num_cat=0
split_feature=11 19 22 5 16 19 8 1 19 19 1 12 8 18 10 8 14 18 9 0 13 0 9 10 10 12 17 1 17 17
split_gain=830.761 291.972 246.008 186.37 184.09 155.93 124.073 164.124 112.65 91.51 129.573 89.6038 88.1628 72.1712 79.4038 61.6274 60.3684 56.6832 51.7484 50.7385 46.0757 43.0135 42.8184 42.3048 39.6032 38.6741 37.8584 37.1683 42.1159 34.7979
threshold=0.038167162817245304 524.50000000000011 1.0000000180025095e-35 0.40845257021727616 3.6754500000000001 2423.5000000000005 1.0562361912444866 3.2689666438512819 388.50000000000006 2297.5000000000005 2.5977472562894333 0.16634379767325752 1.1965399267563492 298.50000000000006 1.0282954587300639 1.0314045424280351 -56.157813517688076 551.50000000000011 1.1126741344574815 1.1941424493779631 42.500000000000007 1.8636895724538338 0.85223760666725201 1.0961820002571252 1.0883668636191455 0.4188592044156691 77.500000000000014 2.7877150141040654 45.500000000000007 47.500000000000007
decision_type=2 2 2 2 2 2 2 2 2 2 2 2 2 2 2 2 2 2 2 2 2 2 2 2 2 2 2 2 2 2
left_child=1 2 8 9 5 6 27 29 12 10 15 -6 -1 -13 -15 26 -4 22 -9 -18 -20 23 -5 -19 -12 -24 -3 28 -2 -8
right_child=4 3 16 17 11 -7 7 18 -10 -11 24 13 -14 14 -16 -17 19 21 20 -21 -22 -23 25 -25 -26 -27 -28 -29 -30 -31
leaf_value=-0.66606690752153208 -0.73827270615889462 -0.68234717610368578 -0.64117750213532876 -0.691044153035414 -0.66391389310845006 -0.91751492966506554 -0.69720036292036802 -0.85272989373323305 -0.60829737053406685 -0.92756159610188105 -0.81397955158122703 -0.88808315402047355 -0.80961175359354409 -0.77868485596362991 -0.86534076748245914 -0.627692272267382 -0.71130299341755743 -0.66033900660940381 -0.82680166961920232 -0.80712421884159502 -0.74576485995484354 -0.8512101987916757 -0.60645078728201962 -0.81271887004528409 -0.70879228243002679 -0.85041008295203691 -0.80315093351010836 -0.87810998399072793 -0.85084104121605419 -0.76588931333611032
leaf_count=520 214 264 137 84 95 861 596 1643 801 137 907 7354 331 610 2768 458 315 206 870 1530 536 195 31 148 208 3363 229 1614 591 840
internal_value=0 0.510016 0.999784 0.22433 -0.270589 -0.0151242 0.093679 0.307732 1.6194 0.732751 0.846859 -0.453806 1.06859 -0.472415 -0.209346 1.43643 0.483331 -0.053805 0.0223022 0.379933 0.328493 0.595443 -0.156288 1.04712 0.344006 -0.19424 0.902969 -0.30319 0.0784177 0.913773
internal_count=28456 9864 3634 6230 18592 7765 6904 4485 1652 2203 2066 10827 851 10732 3378 951 1982 4027 3049 1845 1406 549 3478 354 1115 3394 493 2419 805 1436
shrinkage=1


Tree=1
num_leaves=31
num_cat=0
split_feature=11 19 22 5 13 8 19 19 1 1 19 19 8 12 8 11 14 17 2 12 8 12 9 16 8 18 1 9 19 19
split_gain=670.182 236.131 187.691 173.184 158.967 150.643 86.0756 107.647 82.2971 81.2099 124.377 80.7341 78.0717 76.8477 68.6967 60.803 47.223 45.3829 43.8293 39.624 37.596 36.527 36.136 41.8339 36.0304 34.7688 38.8825 36.0213 34.5749 34.3515
threshold=0.042603449697226813 524.50000000000011 1.0000000180025095e-35 0.53656944532891815 51.500000000000007 1.0427209775771895 2439.5000000000005 1609.5000000000002 3.278289309012083 2.7618944132858547 2246.5000000000005 388.50000000000006 1.0272341029284815 0.16634379767325752 1.2844188006550514 0.13716939191376265 -56.157813517688076 41.500000000000007 1.9342539814814825 0.4188592044156691 1.100478476179134 0.16634379767325752 1.037567019947929 2.9083000000000006 1.0700410723191369 510.50000000000006 4.2983440944858078 0.85223760666725201 516.50000000000011 494.50000000000006
decision_type=2 2 2 2 2 2 2 2 2 2 2 2 2 2 2 2 2 2 2 2 2 2 2 2 2 2 2 2 2 2
left_child=1 2 11 9 13 21 7 8 24 10 12 14 -3 -2 -1 22 -4 -9 -18 -5 -11 -6 -15 -24 -7 27 -27 -21 -25 -10
right_child=4 3 16 19 5 6 -8 17 29 20 -12 -13 -14 15 -16 -17 18 -19 -20 25 -22 -23 23 28 -26 26 -28 -29 -30 -31
leaf_value=0.12714682485834575 0.14703073950268183 0.055484172840038717 0.15977088776215378 0.19415600221296908 0.21619394245236145 -0.0047078684954707699 -0.072347034911330918 0.17154696222741672 0.046517960268120939 -0.012265350419407919 -0.069931764830838114 0.18319526866597385 0.15381465073445408 -0.050964827180860477 -0.0092314805577822911 -0.058825939259883435 0.067090957006785551 0.066744834285143204 0.0019685894260697031 0.11299272645991543 0.056776773290913164 -0.049815675288054306 0.028719187790418182 0.035178007776282411 0.083896851777067752 0.071447673570606759 -0.052874393677153547 -0.030903110475885044 -0.038156091632303046 -0.027888206718221766
leaf_count=626 97 699 139 40 24 296 417 260 360 856 216 835 784 1843 236 5988 904 759 1031 81 651 2170 849 361 786 371 174 2893 2087 1623
internal_value=0 0.428148 0.85447 0.183769 -0.260689 0.0047791 0.231185 0.325892 0.122237 0.545317 0.865152 1.37148 1.08049 -0.420451 0.90948 -0.43782 0.414866 0.936183 0.325416 -0.148724 0.17742 -0.467708 -0.263509 -0.126828 0.59905 -0.173983 0.326033 -0.267757 -0.273137 -0.143545
internal_count=28456 10536 3771 6765 17920 6695 4501 4084 3065 3206 1699 1697 1483 11225 862 11128 2074 1019 1935 3559 1507 2194 5140 3297 1082 3519 545 2974 2448 1983
shrinkage=0.1


Tree=2
num_leaves=31
num_cat=0
split_feature=11 19 19 5 13 8 11 19 1 8 22 1 18 17 5 19 19 10 21 9 19 5 9 2 1 19 18 10 17 5
split_gain=556.72 237.903 178.084 175.529 114.148 125.926 113.809 88.8733 102.199 86.177 61.9587 58.5689 53.1478 53.3504 60.2864 52.1932 66.091 44.7987 43.0603 41.2732 41.055 40.4226 38.5837 38.4498 33.6345 29.6353 31.4595 29.0709 26.4787 30.7172
threshold=0.073880884365379859 524.50000000000011 400.50000000000006 0.54000630119722759 46.500000000000007 1.0631753728149576 0.0051170168576996754 2409.5000000000005 2.7877150141040654 1.0314045424280351 1.0000000180025095e-35 3.3442556709080846 542.50000000000011 45.500000000000007 0.75374217157976731 1549.5000000000002 2439.5000000000005 1.0477877604099792 0.050000000350000011 1.0418463710141099 2423.5000000000005 0.22238088169224826 1.0763828533556403 1.6845424568965515 3.1889404929215082 1205.5000000000002 754.00000000000011 0.98652530311768116 73.500000000000014 0.26556691273177896
decision_type=2 2 2 2 2 2 2 2 2 2 2 2 2 2 2 2 2 2 2 2 2 2 2 2 2 2 2 2 2 2
left_child=1 2 6 7 22 -6 23 8 9 21 -4 20 13 14 -5 25 27 -14 -12 -10 28 -3 -2 -1 -24 26 -13 -17 -7 -30
right_child=4 3 10 12 5 11 -8 -9 19 -11 18 15 17 -15 -16 16 -18 -19 -20 -21 -22 -23 24 -25 -26 -27 -28 -29 29 -31
leaf_value=0.14849002776505343 -0.066590528115885381 0.083033249082372529 0.15895333275733514 0.033474397333821855 -0.048354372459002308 0.093524238124392423 0.0068239092158886867 -0.087994295682274626 -0.0079356048705000164 0.12814455260603097 -0.06262637891529832 -0.021812237468833446 0.12414549483171118 -0.054082499312109157 -0.034469285976662892 0.17464463715162787 -0.11874487916807708 0.0058007722630372535 0.096148958834116255 0.053156315175267956 -0.034803270830245224 -0.0053799730792547795 0.021935258465114439 0.059579415825196491 -0.041669161647835226 -0.078550273952396443 0.088389078549126782 0.05100615781659356 0.11156478788720572 -0.00031893370267384996
leaf_count=386 3392 466 916 1087 2446 652 1911 248 1299 967 90 1176 189 1909 1483 112 100 648 685 861 247 484 446 491 4269 398 138 394 154 412
internal_value=0 0.29855 0.699444 0.103426 -0.310786 -0.0895079 0.364989 0.422212 0.49509 0.846876 1.23423 0.155634 -0.165739 -0.262041 -0.0561118 -0.0621979 0.480517 0.331841 0.77904 0.167516 0.49019 0.383148 -0.485207 0.991079 -0.356102 -0.259777 -0.101804 0.785529 0.644734 0.304113
internal_count=28456 14120 4479 9641 14336 6229 2788 4325 4077 1917 1691 3783 5316 4479 2570 2318 606 837 775 2160 1465 950 8107 877 4715 1712 1314 506 1218 566
shrinkage=0.1


Tree=3
num_leaves=31
num_cat=0
split_feature=16 19 9 22 1 19 12 19 11 1 17 19 18 17 22 10 9 10 21 20 20 22 5 5 17 5 19 12 10 1
split_gain=473.747 203.675 142.371 106.349 120.004 103.257 93.7813 88.5468 91.63 75.8484 75.8291 59.829 55.2972 54.9532 54.5996 70.451 54.0846 53.4843 49.4192 49.2304 54.3264 45.8855 44.7131 39.72 39.3913 38.0409 37.1765 36.1112 35.6885 30.7159
threshold=2.9259000000000008 2378.5000000000005 0.95607740383076678 1.0000000180025095e-35 2.5653049065415026 2423.5000000000005 0.4188592044156691 1623.5000000000002 0.05735034210790968 4.862933081516112 1011.5000000000001 516.50000000000011 588.50000000000011 203.50000000000003 -0.0099499999999999988 1.0760599023781885 0.9683680829156408 1.0508960436770236 -1.0000000180025095e-35 352.50000000000006 561.50000000000011 0.0069500000000000004 0.22238088169224826 0.3325038699690403 132.50000000000003 0.52803162055335984 372.50000000000006 2.4480120904522411 1.0918697528397285 4.2494549436941593
decision_type=2 2 2 2 2 2 2 2 2 2 2 2 2 2 2 2 2 2 2 2 2 2 2 2 2 2 2 2 2 2
left_child=1 2 28 14 13 6 -2 8 11 16 -7 21 24 23 18 -16 -9 -18 -4 27 -21 -8 -15 -5 -6 -13 -17 -10 -1 -14
right_child=5 -3 3 4 12 10 7 9 19 -11 -12 25 29 22 15 26 17 -19 -20 20 -22 -23 -24 -25 -26 -27 -28 -29 -30 -31
leaf_value=-0.031364751682936211 0.12069643182466272 -0.06907753499032504 0.085270113864630903 0.13839406258149542 0.020815306408185734 -0.092690101090536783 0.087184477550556028 -0.063057300457719498 -0.035585933999226764 -0.061212602912940672 0.23614466689577301 0.031411906077144801 0.11223344168399525 0.077201841160276674 0.15124595948633102 -0.0093386147164232786 0.068589577069068638 -0.0035558346538814185 -0.027566924141915396 0.030619462154501533 -0.053130616791848773 0.002894492710794244 -0.05080130767153021 0.06468350231840217 -0.037793736628037353 -0.031267750829174906 0.11807686296587615 -0.068206881120520091 0.057598004556374496 -0.0096227436891451294
leaf_count=1382 210 913 553 740 3653 1306 452 275 3544 554 36 545 414 295 877 238 1308 789 264 836 692 762 211 577 634 2623 174 3220 253 126
internal_value=0 0.335052 0.416004 0.521803 0.386694 -0.237316 -0.188489 -0.209113 -0.289299 0.134781 -0.837483 -0.0378029 0.205426 0.843601 0.929943 1.18945 0.302036 0.41894 0.491301 -0.42922 -0.0715156 0.357141 0.24952 1.06836 0.122478 -0.200549 0.465694 -0.51148 -0.175952 0.848051
internal_count=28456 11304 10391 8756 6650 17152 15810 15600 12674 2926 1342 4382 4827 1823 2106 1289 2372 2097 817 8292 1528 1214 506 1317 4287 3168 412 6764 1635 540
shrinkage=0.1


Tree=4
num_leaves=31
num_cat=0
split_feature=16 19 9 11 19 19 11 1 17 13 13 19 12 12 9 15 10 12 9 22 5 0 10 21 17 21 10 24 13 19
split_gain=385.101 175.861 116.979 86.1373 79.2101 72.4232 81.3376 61.9942 59.4304 57.9973 57.1929 51.6547 49.6846 44.6247 44.4593 42.8401 41.2904 40.2989 39.5447 37.9244 35.9283 35.1695 37.5107 35.1647 35.1125 34.1685 29.1153 28.0519 24.8329 22.6376
threshold=3.1032500000000005 2423.5000000000005 0.96936413895537232 0.024393472204301232 2423.5000000000005 1575.5000000000002 0.065469329750562022 4.862933081516112 1011.5000000000001 73.500000000000014 96.500000000000014 516.50000000000011 2.0530147165066603 0.4188592044156691 0.97279328406000698 43.820950000000003 1.0508960436770236 1.2767179539628988 1.0572418675085256 1.0000000180025095e-35 0.79152039274924479 1.1302028436930194 1.0883668636191455 2.5050000000000003 40.500000000000007 0.095000000000000015 1.0750420343814595 50.080000000000005 114.50000000000001 394.50000000000006
decision_type=2 2 2 2 2 2 2 2 2 2 2 2 2 2 2 2 2 2 2 2 2 2 2 2 2 2 2 2 2 2
left_child=1 2 21 9 5 6 11 14 -6 19 13 15 -8 -5 -7 -2 24 -13 -15 26 -19 23 -23 27 -16 -21 -4 -1 -14 -17
right_child=4 -3 3 10 8 7 12 -9 -10 -11 -12 17 28 18 16 29 -18 20 -20 25 -22 22 -24 -25 -26 -27 -28 -29 -30 -31
leaf_value=0.12403200774489981 0.073172440826268711 -0.070810295944577273 0.111687051402976 0.20158499130865351 -0.087564083680980037 -0.054497376564371883 -0.020205069549565618 -0.05623488278460468 0.19877161307018018 0.13074808788742667 0.074452739174336022 0.056428824666139535 -0.062215632103343181 -0.012392598442606735 0.12266840829128606 -0.050060389505602966 -0.002519212928865781 -0.0022459891149632766 0.031017600964489734 -0.030377707064875567 -0.051114757564261148 -0.035538237377487847 0.044615373546767194 -0.014155209270864747 0.040482346517407015 0.051191348027213528 0.042008128050276018 -0.089235898027851188 0.0006605937242968752 0.035021671859344183
leaf_count=222 595 897 748 56 1229 303 3212 565 34 538 880 309 3963 1737 310 291 797 1464 2240 272 1468 1611 331 259 990 2095 394 33 339 274
internal_value=0 0.278176 0.344713 0.454881 -0.233151 -0.189367 -0.267539 0.116341 -0.786326 0.678362 0.26136 -0.0352142 -0.412603 0.150462 0.264355 0.342265 0.372783 -0.18272 0.122906 0.578624 -0.263595 -0.0782443 -0.21569 0.414993 0.605002 0.422923 0.883923 0.973858 -0.571429 -0.0797408
internal_count=28456 12313 11416 8960 16143 14880 11915 2965 1263 4047 4913 4401 7514 4033 2400 1160 2097 3241 3977 3509 2932 2456 1942 514 1300 2367 1142 255 4302 565
shrinkage=0.1


Tree=5
num_leaves=31
num_cat=0
split_feature=11 16 22 13 8 19 1 8 19 22 1 21 8 1 19 19 18 8 22 9 21 9 18 14 19 17 19 1 19 18
split_gain=323.306 132.971 90.8988 84.0218 89.8575 65.2907 61.3862 50.1193 42.1349 42.652 38.875 38.237 34.7872 34.5884 33.0441 41.2885 32.7983 36.7952 41.8759 32.5807 29.1324 28.177 27.1973 27.0022 27.84 25.3653 24.798 24.372 31.341 23.8558
threshold=0.073880884365379859 2.9259000000000008 1.0000000180025095e-35 46.500000000000007 1.0673474355582009 2378.5000000000005 2.4877740939736754 1.0027892494181103 516.50000000000011 0.0069500000000000004 3.3442556709080846 0.17905000000000001 1.0232148635744716 3.3661090174884616 1549.5000000000002 2535.5000000000005 436.50000000000006 1.2564365720304165 -0.054749999999999993 1.0906514824096432 0.095000000000000015 0.85223760666725201 374.50000000000006 33.020309937894858 2423.5000000000005 108.50000000000001 1205.5000000000002 4.4182875377350284 585.50000000000011 754.00000000000011
decision_type=2 2 2 2 2 2 2 2 2 2 2 2 2 2 2 2 2 2 2 2 2 2 2 2 2 2 2 2 2 2
left_child=1 2 16 19 -5 6 12 -8 9 -3 -6 -9 -4 23 26 25 17 18 -1 -2 -14 -15 -11 24 -10 -16 29 -21 -29 -12
right_child=3 8 5 4 10 -7 7 11 13 22 14 -13 20 21 15 -17 -18 -19 -20 27 -22 -23 -24 -25 -26 -27 -28 28 -30 -31
leaf_value=0.026017357270716732 -0.055576544723355652 0.075712596392729467 0.030267719867151845 -0.03899410189734806 0.043101574354172972 -0.068528830331797963 -0.033334097650276222 -0.027122033469328701 0.031716426662161144 -0.016497247767484322 -0.01501077498445144 0.03832670068498753 -0.12871069988477948 0.10868675230586039 0.089133845138231887 -0.12165477725300221 0.14607896835934792 0.011634264012411386 0.10751968688264608 -0.0059388856437912509 0.099620506214001481 -0.030872008369825635 0.085633765015948105 -0.039823816139691402 -0.085587659428664253 -0.014589063809019216 -0.068869402986962577 0.0061541462880669497 -0.053849272075177625 0.080247396067523291
leaf_count=391 3801 520 667 2525 1415 370 747 489 1426 731 1159 2759 27 69 368 81 252 394 915 1700 848 2848 140 408 119 148 395 563 2043 138
internal_value=0 0.221536 0.400759 -0.246114 -0.0551167 0.265892 0.318516 0.175934 -0.0195836 0.300067 0.155722 0.288149 0.666845 -0.120056 -0.0250767 0.403045 0.782607 0.677631 0.841953 -0.400721 0.932941 -0.27382 0.00264191 0.105293 0.237747 0.598525 -0.188798 -0.267085 -0.40603 -0.0433339
internal_count=28456 14120 7859 14336 6229 5907 5537 3995 6261 1391 3704 3248 1542 4870 2289 597 1952 1700 1306 8107 875 2917 871 1953 1545 516 1692 4306 2606 1297
shrinkage=0.1


Tree=6
num_leaves=31
num_cat=0
split_feature=11 16 19 13 18 9 9 11 1 5 17 0 17 12 19 15 12 1 12 2 5 19 19 12 22 17 17 19 2 13
split_gain=263.974 108.339 74.2973 69.6755 69.3156 57.3727 53.0498 50.4026 46.5727 42.849 35.4461 34.4987 44.049 39.0261 33.2374 36.0644 33.0789 32.3973 32.3301 27.7927 26.5144 30.025 25.1034 23.2595 23.0541 30.3831 22.8063 22.7686 27.0831 22.0535
threshold=0.075011315241748838 2.9259000000000008 2409.5000000000005 65.500000000000014 436.50000000000006 1.0274090703139611 1.0283755894295858 0.0021194165670385882 2.7110107568784909 0.60950594493116417 26.500000000000004 1.121989166071893 47.500000000000007 0.4188592044156691 516.50000000000011 32.282600000000009 1.5699067745041637 3.9634623040924395 2.0958870288524976 3.1637281250000009 0.39151446280991742 2177.5000000000005 516.50000000000011 0.16634379767325752 0.56000000120000015 28.500000000000004 35.500000000000007 533.50000000000011 2.8746347202295559 161.50000000000003
decision_type=2 2 2 2 2 2 2 2 2 2 2 2 2 2 2 2 2 2 2 2 2 2 2 2 2 2 2 2 2 2
left_child=1 2 4 6 7 8 24 -1 10 -8 -5 12 -9 -13 15 -3 -16 26 22 29 21 -12 -11 -24 25 -2 -7 -6 -29 -18
right_child=3 14 -4 5 27 17 9 11 -10 18 20 13 -14 -15 16 -17 19 -19 -20 -21 -22 -23 23 -25 -26 -27 -28 28 -30 -31
leaf_value=0.086816203405936931 -0.0087756820802851795 0.073880540798295799 -0.071216008726858612 0.18774071397005199 0.14168902650002924 0.10182618548337151 0.0092657336513688737 0.11157072657736139 -0.043464717003236848 0.042207468423351241 0.074855253869753571 0.21311954088110863 0.029457091930344528 0.016033998585879915 0.026588931411719242 0.002356419064382026 -0.011156915697714974 -0.015847871388692959 -0.050742021225367466 -0.050060589070383715 -0.039570045728880093 -0.06564360746984968 0.1173191343572499 -0.026769800848162342 -0.00038708381593496351 -0.077247612663573925 0.033426247845740074 0.093042296732410143 -0.019396936959144885 0.12821361029489242
leaf_count=640 405 450 353 54 279 297 1615 410 1593 325 332 43 859 4741 919 950 2857 489 2626 1099 330 101 49 2597 315 2229 867 459 119 54
internal_value=0 0.19726 0.357956 -0.226732 0.396866 0.0154796 -0.329987 0.323517 -0.208662 -0.226993 0.2193 0.262586 0.564814 0.179021 -0.0198711 0.262453 -0.109019 0.322879 -0.322426 -0.196929 0.090839 0.443686 -0.160862 -0.235443 -0.593687 -0.664934 0.514559 0.945729 0.707641 -0.0843609
internal_count=28456 14232 7903 14224 7550 4063 10161 6693 2410 7212 817 6053 1269 4784 6329 1400 4929 1653 5597 4010 763 433 2971 2646 2949 2634 1164 857 578 2911
shrinkage=0.1


Tree=7
num_leaves=31
num_cat=0
split_feature=16 19 9 18 17 1 10 22 17 19 10 19 20 2 16 12 8 5 16 14 6 9 1 10 0 12 21 0 5 5
split_gain=220.664 118.717 78.529 60.4508 59.6315 70.0503 58.6942 57.2209 55.1453 38.6374 38.497 36.0308 34.479 34.3991 32.6552 32.0344 31.2894 42.2688 30.007 28.652 24.903 25.1503 23.3176 23.1463 29.6045 21.8316 21.7063 21.9417 21.0886 20.5962
threshold=3.2357500000000003 2423.5000000000005 0.96936413895537232 266.50000000000006 192.50000000000003 3.0796997362956029 1.0709858608948388 1.0000000180025095e-35 38.500000000000007 516.50000000000011 1.0042802384550791 542.50000000000011 349.50000000000006 1.0148825396825398 1.1335500000000003 3.1960484220445706 1.0578243928766151 0.22238088169224826 4.3674500000000007 -31.016586391423935 0.63454284611425638 1.0117722063870755 2.7367001679101501 1.1459947940719903 1.0768699638966865 6.2062113804299317 9.3750000000000018 1.566512699145701 0.42551595744680853 0.90195594347464692
decision_type=2 2 2 2 2 2 2 2 2 2 2 2 2 2 2 2 2 2 2 2 2 2 2 2 2 2 2 2 2 2
left_child=1 2 19 8 5 16 18 11 13 -8 -6 -7 -9 25 -12 -15 17 -4 -5 -1 26 -22 -17 24 -21 -2 -10 -28 -18 -16
right_child=3 -3 4 6 10 7 9 12 20 -11 14 -13 -14 15 29 22 28 -19 -20 23 21 -23 -24 -25 -26 -27 27 -29 -30 -31
leaf_value=0.066578822653839381 0.070596520127893636 -0.062539839566837965 0.087153630879969857 0.069963672552878609 -0.068309940571671252 0.072045572300875743 0.032850488550570128 0.00015090122084231996 -0.038106804573186548 -0.030791171083206122 0.1018833394290027 0.0029877721890567352 0.065867716259240441 0.00034207573718317887 -0.01604082674926964 0.12002041360265032 0.10644867422076804 0.0090341109836760379 0.011435387181175191 0.031537335290283755 -0.082735884939666396 -0.041400794619091359 -0.05936802841960314 0.056521554092553009 -0.0346932818260327 -0.077824173581798162 0.036323982559507695 -0.03254604894936565 0.061632064135533696 0.15305178134605046
leaf_count=211 385 951 480 620 380 1257 542 3074 2429 2545 144 462 406 2091 599 37 788 804 1243 365 1146 2591 828 188 1819 57 477 480 1023 34
internal_value=0 0.197189 0.248102 -0.191037 0.334486 0.396308 0.0101547 0.243792 -0.290265 -0.184091 -0.118512 0.547844 0.080856 -0.0569437 0.148156 -0.145383 0.641449 0.389927 0.312274 -0.0924445 -0.406816 -0.536979 -0.513015 -0.162405 -0.226735 0.518836 -0.26534 0.0241095 0.814564 -0.0678044
internal_count=28456 12985 12034 15471 9451 8294 4950 5199 10521 3087 1157 1719 3480 3398 777 2956 3095 1284 1863 2583 7123 3737 865 2372 2184 442 3386 957 1811 633
shrinkage=0.1


Tree=8
num_leaves=31
num_cat=0
split_feature=11 16 18 20 20 19 19 0 12 5 22 19 19 5 18 17 5 10 22 9 8 9 10 17 1 22 23 8 21 1
split_gain=190.1 99.3065 62.4252 47.263 47.7491 46.9161 39.487 44.2563 39.2019 39.0214 37.3754 34.8301 60.6817 52.5323 37.5247 30.895 38.5544 28.7529 27.1106 24.7854 24.1079 24.021 33.7719 23.1852 22.9924 21.6815 26.8158 19.344 19.321 16.4207
threshold=0.13716939191376265 2.4884500000000007 436.50000000000006 361.50000000000006 551.50000000000011 2472.5000000000005 2230.5000000000005 1.2103673993483151 0.4188592044156691 0.5495141509433964 1.0000000180025095e-35 1642.5000000000002 1032.5000000000002 0.53656944532891815 408.50000000000006 46.500000000000007 0.22238088169224826 1.0083971528473177 -0.0070499999999999998 1.0233455762297552 0.98820069099237517 1.037567019947929 1.0390794520002753 158.50000000000003 4.6963793413498527 0.071949998450000011 1.1328149700314671 1.2529691292755925 7.3350000000000009 1.7449474051983656
decision_type=2 2 2 2 2 2 2 2 2 2 2 2 2 2 2 2 2 2 2 2 2 2 2 2 2 2 2 2 2 2
left_child=1 2 6 9 17 8 7 15 -3 20 18 12 14 -14 -10 27 -17 -5 -9 -11 -2 -13 -23 -12 25 26 -21 -1 -6 -27
right_child=3 5 -4 4 28 -7 -8 10 11 19 23 21 13 -15 -16 16 -18 -19 -20 24 -22 22 -24 -25 -26 29 -28 -29 -30 -31
leaf_value=0.096681122853115864 -0.054647689304130664 0.10929532242678799 0.083850550111603195 0.13776461881192953 -0.041498913889239764 -0.08353968392803153 -0.041308674044922528 0.0038312626275286577 -0.0020845296953314533 -0.06920748026825381 0.008537564076365604 -0.0073141540389125501 0.01866791231331295 -0.051351210738035814 0.042227762971481696 0.068258123953817765 -0.00955593317199456 0.027059484251972406 0.064971566257262511 -0.027033734869351529 -0.0012901732439680525 0.096546995699707774 0.015428165257061267 -0.055815209497843216 -0.060337640810873366 0.24146787072116327 0.061443020879677991 -0.10505769350600512 0.018134508391113295 -0.038458311271102857
leaf_count=626 592 139 834 127 921 397 491 489 4872 1731 2669 558 680 2139 1092 607 499 652 872 425 2130 399 586 294 1296 11 298 21 397 1612
internal_value=0 0.123985 0.308286 -0.259272 0.0404884 -0.0143732 0.237785 0.278944 0.0113153 -0.340613 0.16222 -0.00548737 -0.0598897 -0.333049 0.0635765 0.552443 0.340188 0.467927 0.440617 -0.456809 -0.120349 0.295942 0.496361 0.0240467 -0.351259 -0.218898 0.108119 0.903458 -0.229525 -0.365645
internal_count=28456 18264 7402 10192 2097 10862 6568 6077 10465 8095 4324 10326 8783 2819 5964 1753 1106 779 1361 5373 2722 1543 985 2963 3642 2346 723 647 1318 1623
shrinkage=0.1


Tree=9
num_leaves=31
num_cat=0
split_feature=11 22 21 9 22 15 19 19 1 17 9 19 22 19 16 1 17 0 9 12 1 8 12 14 1 12 10 19 5 10
split_gain=156.665 76.4495 76.7556 73.1022 69.781 62.4775 53.639 58.1442 46.125 47.2922 43.224 41.6062 40.8361 40.7818 40.5976 37.1669 36.9522 36.3602 32.1625 31.7338 30.2538 28.8879 27.3091 25.678 24.9525 26.1873 24.3185 23.6857 23.5074 28.6052
threshold=0.075011315241748838 1.0000000180025095e-35 0.17905000000000001 1.044935108397715 -1.0000000180025095e-35 12.624500000000003 2423.5000000000005 1575.5000000000002 4.862933081516112 89.500000000000014 0.87873875125045653 352.50000000000006 3.2799500000000004 304.50000000000006 4.1255500000000014 3.4074032022449767 10.500000000000002 1.4484111985103767 1.0365121097209278 1.466542408326428 2.7618944132858547 1.1460046438871359 2.0958870288524976 38.45980344872072 2.6744123629935728 0.90041019033888492 0.98084405169312683 2423.5000000000005 0.39563446647127698 1.0426381958639419
decision_type=2 2 2 2 2 2 2 2 2 2 2 2 2 2 2 2 2 2 2 2 2 2 2 2 2 2 2 2 2 2
left_child=1 4 10 5 24 26 7 14 9 18 -3 13 -8 -6 20 27 -7 -18 -9 -16 28 -15 -22 -11 -1 -26 -4 -5 29 -2
right_child=6 2 3 15 11 16 12 8 -10 23 -12 -13 -14 21 19 -17 17 -19 -20 -21 22 -23 -24 -25 25 -27 -28 -29 -30 -31
leaf_value=0.074318613928871374 0.037203972372047152 0.09074972507218676 -0.028853620300986729 0.065507171832793462 0.07040167422339845 0.1047575521247771 -0.064793970483910751 0.0082341299784339048 -0.047163019797131757 0.010734784803009944 -0.045189886076411799 0.096951247120370024 0.26804787863820928 0.14203575795185305 -0.00078463075873205453 0.016380336588014029 0.0011418165856403189 -0.038605364812245788 0.079540996531840075 -0.044815370334787663 0.011474656091420484 -0.067104891773599615 -0.029988400350928219 -0.067180281019785529 0.12594325275257198 -0.0050337426506101238 0.069089231048816591 -0.037884894288448046 -0.020276339867304673 0.17365879410309176
leaf_count=240 308 113 140 1591 378 114 1594 494 590 918 1685 1005 16 31 1100 2004 2478 1917 798 4405 1296 204 2131 271 69 1464 656 143 215 88
internal_value=0 0.149799 0.0591299 0.137935 0.421429 -0.0248488 -0.179645 -0.132572 0.130838 0.253736 -0.359382 0.717198 -0.601963 0.298208 -0.2235 0.367231 -0.124725 -0.157278 0.538301 -0.357665 -0.0558235 -0.381167 -0.141158 -0.0674645 0.117722 0.0136339 0.521309 0.591923 0.386158 0.693655
internal_count=28456 14232 10841 9043 3391 5305 14224 12614 3071 2481 1798 1618 1610 613 9543 3738 4509 4395 1292 5505 4038 235 3427 1189 1773 1533 796 1734 611 396
shrinkage=0.1


Tree=10
num_leaves=31
num_cat=0
split_feature=11 19 19 5 8 1 11 9 1 23 17 10 5 5 12 21 5 12 16 10 19 19 18 2 12 12 17 2 12 21
split_gain=132.451 71.37 93.1309 86.0527 58.3202 57.8714 52.8783 40.0307 46.0901 46.6597 35.3602 38.8091 36.4808 34.6188 30.0358 31.9466 30.0194 29.3289 28.2169 28.0174 27.5862 27.8349 26.1878 24.6841 23.348 22.7326 21.2329 20.877 20.4478 20.3043
threshold=0.13966370998702313 516.50000000000011 400.50000000000006 0.75700467289719631 1.0272341029284815 3.0796997362956029 0.0051170168576996754 0.99808736532769415 3.9904825975432279 1.1341605308972815 47.500000000000007 1.0740951842623148 0.40429984063045094 0.22238088169224826 1.1516526913763145 0.35200000000000004 0.67950659229208943 3.0214915172022283 4.2431500000000009 1.0946602158043268 2439.5000000000005 2177.5000000000005 493.50000000000006 2.4175321280991739 1.6464901067427766 1.6039278799915986 150.50000000000003 3.4336831578947375 4.2950214832015812 -1.0000000180025095e-35
decision_type=2 2 2 2 2 2 2 2 2 2 2 2 2 2 2 2 2 2 2 2 2 2 2 2 2 2 2 2 2 2
left_child=1 2 6 4 13 10 23 -2 9 16 11 -6 -12 -3 -5 29 -9 26 28 -15 21 -17 24 -1 -7 -10 -11 -8 -4 -16
right_child=7 3 18 14 5 22 27 8 25 17 12 -13 -14 19 15 20 -18 -19 -20 -21 -22 -23 -24 -25 -26 -27 -28 -29 -30 -31
leaf_value=0.073793231397094691 -0.047459805643015232 0.022279593623283904 0.092849888683252807 0.039743988160039379 0.098205926072068489 0.032979255620856185 0.0032498903960481093 0.01277507474376826 -0.0065875140538742619 0.099309676251581547 0.057183308374933101 -0.018693525144045438 -0.0071247564910634142 -0.03652171089585482 -0.016831192894186286 -0.013067698739886125 -0.039352022294983274 0.0029594300799854999 0.018369331822326522 0.079939783834421796 -0.10115957940563583 0.082540732030640537 0.043422508236037417 0.00026535589605543455 -0.014695732619407577 -0.043676309971823368 -0.00068609750153489585 -0.042965763178739763 0.033329893056639442 -0.068780006578363445
leaf_count=594 2686 863 1159 323 794 640 1643 1115 1365 430 894 146 747 1840 566 2006 1183 488 414 100 202 157 674 283 2130 2675 138 620 311 1270
internal_value=0 0.10141 0.310684 0.014007 0.134653 0.252084 0.0863675 -0.222468 -0.137418 0.0540135 0.487483 0.803661 0.294405 -0.129789 -0.245138 -0.298599 -0.133233 0.430657 0.671857 -0.299801 -0.124321 -0.0562432 0.0630488 0.505594 -0.0347669 -0.309897 0.76352 -0.0915074 0.803103 -0.525697
internal_count=28456 18376 5024 13352 8828 6025 3140 10080 7394 3354 2581 940 1641 2803 4524 4201 2298 1056 1884 1940 2365 2163 3444 877 2770 4040 568 2263 1470 1836
shrinkage=0.1


Tree=11
num_leaves=31
num_cat=0
split_feature=19 16 8 22 1 19 20 17 12 10 17 15 22 10 14 13 11 12 19 22 17 2 19 21 21 2 8 21 17 24
split_gain=115.313 111.476 60.4025 51.0274 58.552 46.1581 44.9538 43.4612 37.2218 36.914 35.513 47.7345 35.3336 30.442 29.0502 26.0794 24.8766 23.6472 23.422 22.8175 21.7423 20.8968 20.1432 19.8162 19.3584 18.6478 18.1759 17.9344 16.8929 15.7813
threshold=2423.5000000000005 3.9842500000000007 0.97898470012113059 1.0000000180025095e-35 2.7877150141040654 2196.5000000000005 349.50000000000006 1011.5000000000001 1.466542408326428 1.0584742381666798 47.500000000000007 26.546300000000006 -0.034449999999999995 1.0461802074802924 -56.157813517688076 212.50000000000003 0.32773653451643592 0.16634379767325752 388.50000000000006 -1.0000000180025095e-35 28.500000000000004 0.35236907834101383 304.50000000000006 0.050000000350000011 2.6735500000000001 4.8984246323529428 0.92424398741020863 -0.80499999999999994 23.500000000000004 -24.124521072796938
decision_type=2 2 2 2 2 2 2 2 2 2 2 2 2 2 2 2 2 2 2 2 2 2 2 2 2 2 2 2 2 2
left_child=1 2 24 9 10 8 14 -2 17 12 23 -12 27 -8 -6 16 25 -3 22 -20 -7 -9 -11 -5 26 -10 -1 -4 -19 -22
right_child=7 5 3 4 6 20 13 21 15 18 11 -13 -14 -15 -16 -17 -18 28 19 -21 29 -23 -24 -25 -26 -27 -28 -29 -30 -31
leaf_value=-0.075834121823617193 -0.065351296070149861 0.10952510259970663 0.045071914108846756 -0.094265854508468916 0.085900759437922414 0.1926858102757717 0.09671570011441312 0.16904861147740086 -0.01445001769258665 0.032028010543085225 0.044546077207805707 -0.022708619458932114 0.085542677048670857 0.016948881311252845 -0.0069587661565191188 0.10353838051782707 -0.048633931021372874 0.055146018146819242 0.0072706903702201278 0.084976850901626114 -0.013071112486585641 -0.03345274346138246 -0.062686002139435301 0.069326707289002448 -0.053915558239002494 -0.051277786618373282 0.009439034288221404 -0.036375535469005106 -0.0058303156160358083 0.059878920233305793
leaf_count=152 2048 91 423 36 148 40 313 63 5323 154 1193 779 1066 624 6592 73 2219 252 445 263 258 49 248 1100 723 854 732 174 1641 380
internal_value=0 0.0325192 0.147235 0.191934 0.123363 -0.147792 0.0177738 -0.563521 -0.186493 0.442477 0.361156 0.188003 0.636717 0.449155 -0.0467562 -0.255004 -0.267853 0.0903989 0.144709 0.379546 0.421363 0.83476 -0.251127 0.647173 -0.263024 -0.194746 -0.0463903 0.218466 0.0299321 0.313118
internal_count=28456 26296 15165 13558 10785 11131 7677 2160 10453 2773 3108 1972 1663 937 6740 8469 8396 1984 1110 708 678 112 402 1136 1607 6177 884 597 1893 638
shrinkage=0.1


Tree=12
num_leaves=31
num_cat=0
split_feature=19 16 22 20 1 8 21 5 12 17 17 22 19 2 19 20 12 19 21 9 2 17 17 17 19 5 17 10 22 9
split_gain=97.08 90.8145 51.444 43.6534 50.9246 37.9164 40.7967 38.4627 36.1165 39.3517 36.1061 34.6147 37.9929 37.528 34.4245 32.2027 31.9731 28.4292 22.2828 25.6698 20.4234 19.6451 19.5117 19.474 19.02 22.5112 18.2487 18.0904 17.8154 18.2745
threshold=2423.5000000000005 4.1255500000000014 1.0000000180025095e-35 349.50000000000006 2.9371678286931293 1.0314045424280351 1.0000000180025095e-35 0.25049271844660198 3.8794438219015146 15.500000000000002 1011.5000000000001 -0.0099499999999999988 358.50000000000006 3.1637281250000009 2090.5000000000005 794.50000000000011 2.4153048459251494 2160.5000000000005 -0.36649999999999994 0.93103153215564693 4.0910388888888898 9.5000000000000018 32.500000000000007 296.50000000000006 947.50000000000011 0.21691777672120158 15.500000000000002 1.084161761179087 0.36830000000000002 1.1262389321631592
decision_type=2 2 2 2 2 2 2 2 2 2 2 2 2 2 2 2 2 2 2 2 2 2 2 2 2 2 2 2 2 2
left_child=1 2 11 4 5 7 -7 -4 9 -6 -2 18 13 -13 16 27 20 -17 19 -1 24 -20 -16 -21 -3 -26 -18 -5 29 -24
right_child=10 14 3 15 8 6 -8 -9 -10 -11 -12 12 -14 -15 22 17 26 -19 21 23 -22 -23 28 -25 25 -27 -28 -29 -30 -31
leaf_value=-0.076214016816125343 -0.061341424953401669 0.018239414000234103 0.027770096063478935 0.088365500547094605 0.050350910904311652 -0.093722575826112639 0.043465078050742095 -0.032578716641078483 -0.040539591034669809 -0.0079992912633744025 0.072571714103283447 0.05153586513238833 0.081757781727157405 -0.057647997214423943 0.11880913256298534 -0.08281554885054751 0.019346954933009849 0.053375978181922371 0.095500007557655586 0.047754589494887284 -0.031621409649974355 -0.042700903536262866 -0.035571372284029061 -0.11471120220743106 0.13187980763446011 -0.017025715041759426 -0.03791132894490349 0.027130613753927803 0.086118006455828094 0.04004487383839378
leaf_count=102 2048 1870 941 522 595 111 2213 1006 1474 5101 112 414 1015 198 92 151 307 132 50 848 1346 416 350 36 51 2134 4008 359 142 312
internal_value=0 0.0292185 0.128552 0.0655961 0.023537 0.201993 0.377287 -0.0225077 -0.0941869 -0.0147273 -0.526946 0.369589 0.571875 0.168835 -0.141126 0.451716 -0.182702 -0.18224 0.12586 0.304566 -0.0658789 -0.265725 0.277703 0.41463 0.0143108 -0.132541 -0.334889 0.644098 0.157649 -0.0029047
internal_count=28456 26296 15684 12605 11441 4271 2324 1947 7170 5696 2160 3079 1627 612 10612 1164 9716 283 1452 986 5401 466 896 884 4055 2185 4315 881 804 662
shrinkage=0.1


Tree=13
num_leaves=31
num_cat=0
split_feature=11 19 1 9 8 5 22 5 23 1 9 1 23 10 22 19 21 9 21 9 17 5 17 17 15 2 12 11 14 16
split_gain=85.8695 51.0081 56.5839 56.0658 49.8395 43.7102 36.5954 36.5647 35.1572 33.8736 30.8793 35.8601 31.9934 28.9273 29.7069 27.9377 27.63 24.8342 30.4048 34.5171 24.3525 22.9313 22.6348 22.2097 21.4804 21.4519 20.5323 18.7719 18.4502 18.1057
threshold=0.14996233576275786 849.50000000000011 3.4495601393148791 1.037567019947929 1.0578243928766151 0.6445227272727273 1.0000000180025095e-35 0.22238088169224826 1.125261728178071 2.2542070684192113 0.99808736532769415 3.9904825975432279 1.1341605308972815 1.0551241347318316 -0.041799999999999997 1946.5000000000002 0.53500000000000014 0.85223760666725201 0.050000000350000011 0.98332396024039948 211.50000000000003 0.67950659229208943 32.500000000000007 47.500000000000007 11.228400000000002 0.72291381206788208 3.0214915172022283 0.0021194165670385882 15.012266279657949 2.1101000000000005
decision_type=2 2 2 2 2 2 2 2 2 2 2 2 2 2 2 2 2 2 2 2 2 2 2 2 2 2 2 2 2 2
left_child=1 6 4 -4 7 20 13 15 -7 25 -2 12 21 14 -1 -3 -5 -11 -19 -20 28 -12 -9 27 -17 -8 29 -15 -6 -14
right_child=10 2 3 16 5 8 9 22 -10 17 11 -13 26 23 -16 24 -18 18 19 -21 -22 -23 -24 -25 -26 -27 -28 -29 -30 -31
leaf_value=0.0063055849031291291 -0.042355758635886719 0.051222674784054123 -0.06362817803014513 -0.033571341018468363 0.0757922115434886 -0.022690582070063386 0.02427424216695569 0.011581931120714904 0.07130272240296931 0.079078954639778681 0.013183311842352628 -0.027116976794877807 -0.068107833694521683 0.087449846542353729 0.076116870592147043 0.073220682017432967 0.013094887105070441 -0.028258540352052431 -0.022000416421748187 0.022322166295945339 -0.0052069108194058361 -0.034093118033901533 -0.041653088312528987 0.075584979248687095 -0.11075010731359254 0.11202098966155689 0.0027981734898578211 -0.0085070052835150931 0.027278235866138992 0.077339456680238089
leaf_count=357 2549 533 1352 1121 987 1052 268 517 237 202 1059 3889 42 94 1091 43 1535 1296 1143 3145 330 1127 1585 217 114 208 462 865 532 504
internal_value=0 0.0782295 -0.033377 -0.245409 0.0995083 0.283291 0.194203 -0.120159 -0.0440014 0.101594 -0.189221 -0.112891 0.0610949 0.398672 0.594348 0.298396 -0.0600194 0.0528852 0.0252264 0.109447 0.481978 -0.101285 -0.275502 0.153291 -0.559921 0.624412 0.378719 0.015389 0.591002 0.657687
internal_count=28456 18824 9938 4008 5930 3138 8886 2792 1289 6262 9632 7083 3194 2624 1448 690 2656 5786 5584 4288 1849 2186 2102 1176 157 476 1008 959 1519 546
shrinkage=0.1


Tree=14
num_leaves=31
num_cat=0
split_feature=19 16 12 8 1 19 8 5 9 19 10 12 17 13 19 5 4 13 1 5 17 7 9 3 11 9 1 21 2 8
split_gain=76.4949 62.7776 40.6961 40.8855 35.6492 36.2523 36.1187 44.9236 33.7809 30.8775 41.7679 34.4838 29.424 29.2951 22.3746 26.4267 22.0367 20.3599 23.9188 20.047 24.5375 17.1367 22.4853 16.6721 16.0789 15.8414 23.6968 28.6017 15.7023 15.5812
threshold=2423.5000000000005 4.1255500000000014 0.4188592044156691 0.97898470012113059 3.3442556709080846 730.50000000000011 1.0700410723191369 0.22238088169224826 1.1308803650345973 1575.5000000000002 1.0025933548499475 2.0530147165066603 1011.5000000000001 106.50000000000001 1287.5000000000002 0.71336275476402877 15.89363737368498 90.500000000000014 2.6287300850536912 0.99745758147050911 17.500000000000004 6.278328749624337 1.0385015042810757 0.083763380743575852 0.0076160347880101075 1.0698899674390436 3.2593183365121399 15.860000000000001 7.6639562500000009 1.100478476179134
decision_type=2 2 2 2 2 2 2 2 2 2 2 2 2 2 2 2 2 2 2 2 2 2 2 2 2 2 2 2 2 2
left_child=1 2 -1 -4 6 13 7 -5 -7 11 23 28 25 -6 17 -16 -8 24 -19 20 -12 -14 -23 -11 -13 -2 27 -27 -3 -25
right_child=12 9 3 4 5 8 16 -9 -10 10 19 14 21 -15 15 -17 -18 18 -20 -21 -22 22 -24 29 -26 26 -28 -29 -30 -31
leaf_value=0.11159114889171132 -0.071923546094965457 0.0020155145122899825 -0.024638990320950072 0.040453889303860659 0.013178972500324486 -0.027764864857675122 0.024836938216938866 -0.011657946676791105 0.016738305474498276 0.11628891474328561 0.16443184548081022 0.034191671630330732 -0.094228094257574543 0.099697116065762925 -0.00054738714874854233 -0.093631069595893748 0.059137093593780825 0.20221744553018228 0.0075174770055572967 0.0617506749479797 -0.022206995728393117 0.31807446342197077 0.047609391949172769 -0.0078810001062211959 -0.033896004121736913 0.017282974551573779 -0.058579259562888335 0.34174421317697523 -0.06421349612442516 0.083202017823087837
leaf_count=168 1430 3459 1616 1161 3365 2562 1931 2062 1256 194 32 177 29 187 246 646 1376 37 331 190 1311 20 63 206 3411 185 414 19 210 162
internal_value=0 0.0253362 0.107908 0.0959281 0.131789 0.0255179 0.243061 0.0795826 -0.128774 -0.117686 0.125285 -0.183001 -0.47953 0.17789 -0.317984 -0.669526 0.393082 -0.242849 0.27556 -0.0724771 -0.170165 0.632166 1.12355 0.637635 -0.299121 -0.562744 -0.220659 0.47807 -0.0164064 0.36115
internal_count=28456 26296 15684 15516 13900 7370 6530 3223 3818 10612 2095 8517 2160 3552 4848 892 3307 3956 368 1533 1343 112 83 562 3588 2048 618 204 3669 368
shrinkage=0.1


Tree=15
num_leaves=31
num_cat=0
split_feature=11 19 12 13 12 11 9 2 17 19 1 9 24 2 12 0 11 11 21 22 20 8 20 16 5 9 15 14 20 20
split_gain=68.9299 51.2803 48.4613 44.1031 44.2695 37.1954 36.4162 32.5364 27.9748 26.7807 25.0897 24.1948 21.2515 23.3352 20.88 21.6866 20.7812 20.2383 18.7272 17.4111 15.7704 15.6867 14.9721 18.7105 14.8539 28.3551 19.6766 15.7848 12.9606 18.644
threshold=0.35316874353722166 2423.5000000000005 0.4188592044156691 67.500000000000014 3.6535535849650143 0.0054445346423760161 0.94050412935970285 4.0910388888888898 28.500000000000004 2021.5000000000002 3.3442556709080846 1.1758218071506299 89.945238459608845 1.6399421052631584 6.9023923727673111 1.9452209496635409 0.010222429394333253 1.2268048678117183 11.155000000000003 1.0000000180025095e-35 401.50000000000006 1.0593245258250661 44.500000000000007 6.6550500000000001 0.70997767045177185 1.066392714423783 25.944250000000004 23.898591099372755 545.50000000000011 512.50000000000011
decision_type=2 2 2 2 2 2 2 2 2 2 2 2 2 2 2 2 2 2 2 2 2 2 2 2 2 2 2 2 2 2
left_child=1 2 -1 4 5 19 -5 -7 9 17 11 18 13 -6 15 -8 -16 22 21 -4 -12 -10 23 -2 25 -3 27 -27 29 -22
right_child=8 24 3 6 12 7 14 -9 10 -11 20 -13 -14 -15 16 -17 -18 -19 -20 -21 28 -23 -24 -25 -26 26 -28 -29 -30 -31
leaf_value=0.093424319743071457 0.1392751535336598 -0.047654842266190101 0.067950619603994816 -0.031157893800585586 0.0030104649448636431 0.0071412044869640064 0.044067395715762944 -0.021242750036034971 -0.05784482829831087 0.20642698082372607 -0.053873972605063575 0.16352828376719736 -0.076805199486953843 -0.035776748371701743 0.12036507262517537 -0.0072915797970081759 -0.026851221612299182 0.22258834978733413 0.036979801563133338 0.020160425159943911 -0.0042346637468561252 0.00051972908054685469 -0.063898088397207717 -0.091479886187730439 -0.079778191869033635 0.080059850151866466 -0.034527576620620566 0.31654330554423105 -0.033118008978576634 0.15879036962323459
leaf_count=266 57 636 503 554 1447 10084 2897 2611 530 40 2383 43 337 1611 46 461 419 22 319 946 161 505 116 32 576 51 56 27 674 46
internal_value=0 0.0438048 0.0649587 0.0527459 0.0020206 0.0564303 0.245892 0.0152654 -0.264947 0.45634 -0.310427 -0.0513216 -0.226194 -0.169053 0.315658 0.374403 -0.111461 0.127064 -0.107589 0.370296 -0.431134 -0.266592 -0.10261 0.635009 -0.466098 -0.229619 0.80907 1.61182 -0.163332 0.328914
internal_count=28456 23528 22182 21916 17539 14144 4377 12695 4928 267 4661 1397 3395 3058 3823 3358 465 227 1354 1449 3264 1035 205 89 1346 770 134 78 881 207
shrinkage=0.1


Tree=16
num_leaves=31
num_cat=0
split_feature=17 10 12 18 5 9 19 0 13 8 11 19 9 1 9 19 22 19 1 9 12 19 21 9 19 4 10 2 12 17
split_gain=58.5846 62.5012 47.3995 46.3057 61.0828 35.5983 34.5039 30.908 29.9366 30.9552 22.7909 22.2262 25.3144 21.0352 25.5301 23.679 27.3428 20.7685 23.0595 28.0208 19.1153 20.6319 18.976 18.8358 18.5144 21.0619 18.9134 17.8469 17.5142 17.1412
threshold=36.500000000000007 1.0525447325211823 3.0986776012138573 306.50000000000006 0.54475918923944711 0.85223760666725201 975.50000000000011 1.1626997017501657 67.500000000000014 1.2529691292755925 0.35316874353722166 955.50000000000011 0.93297778138693566 2.3217276541395453 1.0126317929599395 2056.5000000000005 -0.020049999999999995 1562.5000000000002 4.609983104086008 1.1009382916616715 2.5525592403332991 304.50000000000006 0.20210000000000003 1.132449268530294 2246.5000000000005 18.69311901143379 1.0197799411540125 7.6639562500000009 2.8152329304219403 67.500000000000014
decision_type=2 2 2 2 2 2 2 2 2 2 2 2 2 2 2 2 2 2 2 2 2 2 2 2 2 2 2 2 2 2
left_child=1 2 13 4 8 -3 28 -4 9 29 -5 12 -9 -1 22 16 -16 -8 19 -19 27 -22 -15 -13 25 -10 -27 -7 -6 -2
right_child=3 5 7 10 6 20 17 11 24 -11 -12 23 -14 14 15 -17 -18 18 -20 -21 21 -23 -24 -25 -26 26 -28 -29 -30 -31
leaf_value=0.10916244578095038 0.0053028177078325569 0.081717940653378146 0.072529598143123195 0.019143031895333097 0.002187351853215923 0.0025666796661233614 -0.060493467174530996 -0.079645853879298331 0.07106999312134403 0.060281940953366399 -0.015715364666629063 -0.045924758570552102 0.018872806987420308 0.048000490307100803 -0.015210350210315141 0.15164745819166917 0.055699763788786154 -0.035007455068056352 -0.084119267706902201 0.030012843500879752 0.034553592372260827 -0.046593746876993858 -0.012078102156175692 0.055635418815461093 -0.041016079710547874 -0.0064016452180774954 0.051708141408003651 -0.073582354353502688 -0.037444427479787726 -0.026598787770435256
leaf_count=189 1255 186 253 3495 1892 2192 2281 152 432 280 1392 769 1495 397 298 106 1891 1517 417 458 159 1162 693 104 244 747 417 172 924 2487
internal_value=0 0.126879 0.259264 -0.0837984 -0.156597 -0.0938055 -0.306248 0.043261 0.00856147 -0.100391 0.10078 -0.0352372 0.108653 0.423371 0.381945 0.509849 0.4619 -0.438258 -0.279222 -0.17688 -0.14252 -0.356796 0.102981 -0.333598 0.242443 0.31843 0.157874 -0.0253617 -0.104658 -0.155315
internal_count=28456 10218 6347 18238 13351 3871 7489 2773 5862 4022 4887 2520 1647 3574 3385 2295 2189 4673 2392 1975 3685 1321 1090 873 1840 1596 1164 2364 2816 3742
shrinkage=0.1


Tree=17
num_leaves=31
num_cat=0
split_feature=19 22 21 9 22 9 24 1 19 17 1 21 21 19 22 9 9 17 17 10 8 1 9 14 11 5 10 12 13 19
split_gain=51.793 49.5363 71.9345 68.5452 59.663 55.9078 52.297 50.1966 40.5004 30.1648 28.2453 31.1317 26.7976 26.6099 24.7709 23.875 23.8337 22.5878 21.1462 20.9653 20.6728 24.8217 26.5973 19.5677 17.3083 17.0531 17.5442 16.4093 18.5834 16.249
threshold=2423.5000000000005 1.0000000180025095e-35 1.0000000180025095e-35 0.98545801196688265 -1.0000000180025095e-35 0.94050412935970285 43.503836317135558 3.3852058995094056 352.50000000000006 331.50000000000006 2.5653049065415026 2.5050000000000003 -1.0000000180025095e-35 304.50000000000006 0.51005000000000011 1.0468708496899113 1.0354759472888191 146.50000000000003 14.500000000000002 1.2353988061812518 1.0327438111920737 4.8403370690539917 1.1647960912230377 29.359926363554727 0.094606750289825361 0.8688584639404312 1.0535593341522123 3.6535535849650143 42.500000000000007 1660.5000000000002
decision_type=2 2 2 2 2 2 2 2 2 2 2 2 2 2 2 2 2 2 2 2 2 2 2 2 2 2 2 2 2 2
left_child=1 4 5 10 12 19 7 23 13 -9 11 -4 20 -6 -2 -15 -14 -16 25 -3 -1 22 -22 -5 -10 26 -7 28 -8 -18
right_child=14 2 3 6 8 18 27 9 24 -11 -12 -13 16 15 17 -17 29 -19 -20 -21 21 -23 -24 -25 -26 -27 -28 -29 -30 -31
leaf_value=-0.019598249215622324 -0.056431538791917216 0.087223677718832771 0.052888977313524932 0.039985910525527378 0.042437714901552827 0.16459635787004789 -0.021917823536543077 0.0067043156720650414 0.063839263196186491 -0.070075117455716526 -0.032466321570223458 -0.019280885081351326 0.022275765206465601 0.1066823119133969 -0.099464482547253111 -0.070289495316668005 -0.068486917073179193 0.043975896226541099 -0.05092003196142271 -0.084373669474578541 0.027307265310391016 -0.027029943386633205 0.11375177965470179 0.00306546287493449 0.13955779560183798 -0.066499837638927348 0.0023553283386708247 -0.04973997868461983 0.02114337053549184 0.10890685488669907
leaf_count=663 1743 227 420 3777 387 55 1576 5583 1041 288 3617 780 256 38 100 225 548 317 2714 44 1026 369 201 813 163 74 82 590 715 24
internal_value=0 0.0198078 -0.028412 0.0241201 0.214853 -0.352672 0.103556 0.175156 0.503796 0.0307177 -0.213316 0.0651183 0.017072 0.0900419 -0.410229 -0.433988 -0.332249 0.133255 -0.451415 0.609 0.140847 0.274961 0.414044 0.336843 0.734527 0.233946 0.690857 -0.164666 -0.0787127 -0.59708
internal_count=28456 26296 21355 18159 4941 3196 13342 10461 1854 5871 4817 1200 3087 650 2160 263 828 417 2925 271 2259 1596 1227 4590 1204 211 137 2881 2291 572
shrinkage=0.1


Tree=18
num_leaves=31
num_cat=0
split_feature=11 12 19 9 5 2 14 6 18 19 18 8 17 15 17 19 1 12 8 17 11 15 1 19 22 9 9 17 20 16
split_gain=47.24 37.055 35.9972 45.2078 51.7929 29.3081 26.9806 26.8101 26.7774 23.953 23.7643 22.5262 22.6576 22.3424 19.4739 19.2186 19.0581 18.9316 17.9461 17.7965 14.6398 14.0278 13.9965 13.8941 13.8263 13.7762 12.5852 13.1941 11.4339 13.0785
threshold=0.35316874353722166 0.16634379767325752 849.50000000000011 0.95869477497207989 0.67275107091861031 4.5561059482758628 35.828589087303719 0.20652570518653326 510.50000000000006 1032.5000000000002 408.50000000000006 1.2327638349320715 69.500000000000014 31.405300000000004 28.500000000000004 2021.5000000000002 3.3442556709080846 2.7311087500739712 1.0593245258250661 13.500000000000002 1.0123691627775662 41.483750000000008 2.5653049065415026 352.50000000000006 0.1741 1.1277874311381322 1.1758218071506299 34.500000000000007 44.500000000000007 6.6550500000000001
decision_type=2 2 2 2 2 2 2 2 2 2 2 2 2 2 2 2 2 2 2 2 2 2 2 2 2 2 2 2 2 2
left_child=1 -1 5 -4 6 10 7 -5 17 -10 11 12 -3 -13 15 20 18 -6 22 23 28 -12 -16 -7 -8 -18 27 -20 29 -2
right_child=14 2 3 4 8 19 24 -9 9 -11 21 13 -14 -15 16 -17 25 -19 26 -21 -22 -23 -24 -25 -26 -27 -28 -29 -30 -31
leaf_value=0.095342296472766541 0.11067721473536159 0.026391780849622917 -0.043508368996694698 0.049576361834992186 -0.014075418546405533 -0.027460256214886292 0.0051842124572812872 0.010904153436160739 0.084106475326348323 -0.0024131663585010613 0.069770355629374198 0.021154204251177661 -0.0070156563519593613 -0.029739449999483539 0.015754788932995197 0.17326148646028028 -0.05268538598645145 -0.046508612504396807 0.15842890306148194 -0.025841539515545738 0.15089840077975197 0.023571668420187125 -0.063533388190925286 0.076695679069571338 -0.045922297889505866 -0.020155714004753529 0.13365757619355864 0.0045240066105527903 -0.064778195598674981 -0.086280504895995355
leaf_count=182 54 4313 1641 1057 2514 93 535 3880 181 1084 548 657 1261 1074 199 40 1773 1775 27 1385 30 673 432 156 519 1491 43 696 111 32
internal_value=0 0.0356024 0.0270284 -0.0538354 -0.0068777 0.12245 0.12827 0.19441 -0.177332 0.108637 0.172018 0.124748 0.191032 -0.0945044 -0.223962 0.376115 -0.263354 -0.271509 -0.0369529 -0.153851 0.0969409 0.449092 -0.367062 0.369012 -0.197027 -0.37224 0.179583 0.107837 -0.1494 0.490808
internal_count=28456 23528 23346 13186 11545 10160 5991 4937 5554 1265 8526 7305 5574 1731 4928 267 4661 4289 1397 1634 227 1221 631 249 1054 3264 766 723 197 86
shrinkage=0.1


Tree=19
num_leaves=31
num_cat=0
split_feature=19 2 12 12 17 10 8 15 17 1 20 5 22 2 18 19 5 21 14 19 19 15 2 12 5 0 2 20 0 0
split_gain=40.7586 38.2027 39.8688 35.3272 43.1174 43.6075 33.354 28.1129 24.8953 23.4629 21.2801 21.0599 20.6193 20.1358 20.0389 17.4789 16.0907 13.7141 12.6619 13.7266 12.3652 11.8064 11.5404 14.5823 14.6865 11.1461 10.8587 11.5537 15.615 10.8308
threshold=2423.5000000000005 4.1319767857142873 0.4188592044156691 5.3132521380297417 85.500000000000014 1.0013882105015794 1.0272341029284815 29.031650000000003 12.500000000000002 2.6287300850536912 331.50000000000006 0.045586538461538463 0.51005000000000011 0.50152880485527573 330.50000000000006 352.50000000000006 0.42551595744680853 2.4650000000000003 14.704508563199928 2888.5000000000005 656.50000000000011 6.9081500000000009 7.6639562500000009 1.4780424128178009 0.96990864257417753 1.6408783633007753 7.3195828125000011 414.50000000000006 1.4009645748018917 2.2368569907475622
decision_type=2 2 2 2 2 2 2 2 2 2 2 2 2 2 2 2 2 2 2 2 2 2 2 2 2 2 2 2 2 2
left_child=1 2 -1 4 5 6 -4 -7 15 16 22 21 -2 18 -13 -3 17 -5 19 -14 -18 -6 23 24 -10 -17 27 29 -29 -12
right_child=12 8 3 9 11 7 -8 -9 10 -11 26 14 13 -15 -16 25 20 -19 -20 -21 -22 -23 -24 -25 -26 -27 -28 28 -30 -31
leaf_value=0.079859465391882253 -0.051881511843828249 -0.022383199453935992 0.0069989998345189736 0.077173986982719156 0.17986347023047217 0.021289428741570627 0.048433117273038014 -0.0036951710702814856 -0.012992853387597855 -0.03648759238861321 -0.00084025894746287604 -0.018581962240682211 0.095654112879503095 -0.026477743532775079 0.010850986405804255 -0.12469345136096206 0.046234574533707211 0.0024225975327560162 0.17389989992636923 -0.13992195290046619 -0.065963660215494865 0.013799207628950603 -0.072887838435687122 -0.038243497270678099 0.090883670229311361 0.097683981774877721 -0.046240427911273474 0.21712326848067742 -0.010929849780110497 0.096381598918068301
leaf_count=300 1743 117 1610 184 39 3363 2529 5988 354 1721 92 4432 42 305 1570 11 58 258 51 19 183 36 423 1961 89 165 187 14 478 134
internal_value=0 0.0171127 0.0518726 0.0399634 0.0712388 0.139754 0.330831 0.0568709 -0.193274 -0.216007 -0.249818 -0.0887955 -0.371693 0.121287 -0.105045 0.401131 0.112021 0.342161 0.919493 0.194149 -0.354138 1.01063 -0.35365 -0.292597 0.08205 0.835812 0.0531918 0.175197 -0.0321565 0.574367
internal_count=28456 26296 22271 21971 19567 13490 4139 9351 4025 2404 3732 6077 2160 417 6002 293 683 442 112 61 241 75 2827 2404 443 176 905 718 492 226
shrinkage=0.1


Tree=20
num_leaves=31
num_cat=0
split_feature=11 13 8 11 20 20 14 22 1 12 24 15 24 19 16 17 1 19 9 10 15 17 2 5 2 17 9 3 3 18
split_gain=36.618 29.3517 36.8911 31.5567 22.9798 23.7963 23.2492 20.9726 25.24 20.6618 23.97 19.5749 18.4971 17.6736 16.8073 15.134 16.1159 15.5949 14.5003 29.8656 16.7394 14.4436 13.6104 13.1686 12.5896 16.402 14.9136 23.035 12.3891 12.1588
threshold=0.35316874353722166 41.500000000000007 0.941670839673174 0.038167162817245304 361.50000000000006 794.50000000000011 -79.974701417510417 0.063950000000000021 2.6744123629935728 2.1489496096205141 56.511113944494035 12.227500000000001 1.3504135831547808 2142.5000000000005 1.3339500000000004 28.500000000000004 2.2758247034608412 2021.5000000000002 1.0154178206861659 1.1599225529083543 31.692450000000004 182.50000000000003 1.3763211029411766 0.54475918923944711 3.4336831578947375 13.500000000000002 1.0126317929599395 0.78183357367120176 1.0102729503455168 754.00000000000011
decision_type=2 2 2 2 2 2 2 2 2 2 2 2 2 2 2 2 2 2 2 2 2 2 2 2 2 2 2 2 2 2
left_child=1 3 -3 14 6 -6 -4 8 -8 24 12 -9 -11 -7 -1 17 21 -2 19 -16 -20 -17 -22 -15 26 -26 27 -5 -27 -18
right_child=15 2 4 9 5 13 7 11 -10 10 -12 -13 -14 23 18 16 29 -19 20 -21 22 -23 -24 -25 25 28 -28 -29 -30 -31
leaf_value=0.035354647578386397 0.0079358328756487743 -0.06640474399263567 0.11681310358750946 -0.041465186400823084 0.067364759461079463 -0.061290376747381595 0.065057366419906545 0.038491162894693925 0.014368131996856069 -0.031046189317396885 -0.07034811580571379 -0.005582154320970048 0.0086710470665587579 -0.068225365388380713 -0.02087170836044153 -0.061237992371378648 -0.033244453060749621 0.15610673167635652 0.025729412490788413 0.074238593285037402 0.027431714469626129 0.080730987260160647 -0.010931700935647607 0.11190025371078936 0.10154099706243125 -0.042321128838071688 0.016653770876261669 0.13739284178277775 0.0069249359187052752 -0.00060999202751677191
leaf_count=781 227 331 92 535 670 142 547 534 2674 2153 646 3931 965 31 1822 55 3651 40 1763 163 560 135 1871 63 51 882 1873 40 408 820
internal_value=0 0.031029 0.129796 -0.0324255 0.155164 0.474884 0.114676 0.100669 0.23611 -0.142813 -0.27107 0.00108927 -0.186091 -0.125115 0.0678302 -0.199754 -0.235195 0.33017 0.0284635 -0.125964 0.0999587 0.417793 -0.0185563 0.604596 -0.0241094 -0.208131 0.0729568 -0.272419 -0.26321 -0.267871
internal_count=28456 23528 9015 14513 8684 906 7778 7686 3221 7553 3764 4465 3118 236 6960 4928 4661 267 6179 1985 4194 190 2431 94 3789 1341 2448 575 1290 4471
shrinkage=0.1


Tree=21
num_leaves=31
num_cat=0
split_feature=19 1 12 17 6 11 2 9 3 3 14 7 20 5 16 19 0 13 22 17 22 16 2 21 19 19 6 17 7 10
split_gain=32.9536 30.3225 36.8514 32.7716 38.4681 31.8719 28.9429 27.5719 26.1642 28.0313 24.3166 24.636 22.2113 20.434 18.8209 18.1924 17.7417 18.256 17.0787 17.3337 16.982 16.6843 15.6985 15.3144 13.6047 16.8344 15.9816 13.477 13.1767 18.7119
threshold=2423.5000000000005 3.1118977538956449 3.7442246965299835 81.500000000000014 0.63454284611425638 0.0021194165670385882 7.6639562500000009 1.0099484279421709 0.65145499384612704 0.24431632265905731 29.359926363554727 -13.093279517244582 20.500000000000004 0.56102946199829218 1.0557000000000003 338.50000000000006 1.2389698947841354 52.500000000000007 0.51005000000000011 146.50000000000003 0.035000000050000007 1.3339500000000004 2.6824471726190482 1.0549999714000002 1592.5000000000002 849.50000000000011 0.03460817104149027 331.50000000000006 49.549191033517829 1.0894561061883585
decision_type=2 2 2 2 2 2 2 2 2 2 2 2 2 2 2 2 2 2 2 2 2 2 2 2 2 2 2 2 2 2
left_child=1 3 5 7 10 -3 8 16 9 -7 11 27 13 -9 -12 -13 17 21 -2 -20 -16 -1 -10 -19 25 26 -4 -5 29 -14
right_child=18 2 24 4 -6 6 -8 12 22 -11 14 15 28 -15 20 -17 -18 23 19 -21 -22 -23 -24 -25 -26 -27 -28 -29 -30 -31
leaf_value=0.067335177164494026 -0.047929738121492517 0.072599209607677587 -0.10715432855776535 -0.0050327835016384798 -0.042628210662870092 0.0045649251614612255 -0.054497826731309679 0.042169887629890115 0.027791059290479331 -0.021147551225591074 0.13061319999405427 -0.058947906331656419 0.06626608195432207 -0.028135803301905932 0.091176294695700086 0.043336255133430146 -0.012584823869501155 0.10644997188868824 -0.094488778336137919 0.036090132617983439 -0.055591196068204618 -0.020682468411902792 0.0023777692116985485 0.029656461229968029 0.012329999635478515 -0.054339196485040958 -0.011550079824594396 -0.10869251758377546 0.012074170607154622 -0.017651021013064812
leaf_count=115 1743 266 90 228 965 5339 587 353 2276 3865 28 87 1347 395 44 1204 1263 158 100 317 445 471 2697 414 390 1278 1446 82 332 131
internal_value=0 0.0151061 -0.0388565 0.1233 -0.0554835 0.00781604 -0.00761403 0.229358 0.0115151 -0.0619209 0.105728 0.234312 0.3801 0.0710057 -0.3159 0.364729 0.0607482 0.246433 -0.340392 0.107462 -0.426598 -0.0196497 0.142558 0.513759 -0.26671 -0.32592 -0.174577 -0.315296 0.505563 0.589613
internal_count=28456 26296 18234 8062 3083 15030 14764 4979 14177 9204 2118 1601 2558 748 517 1291 2421 1158 2160 417 489 586 4973 572 3204 2814 1536 310 1810 1478
shrinkage=0.1


Tree=22
num_leaves=31
num_cat=0
split_feature=12 19 5 19 8 1 13 22 22 19 21 9 9 0 12 19 21 9 17 2 9 23 19 17 17 19 14 17 9 10
split_gain=31.7532 29.9797 46.8749 34.374 30.0841 31.096 27.6962 27.3774 29.2397 31.8242 26.589 37.5804 29.798 28.7082 26.3959 23.9122 49.1964 50.3536 23.6769 21.4948 21.3133 20.185 16.7208 16.6307 16.5829 20.6458 17.5933 16.3567 19.9488 16.3047
threshold=0.058803696424682084 912.50000000000011 0.58559741464153248 1575.5000000000002 1.0797380442291022 3.5225020037207391 41.500000000000007 1.0000000180025095e-35 -1.0000000180025095e-35 352.50000000000006 0.050000000350000011 0.93887821502656277 0.98332396024039948 1.4649820846264421 3.5737781245631033 1205.5000000000002 0.050000000350000011 1.019231190703237 22.500000000000004 3.3639668329831935 1.0674317648140896 1.2267130884701645 325.50000000000006 207.50000000000003 3315.0000000000005 2246.5000000000005 -23.771633687338454 160.50000000000003 1.1277874311381322 1.2353988061812518
decision_type=2 2 2 2 2 2 2 2 2 2 2 2 2 2 2 2 2 2 2 2 2 2 2 2 2 2 2 2 2 2
left_child=-1 7 4 15 24 21 -5 8 -2 19 11 29 -12 -14 -15 16 -4 -18 -17 22 -8 23 -10 -6 25 26 -3 28 -7 -9
right_child=1 2 3 6 5 27 20 10 9 -11 12 -13 13 14 -16 18 17 -19 -20 -21 -22 -23 -24 -25 -26 -27 -28 -29 -30 -31
leaf_value=0.10857011984522975 -0.0021258755913937223 0.062825599486486292 -0.052127728990267436 -0.019299059005278434 0.052566471662695818 -0.013848290874128324 -0.0051093540659165014 0.079315116628864951 0.050168498148314949 0.061958286559639419 -0.015925155348992796 -0.033763761465628685 0.041392052810456242 0.014763424886655064 -0.03195979401494866 0.011647213981711455 -0.055361795664483376 0.039135656980438548 -0.060424839756340658 -0.055690269859182018 0.052059201328179538 -0.093618944698139805 -0.043517305723239724 0.0038291413514884918 0.14873868954207375 -0.053823362991837133 -0.0081191850678785076 -0.050431494555581192 0.054186154407546261 -0.077418464247027238
leaf_count=113 1227 182 1343 2342 1372 674 825 216 346 1187 2095 1940 1384 2993 762 292 515 1043 2104 190 619 58 112 429 30 676 2697 344 303 43
internal_value=0 -0.00800143 -0.0777703 -0.197437 0.0580842 0.207629 -0.0208547 0.0712604 0.245421 0.410098 0.00932282 -0.218371 0.0716971 0.159493 0.0535255 -0.32442 -0.178513 0.110225 -0.508205 0.0410341 0.230056 0.378637 0.282226 0.415855 -0.0908957 -0.106428 -0.0350499 -0.0622087 0.0793226 0.564323
internal_count=28456 28343 15848 9083 6765 3180 3786 12495 3062 1835 9433 2199 7234 5139 3755 5297 2901 1558 2396 648 1444 1859 458 1801 3585 3555 2879 1321 977 259
shrinkage=0.1


Tree=23
num_leaves=31
num_cat=0
split_feature=12 13 17 10 8 2 5 9 9 19 5 16 1 22 4 1 8 1 22 6 1 17 12 2 20 0 2 8 7 1
split_gain=27.5107 32.7257 30.581 37.3414 36.3193 23.7021 23.0653 22.5773 18.538 18.4924 26.6016 17.5481 17.0346 16.2688 19.377 19.0469 26.8913 15.7477 15.8525 19.9181 15.2109 14.6186 14.1873 14.0941 13.8774 13.698 13.5529 13.5375 14.3428 13.3692
threshold=6.9023923727673111 67.500000000000014 39.500000000000007 1.0363839335108678 1.1336370783142959 2.399325148809524 0.2330021929824562 0.85223760666725201 0.96378945534387228 292.50000000000006 0.60950594493116417 11.766000000000002 5.8387063466774762 0.19430000000000003 25.185156437134967 3.2593183365121399 1.1387264696843598 2.6430706680020131 0.13285000000000002 0.18822411093715055 2.3217276541395453 186.50000000000003 3.7126250746332983 1.1678002757619741 238.50000000000003 0.90077525665401958 4.9826926315789484 0.9868148946572135 79.682733424487893 2.5170710105863328
decision_type=2 2 2 2 2 2 2 2 2 2 2 2 2 2 2 2 2 2 2 2 2 2 2 2 2 2 2 2 2 2
left_child=1 2 3 8 6 11 27 26 23 10 -9 21 20 14 -3 16 -15 18 -2 -20 -10 -6 -11 -1 29 -8 -5 -4 -29 -7
right_child=17 13 4 7 5 24 25 9 12 22 -12 -13 -14 15 -16 -17 -18 -19 19 -21 -22 -23 -24 -25 -26 -27 -28 28 -30 -31
leaf_value=0.036668963945990812 0.037145244736120284 0.040463491847663693 -0.040354077237489044 0.10424098991618024 0.027241117426450891 0.20274675030378614 -0.072613031813057768 -0.020803308881681002 0.087702181568316717 -0.0091175442990071697 0.089440449601615013 -0.04238385390342559 -0.068318329804800626 0.0041749476523042011 0.0061220816183089454 -0.029243299345482726 0.096536470926712095 -0.051674892195398052 0.08101894073636777 -0.083464848310715295 0.02747201274000538 -0.0071559458256667784 -0.048848174525778769 -0.046368741754543093 0.0028686359523551613 -0.028037357285575795 -0.010844943004940743 0.027222453226725219 -0.067513564174666751 -0.029296437308028653
leaf_count=154 242 1954 281 125 2384 12 421 203 194 3631 194 305 102 1219 1438 732 162 886 43 173 3043 906 547 341 1527 4393 77 736 87 1944
internal_value=0 0.0131411 -0.028138 0.0717863 -0.103335 0.00839312 -0.243315 -0.0603428 0.233502 -0.0941626 0.342936 0.135595 0.289483 0.166659 0.262366 0.0113276 0.16162 -0.325185 0.000935071 -0.457748 0.31473 0.181296 -0.140294 -0.187903 -0.135891 -0.322534 0.633765 0.0391446 0.17459 -0.275245
internal_count=28456 27112 21607 8611 12996 7078 5918 4777 3834 4575 397 3595 3339 5505 3392 2113 1381 1344 458 216 3237 3290 4178 495 3483 4814 202 1104 823 1956
shrinkage=0.1


Tree=24
num_leaves=31
num_cat=0
split_feature=12 11 12 13 11 9 21 22 10 17 0 5 17 16 1 19 19 18 1 9 21 9 17 3 10 3 3 4 3 22
split_gain=25.6411 26.0018 22.7681 26.3851 22.495 16.7525 24.087 30.1259 20.6988 18.0558 22.0684 21.317 14.8992 20.6748 13.9445 15.2568 13.6592 12.6722 12.4808 16.0621 15.0134 12.9583 16.3363 18.281 12.3809 11.6857 18.2426 11.8377 10.505 16.2061
threshold=0.058803696424682084 0.35316874353722166 4.2549067459403949 43.500000000000007 0.042603449697226813 1.0515516063698527 0.17905000000000001 0.0020000000500000003 1.0072561227247625 205.50000000000003 1.2389698947841354 0.045586538461538463 194.50000000000003 1.3588000000000002 2.9819874694423478 2160.5000000000005 849.50000000000011 436.50000000000006 3.3555695682003575 1.098120898667825 11.305000000000001 1.0894724701574645 85.500000000000014 3.8607095862580096 1.3317501329447985 0.62037240393719084 0.27206446420219366 20.171716717705845 0.21780589989959778 -0.10054999999999999
decision_type=2 2 2 2 2 2 2 2 2 2 2 2 2 2 2 2 2 2 2 2 2 2 2 2 2 2 2 2 2 2
left_child=-1 2 3 4 12 9 7 -7 -8 10 -5 -11 13 -2 15 -4 17 -16 19 20 -3 -20 28 24 -24 26 -6 -27 29 -23
right_child=1 18 14 5 25 6 8 -9 -10 11 -12 -13 -14 -15 16 -17 -18 -19 21 -21 -22 22 23 -25 -26 27 -28 -29 -30 -31
leaf_value=0.098326032501834526 0.048082624892005245 -0.024455007609511487 0.0076218101998792413 0.045033356434979882 -0.0067773748763926668 0.035871733413757295 0.078007898574689274 -0.03992864517432404 0.027171793391125833 0.17149080925965463 0.0013242869679712319 -0.045855187731642877 -0.026505581659631423 0.0068927375239928347 -0.01810072513386897 -0.058579704021567973 -0.045519059508223249 0.054001668586589738 -0.04609779801354643 0.05928280387668159 0.039057690849764751 0.2395276057577902 -0.051405210846875694 0.076807786456706384 0.063181609130910463 -0.0092515924828169196 -0.039171549666893742 0.026576213911593285 -0.0076929693131649801 0.031466094545253495
leaf_count=113 594 1002 1566 761 2931 600 612 487 945 21 2136 447 557 5449 1001 271 1143 131 1468 196 253 22 959 80 66 1441 1573 770 602 259
internal_value=0 -0.00732842 0.0212993 0.0533661 -0.00394149 0.174368 0.303432 0.0425845 0.470759 0.0682267 0.133313 -0.345185 0.0819289 0.112634 -0.133237 0.00723058 -0.25897 -0.0918852 -0.176386 0.00588957 -0.102133 -0.264394 -0.138763 -0.347013 -0.441749 -0.105396 -0.177306 0.0318975 0.106292 0.496159
internal_count=28456 28343 23436 19324 13315 6009 2644 1087 1557 3365 2897 468 6600 6043 4112 1837 2275 1132 4907 1451 1255 3456 1988 1105 1025 6715 4504 2211 883 281
shrinkage=0.1


Tree=25
num_leaves=31
num_cat=0
split_feature=2 12 19 1 19 19 17 17 6 7 22 1 9 0 5 19 2 17 19 13 16 23 6 14 21 22 9 19 23 17
split_gain=24.4027 26.8955 25.7924 28.2555 32.6362 46.7826 23.9025 22.4588 26.8492 22.8989 21.7329 18.5268 21.6398 20.7169 17.2478 17.1276 16.4382 15.9114 15.8491 13.3432 13.0471 14.3296 11.973 11.4996 11.0498 18.3012 13.7449 13.4281 10.7523 10.0206
threshold=7.6639562500000009 1.5699067745041637 2492.5000000000005 2.5977472562894333 1609.5000000000002 968.50000000000011 72.500000000000014 45.500000000000007 0.62952627471383982 31.858754837229601 1.0000000180025095e-35 3.884910721513267 1.0919094461939987 1.2995684158598222 0.64903529546505034 730.50000000000011 0.37272657384987895 1356.5000000000002 400.50000000000006 27.500000000000004 4.2728500000000009 1.3413687731765775 0.65197619928474548 17.075366188079279 9.9750000000000032 0.42005000000000003 1.0396675812126561 1260.5000000000002 1.0922778342112618 79.500000000000014
decision_type=2 2 2 2 2 2 2 2 2 2 2 2 2 2 2 2 2 2 2 2 2 2 2 2 2 2 2 2 2 2
left_child=1 6 3 7 5 10 19 16 9 -9 -5 13 -13 -6 -7 -10 -3 23 -18 -1 21 -21 -19 -4 -8 26 -26 -27 -29 -25
right_child=-2 2 17 4 11 14 24 8 15 -11 -12 12 -14 -15 -16 -17 18 22 -20 20 -22 -23 -24 29 25 27 -28 28 -30 -31
leaf_value=0.014178165719450726 -0.048421535698934509 -0.059862468748305586 -0.076095070131438847 0.017335630289211923 -0.02122713253998168 -0.01328883063846454 -0.012932754555244006 0.03773873852332877 0.038369316153798183 -0.018463760421771662 -0.0069863208104812575 -0.053355955516297772 0.014868979740772392 0.039465157342600532 -0.040286345194642276 -0.048185433819878616 -0.0018577163953068438 0.16300687776633285 0.064912655902155461 0.064378032050358275 0.015533316596887026 -0.1307050898627472 -0.068222934130373183 -0.093874027403105076 -0.044638652369426587 0.056980214726271711 0.14882372908500754 0.0052965132674708806 -0.096781658595846712 0.0017590057767388903
leaf_count=1660 672 63 716 2376 325 2298 1723 1071 130 499 7016 435 751 1567 3197 582 198 31 713 813 537 26 18 130 26 145 87 150 90 411
internal_value=0 0.0069932 -0.0278891 -0.0127755 -0.0505946 -0.095997 0.153151 0.169265 0.0481192 0.202455 -0.00325465 0.160937 -0.0796511 0.289178 -0.276301 -0.311983 0.431862 -0.428594 0.503436 0.276635 0.437101 0.601553 0.806838 -0.511795 -0.0372847 0.262966 1.06937 0.0210473 -0.318046 -0.193557
internal_count=28456 27784 22527 21221 17965 14887 5257 3256 2282 1570 9392 3078 1186 1892 5495 712 974 1306 911 3036 1376 839 49 1257 2221 498 113 385 240 541
shrinkage=0.1


Tree=26
num_leaves=31
num_cat=0
split_feature=12 13 12 17 2 11 9 16 19 17 2 4 9 5 5 19 7 23 16 10 15 8 22 4 1 22 6 19 15 21
split_gain=21.5682 25.7882 22.4981 21.1952 27.053 19.1876 21.1228 27.4442 22.2614 21.3446 20.0163 18.4892 18.1342 16.943 16.5639 21.2451 21.0416 15.6531 14.2078 13.7729 14.4581 13.5871 12.6477 11.6558 11.5206 12.6642 15.988 11.1491 10.9664 10.5949
threshold=6.9023923727673111 89.500000000000014 2.0530147165066603 89.500000000000014 2.552019711538462 0.0051170168576996754 1.098120898667825 8.1653000000000002 1623.5000000000002 25.500000000000004 1.0389420068027213 23.99408168107729 1.0145993707886867 0.53656944532891815 0.98070632582637518 592.50000000000011 143.92090563682439 1.0628647139296947 43.661000000000008 1.0013882105015794 60.328450000000011 1.1746508814135976 0.07605000000000002 15.685396059077329 2.6430706680020131 0.13285000000000002 0.18822411093715055 271.50000000000006 -927.52399999999989 8.8750000000000018
decision_type=2 2 2 2 2 2 2 2 2 2 2 2 2 2 2 2 2 2 2 2 2 2 2 2 2 2 2 2 2 2
left_child=1 2 3 4 19 -4 9 8 -8 10 -7 22 27 -11 29 16 -16 -6 -9 20 -1 -17 -3 -21 25 -2 -27 -13 -19 -5
right_child=24 11 5 14 17 6 7 18 -10 13 -12 12 -14 -15 15 21 -18 28 -20 23 -22 -23 -24 -25 -26 26 -28 -29 -30 -31
leaf_value=0.031691610959720111 0.031586568753950751 0.066450296752172774 0.017394610237670041 -0.024980820384179692 -0.054607322181388057 0.056540190581089202 -0.0004702746121738489 -0.049485504574180821 0.040997113398559264 -0.01290243053075886 -0.0074944089205751423 -0.12161653128220802 0.029563899736187733 -0.037967559887700286 0.063088711581789955 0.24694364914857947 0.28895774773523797 0.16837417062313711 0.1095133526713265 0.0048892845883067157 0.090813887959065434 -0.019815538220257653 0.023067285831367794 0.035959693655778904 -0.046011767728029215 0.069247524899675825 -0.078112299737163993 -0.0097279858493877006 0.0022319505245507018 0.0076280993214250638
leaf_count=648 242 496 1222 2082 262 276 3053 734 831 2902 1417 48 783 3369 101 12 26 22 31 1324 299 241 970 1061 886 43 173 1081 3065 756
internal_value=0 0.0115267 -0.0161883 0.0667617 0.136061 -0.0773268 -0.107227 0.0162505 0.089364 -0.18218 0.0360247 0.193556 0.0466058 -0.251057 -0.095722 0.370093 1.08856 -0.0124741 -0.419159 0.274086 0.500036 -0.069813 0.379834 0.184967 -0.291971 -0.012768 -0.430559 -0.146251 0.0336807 -0.158905
internal_count=28456 27112 23734 9899 6681 13835 12613 4649 3884 7964 1693 3378 1912 6271 3218 380 127 3349 765 3332 947 253 1466 2385 1344 458 216 1129 3087 2838
shrinkage=0.1


Tree=27
num_leaves=31
num_cat=0
split_feature=24 22 24 15 12 7 10 4 21 19 1 17 19 13 12 16 24 19 22 18 5 19 2 6 5 17 11 3 16 2
split_gain=20.6096 34.6696 23.4437 20.1342 17.9828 14.947 14.4482 14.2446 16.2978 14.0267 15.2298 22.1282 20.6919 16.3618 14.6321 14.5871 13.8951 13.7604 22.5532 18.9184 15.7415 14.904 13.975 27.1263 15.6556 13.5217 13.3499 13.1459 12.2342 12.7713
threshold=43.503836317135558 1.0000000180025095e-35 -14.263824884792625 41.822550000000007 2.0428983695348975 -28.472973180352479 1.0037241768799212 16.248901476455416 19.214999000000002 2312.5000000000005 2.5653049065415026 49.500000000000007 1592.5000000000002 183.50000000000003 6.9023923727673111 7.1387000000000009 -13.611230791325577 394.50000000000006 0.059650000000000009 302.50000000000006 0.62503196930946303 318.50000000000006 0.79236072784810141 0.65585553997194956 0.22238088169224826 88.500000000000014 0.35316874353722166 0.97485056496863043 1.0102500000000003 0.86429393548387112
decision_type=2 2 2 2 2 2 2 2 2 2 2 2 2 2 2 2 2 2 2 2 2 2 2 2 2 2 2 2 2 2
left_child=2 -2 4 17 7 6 25 -1 -9 10 11 -6 15 -13 -14 -12 -7 19 -19 20 -4 -22 23 -20 -24 -5 -18 28 29 -3
right_child=1 27 3 5 9 16 -8 8 -10 -11 12 13 14 -15 -16 -17 26 18 22 -21 21 -23 24 -25 -26 -27 -28 -29 -30 -31
leaf_value=-0.0074212922890721806 0.058371491337009085 0.0010213960701141017 -0.011337821175767947 0.13121176111430174 0.056652609926671427 0.12274889618420937 0.014337624936642122 0.01667796531670903 0.18651039937711331 -0.052782912808470805 -0.014030601325981674 -0.022518087960512599 0.027433736260263297 0.12312155157519022 -0.10052213358457691 -0.049752096350347913 -0.00058130354471993314 0.061111352015888187 0.01300838902122892 -0.056607958887913916 0.072496934898842055 -0.0094324451132685866 0.068857606139687541 -0.070174061127025775 0.020333624147189644 -0.13651322082398759 -0.032591065456707903 0.0079302600168122198 -0.026907315835986691 0.18026316076715121
leaf_count=1908 302 62 604 103 355 45 345 2468 28 607 4545 500 741 36 51 869 3316 676 1322 225 258 157 378 253 2403 14 1079 832 3947 27
internal_value=0 -0.138419 0.0260368 0.100452 -0.0452226 -0.0144904 0.362881 0.0706961 0.187675 -0.113914 -0.0900171 0.168965 -0.133881 -0.117675 0.198751 -0.188139 -0.0587961 0.181451 0.236764 -0.0146453 0.108271 0.419434 0.175879 0.0069605 0.273086 1.06363 -0.0722984 -0.190563 -0.24729 0.54423
internal_count=28456 5170 23286 11178 12108 4902 462 4404 2496 7704 7097 891 6206 536 792 5414 4440 6276 5032 1244 1019 415 4356 1575 2781 117 4395 4868 4036 89
shrinkage=0.1


Tree=28
num_leaves=31
num_cat=0
split_feature=2 18 10 12 3 8 13 19 15 21 2 6 24 18 13 9 8 21 17 20 0 4 19 6 20 0 18 16 19 5
split_gain=19.8863 20.2105 23.8516 20.6492 25.3913 19.6265 23.7369 19.308 18.3157 18.2296 17.5549 16.9351 16.3878 15.9664 15.8689 14.8033 14.7255 14.6064 13.8803 12.2222 12.129 15.3205 11.8877 11.8263 10.1153 14.6509 12.4098 14.9432 11.8258 9.86856
threshold=7.6639562500000009 447.50000000000006 1.0508960436770236 1.5699067745041637 0.26191900438779775 1.0232148635744716 65.500000000000014 849.50000000000011 33.230300000000007 2.7635000000000001 0.68666508166319651 0.69112963656800308 -26.418770864277416 358.50000000000006 106.50000000000001 0.85223760666725201 0.92424398741020863 -1.0000000180025095e-35 69.500000000000014 49.500000000000007 2.8848803953383553 24.0820635342678 1104.5000000000002 0.15700162866449516 794.50000000000011 3.2706779934887629 921.50000000000011 6.3815500000000016 1907.5000000000002 0.74700534927627449
decision_type=2 2 2 2 2 2 2 2 2 2 2 2 2 2 2 2 2 2 2 2 2 2 2 2 2 2 2 2 2 2
left_child=1 3 10 18 5 9 17 14 24 16 22 12 -9 -8 15 -6 -5 -7 -1 -13 -10 29 -3 -11 26 28 -4 -28 -26 -22
right_child=-2 2 8 4 7 6 13 11 20 23 -12 19 -14 -15 -16 -17 -18 -19 -20 -21 21 -23 -24 -25 25 -27 27 -29 -30 -31
leaf_value=0.023067801322702818 -0.044460994609160816 0.076704464966926331 0.026339699459180934 -0.068216590184154102 0.048320025767904132 0.036371531584163709 0.032907082580951173 -0.048131247968135504 -0.017402031456068823 0.0051248815529429913 0.044680862877723902 -0.019934278436282531 -0.001554630824510528 -0.059069808650062561 0.062965279422425413 -0.013641991829976949 0.0081359622371944378 -0.0037889512454057153 -0.0047346010495890531 -0.069283680325163632 -0.06671408040974966 -0.037549183506084556 -0.04819493197043008 -0.037060043969029698 -0.075660140753952748 0.251406683345263 0.12532047975358918 -0.13794175266953362 0.015156809330243763 0.076744148792660338
leaf_count=2313 672 44 674 178 195 507 1825 683 1872 443 1351 484 1339 92 153 2684 1949 5495 1655 960 31 142 179 1832 127 13 108 13 212 231
internal_value=0 0.0062367 0.134932 -0.0238123 -0.0565204 0.00409391 0.0696576 -0.177092 0.0249756 -0.125384 0.354202 -0.309802 -0.169714 0.282312 -0.0519163 -0.090843 0.0279366 -0.00306938 0.125192 -0.524081 -0.0981965 0.277085 -0.219538 -0.278371 0.250663 -0.0860137 0.379814 1.01382 -0.173379 0.604767
internal_count=28456 27784 4997 22787 18819 12321 7919 6498 3423 4402 1574 3466 2022 1917 3032 2879 2127 6002 3968 1444 2276 404 223 2275 1147 352 795 121 339 262
shrinkage=0.1


Tree=29
num_leaves=31
num_cat=0
split_feature=2 12 17 19 10 7 8 0 16 23 11 17 10 24 10 20 7 19 17 7 5 21 2 24 11 0 11 9 7 0
split_gain=18.2365 21.155 18.6483 24.6456 24.2129 24.0126 19.5464 23.4211 18.9149 20.7752 17.2153 16.9243 15.9647 15.4061 14.0872 14.0753 13.4322 12.7098 12.1351 10.4447 11.2696 12.56 14.4286 10.9873 10.2309 9.82247 9.8443 9.62599 9.54565 9.23814
threshold=4.1319767857142873 5.2330445294479881 205.50000000000003 2492.5000000000005 0.99779688127644428 5.9034272768076166 1.0272341029284815 2.3946576560250206 1.9148000000000003 1.1341605308972815 0.0085285824996383184 12.500000000000002 0.98161624701692363 33.377896613190735 1.3058719827833507 331.50000000000006 6.278328749624337 352.50000000000006 84.500000000000014 42.883563443213333 0.54475918923944711 1.0150000000000003 0.59182752568493158 1.8421562924180723 0.067630033858658886 1.5093654151663329 0.062341637508508609 1.0314414081347818 106.75172762922902 1.6408783633007753
decision_type=2 2 2 2 2 2 2 2 2 2 2 2 2 2 2 2 2 2 2 2 2 2 2 2 2 2 2 2 2 2
left_child=1 2 3 4 6 14 10 -8 18 -10 -1 17 -7 16 -4 -13 -14 -2 -6 23 21 22 -21 24 25 -3 -27 -23 -15 -19
right_child=11 19 5 -5 8 12 7 -9 9 -11 -12 15 13 28 -16 -17 -18 29 -20 20 -22 27 -24 -25 -26 26 -28 -29 -30 -31
leaf_value=0.052551092354664312 -0.019834365346936587 0.011680118030465489 -0.046141512685093818 -0.041220578938483798 0.013661260767729583 -0.052784136756397843 0.038857247524317448 -0.04007642913859448 -0.0079402574528937182 0.013996872035085935 -0.0057264997464280109 -0.028507886042506175 0.26356899869389655 -0.047019326581618254 0.16004750233475129 0.0045830419081658996 0.023161091543926655 -0.1206083838346816 0.055003371246864212 -0.093479381069265066 -0.07974994763497617 -0.07155853690813542 0.13432334349999361 0.017927519433350216 -0.045664413797959158 -0.043700686628123875 0.19114391754217008 0.04148273158458661 0.013138760456657086 0.083648709593565518
leaf_count=269 117 544 1008 935 1870 273 2660 242 7092 3278 1734 2985 12 338 19 978 1119 11 390 18 318 165 46 569 645 323 10 48 275 165
internal_value=0 0.0211256 0.0445226 0.0709562 0.0853058 -0.127505 0.221032 0.334213 0.0336303 -0.0100466 0.0396121 -0.149694 0.0211129 0.101106 -0.423307 -0.197315 0.258504 0.341489 0.206837 -0.175956 -0.458443 -0.136228 0.691518 -0.100011 -0.202541 -0.0590856 -0.370392 -0.423114 -0.207352 0.709653
internal_count=28456 24200 21514 18470 17535 3044 4905 2902 12630 10370 2003 4256 2017 1744 1027 3963 1131 293 2260 2686 595 277 64 2091 1522 877 333 213 613 176
shrinkage=0.1


Tree=30
num_leaves=31
num_cat=0
split_feature=12 11 20 20 24 24 22 14 17 18 10 17 12 17 15 3 16 7 19 1 9 17 1 14 19 19 11 12 7 3
split_gain=17.4463 16.6122 14.8817 24.1427 17.4102 22.1028 21.0003 14.1691 17.9712 15.7244 12.613 12.5923 11.7773 11.9139 11.7731 11.753 11.5518 12.3168 10.9825 11.3184 12.9659 10.8953 10.4381 10.3775 10.3438 10.1633 9.92187 9.644 9.89788 9.27447
threshold=0.058803696424682084 0.35316874353722166 352.50000000000006 429.50000000000006 47.41484398809105 -14.263824884792625 1.0000000180025095e-35 -22.067006434356202 8.5000000000000018 204.50000000000003 1.0525447325211823 35.500000000000007 8.3431752827766257 322.50000000000006 34.721250000000005 0.39721729936377598 1.0102500000000003 62.334415576507915 346.50000000000006 3.3555695682003575 1.1758218071506299 475.50000000000006 5.5038356337336607 107.71716928522089 592.50000000000011 2472.5000000000005 0.015849862993759341 1.6847757029078012 2334.249899620871 0.19910649637404923
decision_type=2 2 2 2 2 2 2 2 2 2 2 2 2 2 2 2 2 2 2 2 2 2 2 2 2 2 2 2 2 2
left_child=22 2 4 14 5 12 -6 8 -7 -9 15 -12 13 -2 -4 -5 17 -8 -3 20 -20 -18 -1 -16 -13 27 -14 29 -29 -21
right_child=1 18 3 10 6 7 16 9 -10 -11 11 24 26 -15 23 -17 21 -19 19 25 -22 -23 -24 -25 -26 -27 -28 28 -30 -31
leaf_value=0.10463508886189615 -0.0024851665314493693 -0.070153620174654846 0.079460633688648918 -0.026498299553488813 0.051333760855344295 -0.013249581342442925 -0.099802293009518428 0.01423516054331393 0.065527613961491371 -0.0086443932975553278 -0.053173128048413815 0.074578382673942054 0.022331479191283966 -0.051401450865293588 0.031365866461324075 0.048913665794487138 -0.0216307231017774 0.10263665969747088 0.0012016542555381121 0.04349510862380479 0.11593890300849562 -0.10690249786458267 -0.10634993953966898 -0.17952402141701673 -0.0049846512693809903 -0.07339020969449124 -0.072792429140857706 -0.030166723568301523 0.1312186073838395 -0.011008740429782761
leaf_count=102 8570 242 328 135 206 182 17 5564 446 2025 273 86 68 292 482 390 2921 65 1320 251 48 92 11 12 1022 337 260 1887 28 794
internal_value=0 -0.0060504 0.0168412 0.170161 -0.00463445 0.0231992 -0.162417 0.1068 0.415054 0.0786252 0.028016 -0.0909332 -0.0552556 -0.0398124 0.476027 0.307716 -0.214694 0.58307 -0.143722 -0.117523 0.0622071 -0.240936 0.827547 0.266275 0.0164654 -0.205255 -0.493935 -0.165398 -0.279419 0.0231726
internal_count=28456 28343 23436 2728 20708 17407 3301 8217 628 7589 1906 1381 9190 8862 822 525 3095 82 4907 4665 1368 3013 113 494 1108 3297 328 2960 1915 1045
shrinkage=0.1


Tree=31
num_leaves=31
num_cat=0
split_feature=2 12 17 10 9 1 24 19 19 1 15 8 23 11 9 3 19 16 9 3 13 14 12 11 14 22 24 17 14 23
split_gain=15.3001 15.3975 19.419 30.149 18.8181 18.5613 19.9808 16.9672 19.7968 30.9336 20.8433 21.2603 16.9127 16.8743 16.7565 20.3017 16.0125 24.5041 15.4925 15.1721 14.8527 14.78 14.0624 12.904 12.4497 11.9903 11.7923 11.6001 10.8513 11.9737
threshold=7.6639562500000009 3.6535535849650143 38.500000000000007 1.0461802074802924 0.85223760666725201 4.1427859845683024 41.191354791562269 338.50000000000006 592.50000000000011 4.4360100056822072 22.855650000000001 1.3747614536386588 1.1347750414217017 3.0877954105366703 1.0323886401098117 0.33221875022482267 1549.5000000000002 6.7329500000000007 0.9503924255399927 0.71280091666825873 88.500000000000014 91.98139661199265 7.1552328111893297 0.066417958906819188 -59.906157686275925 0.018850000000000002 18.331969448990726 43.500000000000007 27.588859498627709 1.1314237076306444
decision_type=2 2 2 2 2 2 2 2 2 2 2 2 2 2 2 2 2 2 2 2 2 2 2 2 2 2 2 2 2 2
left_child=1 2 3 14 23 6 18 24 10 12 13 -12 -10 -9 15 21 17 -16 -3 -11 22 -1 -20 -5 -4 27 -18 -8 29 -6
right_child=-2 5 7 4 28 -7 25 8 9 19 11 -13 -14 -15 16 -17 26 -19 20 -21 -22 -23 -24 -25 -26 -27 -28 -29 -30 -31
leaf_value=0.021513132275630981 -0.03983229970680284 -0.030142186071786276 0.15923608150245655 0.10433029566409682 -0.025617538785485901 -0.040030626040533313 0.10214690195148482 0.062466045774731298 -0.002537035795933308 -0.044673721056180116 -0.018029173418398416 0.045305977992751378 0.022884676306675483 0.35844862621308837 0.037824740503350628 -0.052044015459050463 0.11426891705910532 -0.044232662053643054 0.0052990383254812633 -0.0086700953661259985 0.028741933319431062 -0.096508444486963288 -0.039978788927554944 -0.021110448006605654 -0.046430252010097199 -0.045771864519269068 0.021252443530921476 -0.061153723452680164 0.016922590000290155 0.0050071270740740838
leaf_count=1577 672 791 13 109 1596 1064 56 327 6617 1562 662 463 1790 10 1816 247 200 220 2194 1424 1121 57 442 57 574 868 89 42 752 1044
internal_value=0 0.00533141 0.035042 0.120727 -0.0302527 -0.094576 -0.0435156 -0.0216404 -0.00335178 -0.0386261 0.240934 0.0861927 0.0298442 0.705598 0.246169 0.0904598 0.369938 0.300035 0.0180392 -0.263669 0.0748342 0.176766 -0.0215363 0.652489 -0.407172 -0.362111 0.842803 0.398071 -0.0684066 -0.13515
internal_count=28456 27784 21206 7764 3558 6578 5514 13442 12855 11393 1462 1125 8407 337 4206 1881 2325 2036 4548 2986 3757 1634 2636 166 587 966 289 98 3392 2640
shrinkage=0.1


Tree=32
num_leaves=31
num_cat=0
split_feature=2 9 16 19 10 1 7 17 10 19 12 17 5 21 15 19 19 7 21 19 10 24 1 11 20 14 16 12 18 17
split_gain=14.2227 17.3635 16.657 15.3984 16.4221 24.3339 15.2596 14.7958 16.02 16.8939 15.2212 14.6162 21.216 22.4031 20.6092 19.1049 14.5575 13.7672 13.5779 13.1119 15.1893 13.1035 14.773 13.6255 12.9366 12.7304 12.6369 12.5607 12.2404 12.5501
threshold=2.399325148809524 1.0274090703139611 13.736400000000001 2515.5000000000005 1.0072561227247625 4.9124628032105662 1433.0394848322055 306.50000000000006 1.0303318480774648 592.50000000000011 1.9828996867216253 25.500000000000004 0.53656944532891815 1.1505000000000003 12.624500000000003 2021.5000000000002 1751.5000000000002 15.706964613015652 14.738750000000001 516.50000000000011 1.1599225529083543 200.00000369999995 3.3442556709080846 0.0063734515999366382 7.5000000000000009 37.77185783360904 87.398900000000012 3.1180414874217139 840.50000000000011 57.500000000000007
decision_type=2 2 2 2 2 2 2 2 2 2 2 2 2 2 2 2 2 2 2 2 2 2 2 2 2 2 2 2 2 2
left_child=1 6 7 4 5 16 11 10 -9 17 -3 18 13 15 -15 -13 -2 -10 19 -1 -21 22 -12 -23 -7 -11 27 -6 -29 -30
right_child=3 2 -4 -5 26 24 -8 8 9 25 21 12 -14 14 -16 -17 -18 -19 -20 20 -22 23 -24 -25 -26 -27 -28 28 29 -31
leaf_value=0.037645522369518188 0.014323174478604246 0.028850535329107987 -0.03292607917692357 -0.077380337925353551 -0.0070564141689747548 0.084729829710537247 0.11118521887687455 -0.053365118158946762 0.016359578856870196 0.015583237092354105 0.023528347842850017 0.040855458275012344 -0.030516637681219889 0.024997451989416674 -0.018322286094582817 -0.087958045066396498 0.07642531073682525 0.26869677324931679 0.2399590222125304 -0.0072465379964161431 0.19723309420339133 0.13386342121150183 -0.0012925729801224247 -0.050884004407341837 -0.059633692204917481 -0.082744312938668518 0.14473576684750597 -0.037036865848276722 -0.034431495451822981 0.12018343561412373
leaf_count=562 1684 2718 486 332 6449 46 62 373 20 367 2294 752 2367 654 2907 89 219 20 14 1011 16 21 2560 308 403 103 28 1477 59 55
internal_value=0 0.0372052 0.103534 -0.0709548 -0.0594521 0.114838 -0.0406743 0.124736 -0.162928 0.103725 0.154458 -0.0492381 -0.100529 -0.0143112 -0.0952109 0.313009 0.218635 1.43565 0.136449 0.118387 -0.0357975 0.0820614 0.110242 -0.374504 -0.443915 -0.0308404 -0.109732 -0.115312 -0.309003 0.424395
internal_count=28456 17704 9270 10752 10420 2352 8434 8784 883 510 7901 8372 6769 4402 3561 841 1903 40 1603 1589 1027 5183 4854 329 449 470 8068 8040 1591 114
shrinkage=0.1


Tree=33
num_leaves=31
num_cat=0
split_feature=12 1 9 17 21 22 13 4 22 21 19 7 21 21 5 24 9 7 23 17 6 24 14 21 19 21 2 11 6 6
split_gain=13.6255 14.3341 16.8058 24.7575 21.1652 49.3635 21.6874 20.3746 19.2715 30.808 28.5441 17.7175 16.2356 21.065 20.8819 20.5861 17.1102 16.0474 15.417 13.8702 23.7685 21.6289 18.1497 17.3842 15.0883 15.0219 14.2752 13.6358 12.9333 12.8639
threshold=0.058803696424682084 2.5653049065415026 1.0274090703139611 15.500000000000002 0.20210000000000003 1.0000000180025095e-35 42.500000000000007 25.759972281235935 -1.0000000180025095e-35 -1.0000000180025095e-35 352.50000000000006 -6.1581089817340935 0.75500000000000012 14.205000000000002 0.81277275508123181 -83.7083333333333 0.93297778138693566 -17.91637024379876 1.0706727610875835 44.500000000000007 0.65585553997194956 -71.613279946613275 28.408813504793461 15.860000000000001 773.50000000000011 5.8049999714 0.37272657384987895 0.28790299570534944 0.7415829770309238 0.91694594594594614
decision_type=2 2 2 2 2 2 2 2 2 2 2 2 2 2 2 2 2 2 2 2 2 2 2 2 2 2 2 2 2 2
left_child=-1 19 3 7 5 8 27 -3 9 -4 -10 -8 14 15 18 -14 -15 -7 -5 26 21 -21 23 -23 29 -24 -2 -6 -19 -22
right_child=1 2 4 12 6 17 11 -9 10 -11 -12 -13 13 16 -16 -17 -18 28 -20 20 24 22 25 -25 -26 -27 -28 -29 -30 -31
leaf_value=0.074429031204762353 -0.063646867083746991 0.036193458880336357 0.011521403802915976 -0.042353212788885486 0.0054811293882477546 -0.05949980857010654 0.048171667757764068 -0.047922983234119622 -0.021330657745663749 -0.053829090261628847 0.044127571870135496 0.012152562535007815 0.045533459771153632 0.15014388343656834 -0.04425400579939022 -0.031657375610932036 0.0087623918252528934 0.0026047628417603754 0.021566108645641291 -0.064974424211240986 -0.02632821994176365 0.027576437143136779 0.025304092781932644 0.12103556581260283 -0.043699242219362514 -0.054185638162731302 0.039062667468954253 -0.021767738241003323 -0.039467597478935287 0.094991653425045564
leaf_count=113 64 764 1239 227 4685 968 943 174 418 576 1113 2272 223 64 568 4830 322 777 1459 157 91 1430 240 104 765 264 963 1584 987 72
internal_value=0 -0.00535661 -0.0280427 -0.115013 0.0158583 -0.091674 0.0831474 0.213694 0.082021 -0.0848818 0.255147 0.228284 -0.166022 -0.240681 0.00411363 -0.282829 0.321911 -0.344097 0.124044 0.115505 0.0355568 0.160204 0.222288 0.34152 -0.283117 -0.158735 0.32549 9.62519e-05 -0.204731 0.299702
internal_count=28456 28343 24193 8631 15562 6078 9484 938 3346 1815 1531 3215 7693 5439 2254 5053 386 2732 1686 4150 3123 2195 2038 1534 928 504 1027 6269 1764 163
shrinkage=0.1


Tree=34
num_leaves=31
num_cat=0
split_feature=12 13 4 12 18 21 11 2 17 10 4 22 19 19 21 14 2 19 0 11 8 19 11 5 12 19 13 18 23 2
split_gain=13.4127 14.3578 16.5523 14.6998 14.5562 14.3607 14.1528 13.7843 13.2494 14.5489 16.7 15.4851 13.5101 16.2786 13.3005 12.6871 11.7807 13.0684 12.2095 11.0717 14.2878 10.1912 9.55659 9.11309 8.87707 8.74743 8.25488 9.55327 12.7695 8.02654
threshold=8.7696447895612621 89.500000000000014 20.591936642894947 2.4373718656557051 857.50000000000011 0.17905000000000001 0.4716267406173405 7.6639562500000009 85.500000000000014 1.0013882105015794 13.530171888054211 -0.015949999999999995 932.50000000000011 358.50000000000006 1.0150000000000003 33.491482276256527 0.62792204497618254 286.50000000000006 1.9816183624411441 0.0051170168576996754 1.274944062590404 2297.5000000000005 0.9499112172813412 0.73476407267659871 1.2359287762307158 663.50000000000011 171.50000000000003 110.50000000000001 1.0846079651556872 0.31336835664335666
decision_type=2 2 2 2 2 2 2 2 2 2 2 2 2 2 2 2 2 2 2 2 2 2 2 2 2 2 2 2 2 2
left_child=1 3 24 7 6 -6 19 8 9 11 -11 -1 13 -10 -14 22 26 -18 21 20 -5 -19 -7 -21 -3 -20 27 28 -4 -28
right_child=-2 2 16 4 5 15 -8 -9 12 10 -12 -13 14 -15 -16 -17 17 18 25 23 -22 -23 -24 -25 -26 -27 29 -29 -30 -31
leaf_value=-0.020344580273434842 -0.033971744470648678 0.1553383657458586 0.19237357062230809 0.024802305076257643 -0.055541235748083118 0.074763058490845094 -0.0439830988533714 -0.03951093907136622 -0.052776279428411614 -0.011418025335487208 0.012685110885361662 0.035124069942177046 -0.052504934007923311 0.023887855573447459 -0.0084485005636202419 -0.027885821892816104 -0.076202913219290042 0.026210027533622587 0.017510816952302773 -0.0048578680932382795 -0.045341555962023265 -0.029432667297249967 -0.063625483538195915 -0.02101746495819129 0.037116713725726426 -0.074950821820268951 -0.06047442650590526 -0.076534848299705527 -0.038322756129314947 0.032256607036633543
leaf_count=301 672 33 16 815 105 321 905 518 175 2138 4452 1676 513 1092 2495 110 83 1770 88 4888 163 262 32 3455 764 147 60 212 47 148
internal_value=0 0.00573379 0.137812 -0.0155219 -0.0813141 0.278918 -0.102385 0.035196 0.0480732 0.097139 0.0459919 0.266594 -0.0637258 0.134195 -0.156381 0.44134 0.0550304 0.123205 0.155964 -0.0792353 0.133877 0.210711 0.639932 -0.109879 0.419848 -0.357237 -0.260249 -0.531096 0.249828 0.0525229
internal_count=28456 27784 3630 24154 10794 568 10226 13360 12842 8567 6590 1977 4275 1267 3008 463 2833 2350 2267 9321 978 2032 353 8343 797 235 483 275 63 208
shrinkage=0.1


Tree=35
num_leaves=31
num_cat=0
split_feature=24 22 1 8 10 19 9 17 17 21 19 21 5 7 24 14 7 17 15 10 15 12 21 17 3 19 22 5 9 2
split_gain=11.76 17.4282 13.6694 18.5091 17.8603 17.1985 25.463 17.8493 16.9732 16.2337 25.9284 25.3787 16.0722 15.4626 13.1059 15.0187 13.7735 13.9922 12.8673 12.2941 11.9378 11.6084 11.2062 11.1104 10.7976 10.6376 12.0836 10.6314 11.2586 10.5147
threshold=41.191354791562269 1.0000000180025095e-35 3.4495601393148791 1.0122653044324406 0.99032993897888677 884.50000000000011 1.07226392982785 192.50000000000003 46.500000000000007 0.050000000350000011 1205.5000000000002 -1.0000000180025095e-35 0.045586538461538463 443.12501551483359 6.3596319823012388 -24.493567217656345 21.572597526402031 25.500000000000004 64.474700000000013 1.3317501329447985 13.085650000000003 1.6847757029078012 22.290000000000003 66.500000000000014 1.5435746165083672 1642.5000000000002 0.086035500000000001 0.46040873015873024 1.0203436949380051 0.87496505716144668
decision_type=2 2 2 2 2 2 2 2 2 2 2 2 2 2 2 2 2 2 2 2 2 2 2 2 2 2 2 2 2 2
left_child=2 -2 3 12 8 29 27 9 18 11 -11 -8 20 22 15 21 -16 -18 -5 -9 -1 -6 23 -14 -3 26 -10 28 -7 -4
right_child=1 24 5 4 14 6 7 19 25 10 -12 -13 13 -15 16 -17 17 -19 -20 -21 -22 -23 -24 -25 -26 -27 -28 -29 -30 -31
leaf_value=0.16026092075559412 0.040215465200146808 -0.017910767789193233 0.045553165427885567 0.039938237177903763 0.10549464819657156 -0.031851540403887484 0.024057344966540332 -0.050899082134656506 0.043014119794079084 0.064417202465226184 0.0023471597374785623 -0.051669296197704898 -0.0019092389023336088 0.17859043850062253 0.044573576871041687 -0.0031955939564249298 -0.0746353073495271 0.014807935949175328 0.10403115413959647 0.1146577972575164 -0.023857414881420583 0.0209993481879115 0.16109031109741725 -0.032627227403988622 0.019266059458184531 0.046510574905884852 -0.031804753787522511 -0.043443133516418229 0.032695758533082007 0.0023645264308673562
leaf_count=41 318 4548 311 481 94 449 458 512 158 525 1285 626 1485 19 833 3925 92 785 209 29 30 426 21 1228 500 304 338 1994 224 6208
internal_value=0 -0.104215 0.0202134 0.0790192 0.133198 -0.0339087 -0.132459 -0.00162089 0.349875 0.0703852 0.202469 -0.172304 -0.0869514 -0.118238 0.0800806 0.0162252 0.244763 0.0479538 0.590094 -0.419095 0.927141 0.363316 -0.134763 -0.14794 -0.141513 0.118609 -0.0786162 -0.329377 -0.0728688 0.0441204
internal_count=28456 5366 23090 10469 7645 12621 6102 3435 1490 2894 1810 1084 2824 2753 6155 4445 1710 877 690 541 71 520 2734 2713 5048 800 496 2667 673 6519
shrinkage=0.1


Tree=36
num_leaves=31
num_cat=0
split_feature=12 14 23 1 12 17 16 18 8 22 6 17 21 1 15 10 17 11 0 4 11 19 8 13 13 13 6 9 12 8
split_gain=10.9166 11.0541 12.8412 12.5119 14.8644 12.8694 16.5876 14.7268 12.0278 21.6 21.6249 16.1363 12.553 8.8718 8.47021 7.71042 12.616 11.9346 8.70036 7.04593 7.05882 6.84394 7.86592 6.82654 6.42549 6.2188 5.86608 5.86181 5.73765 5.04736
threshold=0.058803696424682084 -79.974701417510417 1.4698760872078114 2.5653049065415026 6.2062113804299317 306.50000000000006 2.1972500000000004 840.50000000000011 1.1019780598868716 0.11005000000000002 0.15215894039735103 43.500000000000007 1.0549999714000002 5.2211393860052073 32.282600000000009 1.0122134250252148 10.500000000000002 0.022289562665159694 1.5719010776668698 10.839170154062259 0.0051170168576996754 406.50000000000006 1.210872660495194 16.500000000000004 35.500000000000007 17.500000000000004 0.15700162866449516 0.94733921108411079 2.5678932996620385 1.0617896889984342
decision_type=2 2 2 2 2 2 2 2 2 2 2 2 2 2 2 2 2 2 2 2 2 2 2 2 2 2 2 2 2 2
left_child=13 15 3 8 5 7 -7 -5 9 11 -11 -3 25 -1 -14 18 21 -18 24 -6 -21 22 28 -4 -2 -10 -20 -19 -17 -26
right_child=1 2 23 4 19 6 -8 -9 12 10 -12 -13 14 -15 -16 16 17 27 26 20 -22 -23 -24 -25 29 -27 -28 -29 -30 -31
leaf_value=0.09198756682375954 -0.11160739915284068 0.05952303263373903 0.045007960783345631 -0.0021453496118431989 -0.13101036793273921 -0.0737561613462063 -0.009231238038776032 0.020007104508986979 -0.098432577824932616 0.031417665034024163 -0.022999479843146889 0.0069470391044569261 0.066620274524303455 -0.085931295602701463 0.015209782751894253 0.05801383617587616 0.12568464518436284 0.16559023000767398 0.0063654029127303271 0.061724031088547862 -0.029756141556461321 0.040883554203312043 -0.2014511572956964 -0.11813248473800107 0.18739548392902439 0.0033141736194024409 0.16453458270197407 -0.018686024533230764 -0.11377903675555355 -0.026461862623399637
leaf_count=99 15 440 17 19483 33 296 980 1765 38 454 1643 751 409 14 254 16 60 11 15 40 1193 25 18 90 10 119 53 86 18 11
internal_value=0 -0.00484726 -0.0102983 -0.0074044 -0.0290136 -0.015739 -0.257151 -0.00265071 0.106279 0.0438236 -0.0991859 0.278476 0.343016 0.675756 0.475342 0.386539 0.165953 0.546109 0.877668 -0.290663 -0.257216 -0.509767 -0.931109 -0.878641 2.56136e-05 -0.215626 1.32708 0.0118532 -0.33218 0.770701
internal_count=28456 28343 28005 27898 23790 22524 1276 21248 4108 3288 2097 1191 820 113 663 338 234 157 104 1266 1233 77 52 107 36 157 68 97 34 21
shrinkage=0.1


Tree=37
num_leaves=31
num_cat=0
split_feature=2 9 9 10 2 13 22 12 8 13 22 11 4 21 7 7 8 6 7 14 21 21 12 2 6 17 17 12 19 3
split_gain=10.6139 11.6817 14.1678 13.1902 14.1492 12.8364 13.5669 12.4094 10.9061 10.781 10.762 10.7512 19.323 14.7768 10.3761 13.947 11.5886 10.3649 10.7074 10.0039 12.7767 9.54901 9.16565 9.03574 8.93067 8.73014 8.2339 8.11925 7.76724 7.76269
threshold=5.4124285060975597 0.85223760666725201 0.94598039347356566 1.1804699816676505 2.4700512820512821 89.500000000000014 0.1099999997 4.1305473589830877 1.2084544999918718 35.500000000000007 0.089950000000000016 0.0021194165670385882 9.4015870969803483 0.17905000000000001 7.03453821410411 21.231891599138407 1.1613802238633137 0.1965713429256595 1433.0394848322055 -23.771633687338454 2.0203000000000002 13.200000000000001 1.7962229452037024 1.6399421052631584 0.98250168236877533 23.500000000000004 15.500000000000002 2.7818412030742037 849.50000000000011 0.072892146349623474
decision_type=2 2 2 2 2 2 2 2 2 2 2 2 2 2 2 2 2 2 2 2 2 2 2 2 2 2 2 2 2 2
left_child=1 9 3 4 19 7 17 11 26 25 -5 12 -4 -13 16 -16 -8 -7 -19 20 -3 -6 -10 28 -25 -1 27 -2 -9 -28
right_child=8 2 5 10 21 6 14 23 22 -11 -12 13 -14 -15 15 -17 -18 18 -20 -21 -22 -23 -24 24 -26 -27 29 -29 -30 -31
leaf_value=0.1237757913507138 0.054331356119198607 0.075266631846594101 -0.01289322829547454 -0.028281450086445715 -0.064532644564200811 -0.0086604460980846884 -0.031608366106332379 0.017659542491036028 0.015745014477120938 -0.035979543765313676 0.15818259575567029 -0.0089769901981079717 0.067011960807868254 0.0057421173664102109 0.052115115498206167 -0.001679026764616979 0.06001897342542141 0.038564020365184852 0.27725878734115245 -0.017976446682616522 -0.070252389007716826 0.14180938666148962 -0.024679809929637531 -0.036915981631209939 0.017762879822323503 0.030019509389770285 0.03484692918804546 -0.08810535146818399 -0.015684775913983255 -0.065764825291163953
leaf_count=78 69 133 249 29 563 259 567 558 660 63 39 5413 311 11455 336 798 75 1164 10 1598 51 19 742 1202 200 108 55 28 1050 574
internal_value=0 0.0102357 0.00515153 -0.181374 -0.216579 0.0209437 0.15211 -0.00112595 -0.174088 0.482864 0.816617 0.0218999 0.312651 0.010578 0.0212363 0.151191 -0.204586 0.314429 0.405092 -0.111014 0.404845 -0.586189 -0.0478641 -0.143113 -0.288269 0.730141 -0.432893 0.147931 -0.025584 -0.562419
internal_count=28456 26328 26079 2432 2364 23647 3209 20438 2128 249 68 17428 560 16868 1776 1134 642 1433 1174 1782 184 582 1402 3010 1402 186 726 97 1608 629
shrinkage=0.1


Tree=38
num_leaves=31
num_cat=0
split_feature=19 17 7 16 0 15 17 19 7 19 19 5 0 0 6 21 0 10 16 19 2 19 21 2 3 8 17 16 1 16
split_gain=9.92358 14.8338 18.4396 13.5214 15.2608 12.6008 18.494 15.2528 11.8341 11.1561 27.2304 34.2146 21.5007 22.8479 17.5347 15.2374 15.2145 16.5005 14.408 16.9009 16.8447 15.7615 16.0071 14.604 14.3376 14.6544 13.6379 13.1455 12.5234 12.6547
threshold=2515.5000000000005 248.50000000000003 3.7546870570983324 6.3815500000000016 1.566512699145701 23.130150000000004 309.50000000000006 2888.5000000000005 12.152079108234465 1609.5000000000002 1032.5000000000002 0.55353191207062413 0.93731671648815651 2.3289651471420942 0.58505432023555703 -1.0000000180025095e-35 1.4009645748018917 1.0251955864156053 7.2150500000000006 400.50000000000006 0.96610611205432939 516.50000000000011 0.095000000000000015 0.29736851851851864 0.13003159114589222 0.9661521616805665 34.500000000000007 5.0793500000000007 4.3857691082064703 5.7018500000000012
decision_type=2 2 2 2 2 2 2 2 2 2 2 2 2 2 2 2 2 2 2 2 2 2 2 2 2 2 2 2 2 2
left_child=9 -2 -3 5 -5 6 -4 -8 -7 10 18 15 -11 14 24 -12 26 -18 19 20 23 -21 -23 -1 25 -14 -16 -13 29 -17
right_child=1 2 3 4 -6 8 7 -9 -10 12 11 27 13 -15 16 28 17 -19 -20 21 -22 22 -24 -25 -26 -27 -28 -29 -30 -31
