tree
version=v2
num_class=1
num_tree_per_iteration=1
label_index=0
max_feature_idx=20
objective=binary sigmoid:1
feature_names=average_outer_amplitude average_turn_rate max_increase pb_height profit_growth sma10_120 sma120_250 sma50_120 variance volume_ratio business_growth pe pb mkt_cap new_high_days roe close_sma50 close_sma250 rps50 rps120 rps250
feature_infos=[0.99401981080555402:12.432883793964713] [0.011566007905138346:17.997476245210727] [6.8925233644859834:1492.3083922234691] [0:1] [-131623.6458211451:584817.11675126909] [0.89351743321043087:4.9813103349493826] [0.57018703108878155:1.5404130743788846] [0.76776576854711187:1.6451994433794117] [0.00013908387839385599:4696.0575534553773] [0.0051114115876934475:46.162814525740004] [-135.2970303976864:55224.790289460681] [-83678.699999999997:2909580] [-1041.79:15183.799999999999] [2:20955] [0:2892] [-197.759995:158.570007] [0.95813234802866964:9.5922184682688076] [1.0000759071167309:11.177346897194214] [85.001539882968899:99.96081504702191] [3.6206896551724101:99.957555178268294] [2.2178734507501603:99.969278033794211]
tree_sizes=2446 2484 2493 2495 2478 2485 2493 2496 2502 2498 2472 2503 2489 2503 2492 2501 2486 2500 2503 2490 2503 2490 2501 2506 2515 2499 2504 2498 2494 2504 2500 2499 2490 2516 2505 2497 2496 2505 2358 2508 2280 2499 2505 2417 2509 2497 2502 2499 2506 2506 2509 2497 2509 2495 2509 2484 2500 2511 2519 2108 2499 2502 2440 2515 1955 1817 2269 2523 1582 2275 2502 2272 1436 2028 2521 2495 2434 1511 1513 1350 1892 1190 2021 2194 2503 2425 1952 1352 2502 1580 1423 1876 2524 1574 2525 1949 2441 2511 2513 1418 1196 2505 1654 1511 1817 1734 1880 1274 2520 2360 1714 1510 1573 2510 1892 1268 2513 2049 1187 2507 969 1507 2040 2360 1646 1733 1970 2034 2114 2509 1820 2201 2377 2518 1713 1196 2370 1906 1119 1584 2426 1114 1660 2503 1656 2359 2503 2428 2432 2503

Tree=0
num_leaves=31
num_cat=0
split_feature=8 7 2 10 8 20 11 20 6 13 20 8 14 11 0 13 8 20 8 1 17 3 11 15 1 6 16 7 18 19
split_gain=347.667 178.295 81.3103 60.5605 42.278 50.3813 40.9569 36.0327 32.6698 31.1088 36.8222 22.5003 20.695 20.6306 20.2426 18.0382 17.6525 16.0413 15.4957 15.4664 13.9719 13.6351 13.5967 18.7068 13.3998 12.502 11.8954 13.8429 11.0564 9.98474
threshold=0.23865268783283602 1.126219689103886 28.747522435743701 -61.920142459597507 1.6425800873836802 30.722183889900904 45.927100000000003 43.502789296789295 1.0400397999835524 16.500000000000004 47.918818348144711 0.030834862640220798 613.00000000000011 39.270500000000006 3.0944701952358238 36.500000000000007 0.030834862640220798 69.151943663894613 0.7657836804585314 1.9844227091633473 1.4349956559775865 0.32086504100256952 -11.043649999999998 0.081000000000000016 2.5704925448126024 0.80027634048750695 1.1276360025944225 0.9873398563496304 93.135247115050163 61.015160009065006
decision_type=2 2 2 2 2 2 2 2 2 2 2 2 2 2 2 2 2 2 2 2 2 2 2 2 2 2 2 2 2 2
left_child=2 4 7 24 5 18 20 21 17 26 14 -12 -10 22 -11 -8 -9 -7 19 -2 28 -1 -6 -24 -4 -15 -5 -28 29 -3
right_child=1 6 3 9 13 8 15 16 12 10 11 -13 -14 25 -16 -17 -18 -19 -20 -21 -22 -23 23 -25 -26 -27 27 -29 -30 -31
leaf_value=-0.95419977228094943 -0.98909982900589821 -1.0122466387365028 -0.94578034557404833 -0.96140511237807802 -1.1093098059769733 -1.0829616598102587 -1.0233377817975506 -1.0320806995107124 -1.0650630877616414 -0.95645918435665545 -1.0019235047125663 -1.0553715005974802 -0.98000494379159597 -1.0532006173517525 -1.022168094393749 -1.0902273393494655 -1.0999238186579285 -1.1011015450698756 -1.0668550955601155 -1.0614772612428214 -1.0617310506988054 -1.0514102794887907 -1.0333223299454659 -1.0879234943912481 -1.0287711684474681 -1.1120183837919217 -1.0597651895159454 -0.99942417265316108 -1.0290798835980317 -0.955271588765366
leaf_count=37 107 56 147 77 300 1279 100 59 302 85 117 908 43 49 225 113 349 1287 142 61 34 39 97 555 31 1611 63 243 55 146
internal_value=0 -0.280793 0.74764 0.961894 -0.393913 -0.218022 1.02839 -0.0916687 -0.311657 0.829912 0.664552 0.455009 0.351188 -0.610813 1.3574 0.263945 -0.361843 -0.400777 0.661245 1.13283 1.58793 1.35874 -0.34157 -0.155586 2.23574 -0.765223 1.4063 1.20347 1.77078 2.01909
internal_count=8717 6337 2380 1896 5833 3221 504 484 2911 1718 1335 1025 345 2612 310 213 408 2566 310 168 291 76 952 652 178 1660 383 306 257 202
shrinkage=1


Tree=1
num_leaves=31
num_cat=0
split_feature=8 7 2 10 14 11 20 18 8 20 6 19 20 13 6 9 20 7 8 9 13 0 9 8 12 15 3 17 5 14
split_gain=310.016 159.391 70.6958 48.5654 40.211 34.4341 34.3225 30.7537 29.5091 28.972 32.6633 24.9589 19.8369 19.6671 19.5074 19.2997 19.1003 18.984 17.761 16.3457 15.9305 15.5887 14.7855 14.2271 13.4844 13.4735 12.8579 12.1975 12.7117 14.0987
threshold=0.23865268783283602 1.126219689103886 30.142789616555888 -24.451760145088407 274.50000000000006 45.927100000000003 43.502789296789295 88.427004437209021 0.030834862640220798 77.106682906942567 1.0735932183717336 54.654969100080805 44.001918771985956 136.50000000000003 0.80027634048750695 1.3338946086864034 79.438370632564514 0.9885977425640381 0.6016680031320617 0.7439421564485591 36.500000000000007 2.5232891043407224 0.3997516805111147 0.030834862640220798 3.8540000000000005 1.6065000000000003 0.39691078244274813 1.2440300111086258 1.2908713701830987 1.0000000180025095e-35
decision_type=2 2 2 2 2 2 2 2 2 2 2 2 2 2 2 2 2 2 2 2 2 2 2 2 2 2 2 2 2 2
left_child=2 4 6 19 7 27 26 11 -8 13 23 15 -6 21 16 -2 -9 -14 -13 -4 -7 -5 -16 -11 -21 -19 -1 28 -3 -30
right_child=1 5 3 9 12 20 8 14 -10 10 -12 18 17 -15 22 -17 -18 25 -20 24 -22 -23 -24 -25 -26 -27 -28 -29 29 -31
leaf_value=0.095774323399607217 0.050131524885421046 0.026148284079480128 0.15093441735094326 0.11059543758148649 0.078677469792175048 0.04515124717302111 0.055100288686220189 -0.024024910001252522 -0.026604184782253282 0.065468488422190149 0.11632589797924736 0.00083740047025983885 0.040858856811165432 -0.0063548233493186182 0.036115814658910228 -0.0036115953409165133 0.072072902213308629 0.026848377196075912 -0.024131749309184221 0.085356463614151348 -0.017456163781024815 0.047500895033945799 -0.031234634293943936 -0.0056810996524186887 0.021682841640763492 -0.03542148548441524 0.0054505540427965465 0.0428601900532114 0.044987283466252144 0.12441272116565966
leaf_count=55 138 32 40 53 57 100 67 61 391 40 35 539 127 84 44 246 49 68 1261 250 113 933 3100 349 51 143 32 110 38 111
internal_value=0 -0.268946 0.696863 0.908031 -0.378129 0.952139 -0.0304204 -0.429911 -0.286326 0.730081 0.225672 -0.218537 0.329494 0.928538 -0.572192 0.313549 0.376608 0.116404 -0.332556 1.67306 0.248848 1.01824 -0.605832 0.0354139 1.49262 -0.307633 1.26443 1.45111 1.80891 2.08487
internal_count=8717 6337 2380 1835 5833 504 545 5438 458 1494 424 2184 395 1070 3254 384 110 338 1800 341 213 986 3144 389 301 211 87 291 181 149
shrinkage=0.05


Tree=2
num_leaves=31
num_cat=0
split_feature=8 7 2 10 8 20 17 11 9 20 20 6 11 17 8 15 13 3 13 1 7 11 15 11 0 17 20 6 16 6
split_gain=276.959 142.812 61.9052 42.9714 38.6469 44.3208 29.4194 29.2435 29.1922 28.2708 27.5964 28.5021 19.5739 18.19 16.7327 16.5171 16.0274 14.3414 14.2099 13.629 17.5356 12.79 16.2821 12.0886 11.8481 11.6801 11.4602 11.2201 10.7998 10.0881
threshold=0.23865268783283602 1.126219689103886 28.747522435743701 -24.451760145088407 1.6425800873836802 30.722183889900904 1.111939015704227 45.927100000000003 0.5338983394641309 43.502789296789295 77.106682906942567 1.0735932183717336 39.270500000000006 1.0786254988259312 0.026614754966073604 13.845000000000001 53.500000000000007 0.47605942029758136 23.500000000000004 2.9306839005602252 0.9873398563496304 -11.043649999999998 0.081000000000000016 8.3458000000000023 4.5648365876790535 1.1713435054086159 68.355478957578015 0.80027634048750695 1.4039139356853731 1.0322524838591949
decision_type=2 2 2 2 2 2 2 2 2 2 2 2 2 2 2 2 2 2 2 2 2 2 2 2 2 2 2 2 2 2
left_child=2 4 9 19 5 17 26 28 -8 -1 13 14 21 -5 -12 -11 -15 24 -9 20 -4 -6 -23 -22 -2 -19 -7 -14 -3 -29
right_child=1 7 3 10 12 6 8 18 -10 15 11 -13 27 16 -16 -17 -18 25 -20 -21 23 22 -24 -25 -26 -27 -28 29 -30 -31
leaf_value=0.057661765645255297 0.072665542710351555 0.074528333375691688 0.026889794688327407 0.0049638142661903037 -0.035413282929943973 -0.014894399285697486 0.084688708849206207 0.055154128810942928 -0.0058755787758971939 -0.023717356438552741 0.077455899504598136 0.1047182471731166 0.017379869809620408 0.05694860247690299 -0.0065602007972483424 0.06118429597190439 0.024393977380949908 -0.021648154089669677 -0.0082413675612980023 0.01605079064568082 0.053862000488728946 0.03647717254555867 -0.014203834033748038 0.1103416379430763 -0.0020419448116102226 0.041473850154095389 -0.03578254842956665 -0.042239837363897449 0.0085841884083352731 -0.017717676180974872
leaf_count=76 120 256 54 141 300 650 48 65 1444 375 32 35 49 707 372 33 263 86 148 41 61 97 555 190 36 68 769 1337 35 274
internal_value=0 -0.257588 0.651038 0.830588 -0.362899 -0.194213 -0.283957 0.884695 -0.0579465 -0.086314 0.667746 0.183778 -0.573674 0.854574 0.00828208 -0.335397 0.963943 0.623752 0.234838 1.53236 1.69122 -0.309428 -0.128665 1.93405 1.11079 0.130467 -0.523205 -0.726973 1.33374 -0.761118
internal_count=8717 6337 2380 1896 5833 3221 2911 504 1492 484 1550 439 2612 1111 404 408 970 310 213 346 305 952 652 251 156 154 1419 1660 291 1611
shrinkage=0.05


Tree=3
num_leaves=31
num_cat=0
split_feature=8 5 17 10 6 9 8 20 6 20 7 0 1 16 20 4 1 8 3 3 11 2 15 14 18 18 9 17 13 0
split_gain=250.746 132.321 66.005 39.8168 38.7484 30.5829 29.6159 42.7112 26.9662 25.141 21.6606 27.1243 20.8597 21.9039 20.4398 22.5916 20.2675 15.1789 15.068 13.9371 13.4293 13.0486 12.8135 12.6996 12.13 11.9135 11.3894 16.1713 11.2326 10.9301
threshold=0.31866650000000013 1.2666204347634316 1.0842993230331759 -61.920142459597507 0.91360972787179584 3.0794106502251712 1.6425800873836802 31.905872113701054 1.0148008955019137 76.89410471060431 1.1525193617822089 4.2133413675463993 4.5213214779344213 1.3733273430391066 57.74012358617356 -79.871411243067698 0.85234285155350975 0.7657836804585314 0.2624467951927893 0.059114117518622104 21.480150000000005 98.980594962923348 4.6150000000000011 613.00000000000011 93.241518831694819 90.111705951907012 1.7575160811234463 1.0885940256704922 26.500000000000004 2.7060818013983603
decision_type=2 2 2 2 2 2 2 2 2 2 2 2 2 2 2 2 2 2 2 2 2 2 2 2 2 2 2 2 2 2
left_child=2 6 14 -4 12 10 7 17 21 22 11 -5 13 24 15 -1 29 -2 -17 -16 -6 -9 -7 -10 -3 -11 27 -18 -21 -8
right_child=1 4 3 5 20 9 16 8 23 25 -12 -13 -14 -15 19 18 26 -19 -20 28 -22 -23 -24 -25 -26 -27 -28 -29 -30 -31
leaf_value=0.085103342135299118 0.053476523488338451 0.085488239462702093 0.086638386922464228 0.055765889989661067 0.047359164568055473 0.037661409849521162 0.059238519148527249 -0.025120058694370992 -0.0005420188231821506 0.015106751264973187 0.12467648617136269 0.018092202271303953 -0.018386620015224064 0.020085775352440886 0.057492545169107415 0.045887058619081184 -0.036888254179280842 0.0023635163996156838 -0.018742309677300669 0.010732132087211754 -0.029065704821274102 0.04905318655678257 -0.0041622800193025656 0.058110195928481691 0.024056983122397433 -0.036351463607946895 -0.040538910932243641 -0.0081064373610779672 -0.028615423605125326 -0.0079566112778025853
leaf_count=60 150 238 176 649 38 433 41 1859 493 99 40 383 50 131 34 74 599 149 119 128 138 32 117 52 48 141 1216 484 382 164
internal_value=0 -0.279731 0.54342 0.753159 0.677126 0.653406 -0.406196 -0.240638 -0.344423 0.318092 0.90004 0.836246 1.00606 1.16741 -0.0191802 0.504889 -0.591411 0.566334 0.127096 -0.275935 -0.245698 -0.476778 0.577577 0.106474 1.50709 -0.300103 -0.654721 -0.480187 -0.371812 0.110851
internal_count=8717 5882 2835 2038 643 1862 5239 2735 2436 790 1072 1032 467 417 797 253 2504 299 193 544 176 1891 550 545 286 240 2299 1083 510 205
shrinkage=0.05


Tree=4
num_leaves=31
num_cat=0
split_feature=8 5 2 1 8 7 19 1 20 20 6 4 0 17 2 19 8 19 9 8 16 9 17 9 3 9 6 13 2 9
split_gain=225.161 120.671 58.6664 45.2188 43.2047 32.2982 32.9426 30.5697 29.6474 25.888 24.2313 23.3191 22.0131 20.6066 20.1036 19.1778 18.4783 25.6295 18.1721 17.4516 17.0837 16.111 14.0374 13.0941 12.8703 12.406 12.3105 11.2731 11.0217 10.2978
threshold=0.31866650000000013 1.2288414394856975 28.747522435743701 4.1557229083665339 0.088609102854320818 1.1166534693433079 86.207458709510561 1.355000597609562 39.629758156683657 34.230429312920855 1.0359532625109553 28.57633252335118 3.9047800348247788 1.2440300111086258 77.845962548900175 54.115107060013507 1.6425800873836802 30.930889229818852 1.1530485992913753 0.030834862640220798 1.4390278155057044 0.5338983394641309 1.1739569645294858 2.7168000888652268 0.46455088495575231 1.3688659791505753 1.0535339316636811 23.500000000000004 93.696134615767591 2.1724859336270819
decision_type=2 2 2 2 2 2 2 2 2 2 2 2 2 2 2 2 2 2 2 2 2 2 2 2 2 2 2 2 2 2
left_child=2 7 9 13 11 6 21 8 -2 -1 16 12 23 14 -3 18 17 -9 -10 -11 -16 -6 -17 -4 -13 -12 -8 -5 -27 -26
right_child=1 3 4 27 5 -7 26 10 15 19 25 24 -14 -15 20 22 -18 -19 -20 -21 -22 -23 -24 -25 29 28 -28 -29 -30 -31
leaf_value=0.075495040228746882 0.032299063490970829 -0.019969470617565807 0.096355838809080219 0.032206557076218147 0.097810071517696107 0.096185725842979769 -0.02163358316664803 0.055950251062322889 0.10731732379558862 0.03809418171081131 0.028268718759397349 0.054640968582972287 0.037162492589144232 0.015882707551331084 0.077657672117502949 -0.023633395148694364 -0.038584982888622499 -0.023604285489499235 -7.2994220827647319e-05 -0.02414042908494525 0.0093522474937779813 0.023941746117000715 0.01237146854075032 0.057916729117215959 0.033276748490089922 0.0005256645490857091 0.050144100064675984 -0.039842977196234641 -0.038629905794192641 -0.031560568192271855
leaf_count=40 226 40 203 34 37 64 301 55 32 65 126 73 285 246 269 899 1650 1443 62 450 56 940 176 220 52 279 33 139 150 72
internal_value=0 -0.26814 0.510069 0.546849 0.663423 0.409731 0.331685 -0.404619 -0.110483 -0.166257 -0.516461 1.03277 1.21592 0.825594 1.156 -0.263577 -0.597173 -0.411451 0.742454 -0.313984 1.32974 0.537041 -0.353111 1.53097 0.354615 -0.0705464 -0.285443 -0.4956 -0.25961 -0.0820933
internal_count=8717 5882 2835 784 2280 1375 1311 5098 1395 555 3703 905 708 611 365 1169 3148 1498 94 515 325 977 1075 423 197 555 334 173 429 124
shrinkage=0.05


Tree=5
num_leaves=31
num_cat=0
split_feature=8 5 17 1 8 1 20 9 7 19 6 17 20 2 13 3 0 8 20 16 6 18 0 18 10 8 1 13 2 8
split_gain=202.409 109.363 52.8114 40.313 32.6787 28.3571 26.5914 25.5338 24.8702 25.9077 22.5811 22.4652 18.8823 18.8754 18.1357 21.111 17.7816 17.5435 24.2423 17.4024 17.3183 18.5159 14.9372 14.7409 13.2237 12.1708 11.9648 11.6349 11.2918 11.246
threshold=0.31866650000000013 1.2288414394856975 1.0842993230331759 4.5213214779344213 0.11799402270973827 1.355000597609562 39.629758156683657 1.5544637907809917 1.1525193617822089 79.433808976621862 1.0359532625109553 1.2440300111086258 30.154497252151554 79.540623671289779 27.500000000000004 0.059114117518622104 3.1921908410775846 1.6425800873836802 30.722183889900904 1.3733273430391066 1.0173298161448212 90.220698379860409 5.1880152564758903 96.71878944129152 -6.2168379995063043 0.018865191864592037 2.4949102837879269 18.500000000000004 36.188237554915197 7.4240254902097744
decision_type=2 2 2 2 2 2 2 2 2 2 2 2 2 2 2 2 2 2 2 2 2 2 2 2 2 2 2 2 2 2
left_child=2 5 14 11 7 6 -2 22 9 12 17 13 -6 -3 16 -16 -1 18 -7 -15 -8 -22 28 25 -18 -9 -13 -11 -4 -12
right_child=1 3 4 -5 8 10 20 23 -10 27 29 26 -14 19 15 -17 24 -19 -20 -21 21 -23 -24 -25 -26 -27 -28 -29 -30 -31
leaf_value=0.078967403945798154 0.030202874299698701 -0.015298970645673685 0.028835644046863441 -0.030697298401042763 0.09301412266511383 0.022349226177499265 -0.019150752009870053 0.068686370827435519 0.10369774699973688 0.043423872114419136 0.0044035372697855983 0.034798045482686217 0.023581725263158503 0.077404206875635664 0.063765966872356986 -0.01940081613764762 0.056323252319551556 -0.037451497211379782 -0.025029515699959634 0.020642523706161736 0.04356602679919936 -0.032407215554814323 0.0090996874422680785 -0.025398284692711118 -0.011673740218694644 0.033291776105069164 -0.013142483688347639 -0.013870752614074389 0.095601381394770313 -0.038507863949729729
leaf_count=56 226 47 36 142 52 156 972 138 37 50 451 135 465 240 42 516 49 1650 1342 91 132 65 35 46 134 624 129 365 190 104
internal_value=0 -0.257028 0.479462 0.513711 0.662588 -0.388849 -0.105509 0.922223 0.362302 0.287543 -0.497728 0.741105 0.616633 1.07826 -0.0254459 -0.25673 0.490356 -0.576733 -0.395251 1.25149 -0.252376 0.374683 1.50629 0.727742 0.143408 0.79848 0.231812 -0.135202 1.70716 -0.0673009
internal_count=8717 5882 2835 784 2038 5098 1395 1069 969 932 3703 642 517 378 797 558 239 3148 1498 331 1169 197 261 808 183 762 264 415 226 555
shrinkage=0.05


Tree=6
num_leaves=31
num_cat=0
split_feature=8 5 2 1 8 1 20 20 7 20 6 17 10 0 18 8 19 2 19 8 16 9 6 6 11 9 3 20 1 2
split_gain=182.116 99.1738 47.9357 35.9672 33.0376 26.2987 23.9506 22.292 21.266 26.2082 21.0431 19.5497 17.2848 21.1902 17.7234 16.6442 22.6869 16.4014 15.7485 15.069 14.8651 14.4214 12.8321 12.0931 11.9392 11.2403 10.8536 10.7013 10.3138 9.93808
threshold=0.31866650000000013 1.2288414394856975 28.747522435743701 4.5213214779344213 0.11799402270973827 1.355000597609562 44.001918771985956 34.230429312920855 1.126219689103886 68.818484296935921 1.0359532625109553 1.2440300111086258 -61.920142459597507 2.7060818013983603 93.810472631859412 1.6425800873836802 29.086498241726055 79.540623671289779 54.115107060013507 0.030834862640220798 1.3733273430391066 1.1971395322948324 1.0376526751601907 0.9589504565927981 1.0000000180025095e-35 1.3688659791505753 0.95941101694915265 20.304856968422005 2.4949102837879269 93.696134615767591
decision_type=2 2 2 2 2 2 2 2 2 2 2 2 2 2 2 2 2 2 2 2 2 2 2 2 2 2 2 2 2 2
left_child=2 5 7 11 12 6 -2 -1 9 27 15 17 24 -14 -15 16 -7 -3 21 -9 -19 -8 -20 -11 -4 -12 28 -6 -13 -27
right_child=1 3 4 -5 8 10 18 19 -10 23 25 26 13 14 -16 -17 -18 20 22 -21 -22 -23 -24 -25 -26 29 -28 -29 -30 -31
leaf_value=0.068131291938558103 0.025519204885570995 -0.01464936031255148 0.018951247611920109 -0.029631531350560195 0.083592598472551113 0.058999419894281202 0.094794791118970101 0.03403848707956296 0.082601085346808434 -0.032571100998989425 0.026826721990582742 0.04451136288793827 0.085628474750528039 0.037316298781887657 -0.010051012455650262 -0.036346910137908091 -0.021672642865529338 0.071536514678445115 -0.021296864477751559 -0.023202408381605186 0.019430946665493477 -0.0012755024812724797 0.022588158247415599 0.0052237880067243451 0.090740735946576279 0.0003885558581991784 -0.036488314302476864 0.023715467853994258 -0.0048814821956470909 -0.037115133936279264
leaf_count=40 264 47 33 142 37 46 31 65 51 166 126 113 93 771 111 1650 1452 240 942 450 91 59 99 327 116 279 52 575 99 150
internal_value=0 -0.246371 0.451237 0.483405 0.586699 -0.373621 -0.100718 -0.163034 0.317461 0.248737 -0.479591 0.694204 0.846676 0.737312 0.631793 -0.556916 -0.37965 1.00446 -0.254806 -0.303412 1.16204 0.668649 -0.338761 -0.144672 1.50486 -0.0641338 0.218974 0.550844 0.437411 -0.246194
internal_count=8717 5882 2835 784 2280 5098 1395 555 1156 1105 3703 642 1124 975 882 3148 1498 378 1131 515 331 90 1041 493 149 555 264 612 212 429
shrinkage=0.05


Tree=7
num_leaves=31
num_cat=0
split_feature=8 5 2 15 10 9 1 8 18 20 6 1 20 8 2 19 16 9 16 9 17 20 5 20 14 12 8 10 9 17
split_gain=164.038 89.9842 42.8372 32.7933 28.6555 24.8158 24.3693 24.0688 23.0378 21.6478 19.6434 19.2878 18.4997 17.0303 16.3925 15.3672 14.867 14.4081 17.4357 13.1575 12.3875 11.1158 10.9087 10.7792 10.3754 10.3266 9.88039 12.1589 9.3464 11.8955
threshold=0.31866650000000013 1.2288414394856975 30.142789616555888 1.0000000180025095e-35 -61.920142459597507 0.35906417472977536 1.355000597609562 0.03341246364340001 93.810472631859412 39.629758156683657 1.0106916717127599 2.2215459932920556 33.789810623309158 0.12191189723793282 92.036998774090861 54.115107060013507 1.3126208545386533 1.5995507892674719 1.3126208545386533 1.1530485992913753 1.1739569645294858 67.199105253399168 1.3474010043382558 62.432290215742761 1.5000000000000002 4.3702000000000014 0.7657836804585314 6.3069477841737696 2.7391576102806829 1.1170241284559264
decision_type=2 2 2 2 2 2 2 2 2 2 2 2 2 2 2 2 2 2 2 2 2 2 2 2 2 2 2 2 2 2
left_child=2 6 7 16 -4 -6 9 -1 13 26 17 21 -9 -7 -10 19 24 18 -8 -11 -17 -5 -18 -24 -3 -26 -2 -28 29 -12
right_child=1 3 4 11 5 8 10 12 14 15 28 -13 -14 -15 -16 20 22 -19 -20 -21 -22 -23 23 -25 25 -27 27 -29 -30 -31
leaf_value=0.048480634275134563 0.054952323271907723 0.026885034707049289 0.067177103610365371 0.073603149558374242 0.10278149885601891 0.037865831240850252 -0.020300951354387087 0.053570862554428146 -0.017415562565722041 0.08888494412083435 -0.044699190947848438 -0.026902011909074697 -0.021945232854413705 0.015881192452596275 0.059886987256958339 -0.021519512106193486 0.054734872729332473 -0.034925965251769893 0.058960274474569252 4.8321457114548206e-05 0.012399237255410124 -0.0086187743344271241 0.039762214261218176 -0.017528850090751436 0.094360220441461501 0.038198761456657626 -0.023472196981449218 0.044475359387288589 -0.023582225249821578 0.0078942603229328976
leaf_count=83 89 83 184 45 44 833 1048 40 260 32 69 213 500 853 38 899 78 1736 40 62 176 37 63 104 100 61 75 62 329 481
internal_value=0 -0.236173 0.425266 0.45565 0.561956 0.482786 -0.358939 -0.114771 0.445265 -0.0961704 -0.462006 -0.158493 -0.304131 0.541526 -0.137458 -0.231732 0.790063 -0.561784 -0.345342 0.653069 -0.314988 0.744252 0.40096 0.0887233 1.15965 1.47429 0.533761 0.144423 -0.157394 0.0291143
internal_count=8717 5882 2835 784 2212 2028 5098 623 1984 1395 3703 295 540 1686 298 1169 489 2824 1088 94 1075 82 245 167 244 161 226 137 879 550
shrinkage=0.05


Tree=8
num_leaves=31
num_cat=0
split_feature=8 5 17 1 9 8 20 6 8 1 4 17 18 15 7 3 13 14 0 2 9 9 3 8 17 16 20 13 0 6
split_gain=147.848 81.6342 38.2119 30.2185 29.3249 23.2542 30.3188 22.3374 18.2396 17.2434 16.6749 16.1343 16.1214 16.3935 14.7925 14.7519 16.6763 14.693 14.4294 13.8037 12.4437 12.3565 12.1004 15.6542 12.4256 11.732 10.7253 9.95325 13.2062 9.7892
threshold=0.31866650000000013 1.2288414394856975 1.0842993230331759 4.5213214779344213 3.0794106502251712 1.6425800873836802 31.905872113701054 1.0148008955019137 0.078348031957709605 0.85234285155350975 -126.94276602480704 1.2440300111086258 88.813858181001962 4.5550000000000006 1.1655427163251872 0.20903141091658087 80.500000000000014 392.50000000000006 4.7018900337089047 77.845962548900175 0.78824975055545632 2.5882762035854738 0.49764628439301256 0.43796187030150485 1.0988663989313203 1.4390278155057044 52.458603721000763 27.500000000000004 3.2071456732674539 1.0348777517490919
decision_type=2 2 2 2 2 2 2 2 2 2 2 2 2 2 2 2 2 2 2 2 2 2 2 2 2 2 2 2 2 2
left_child=2 5 10 11 8 6 22 26 18 -7 -1 19 -6 17 21 16 -12 -14 -4 -3 -9 -10 23 -2 -24 -21 -8 28 -17 -11
right_child=1 3 4 -5 12 9 7 20 14 29 15 -13 13 -15 -16 27 -18 -19 -20 25 -22 -23 24 -25 -26 -27 -28 -29 -30 -31
leaf_value=0.051382907923268696 0.10817707116546293 -0.019807260448835066 0.064132349962990262 -0.028465945070098159 0.027211666328108997 0.006404424069561006 -0.0041107062553830832 0.071900628349772108 0.017446132049431507 -0.032677198917774514 0.053681290865794443 0.0093493027348122842 0.00057014483293806148 -0.038410076393641197 0.096780738592230478 0.066836913899112657 -0.011761697409376949 0.070050234031019162 0.018592321825573715 0.059645396738538164 0.001491489403086685 0.057114562441551858 -0.046119267592847381 0.025342904326874218 0.025051352298345153 0.0046679982514500513 -0.025739942230176168 -0.028555145874254041 -0.010706027017862302 -0.0098143499192369921
leaf_count=68 36 41 365 142 407 204 416 34 585 1899 93 264 273 120 31 33 109 42 101 280 502 114 51 118 86 57 1444 352 142 308
internal_value=0 -0.226347 0.401128 0.429504 0.552603 -0.344736 -0.196211 -0.288631 0.768347 -0.520536 -0.0307219 0.617692 0.238298 -0.0610695 0.547373 -0.134586 0.386078 0.199512 1.09023 0.894605 0.124517 0.477295 0.483344 0.905891 -0.0121536 1.02449 -0.415859 -0.339699 0.0943525 -0.585717
internal_count=8717 5882 2835 784 2038 5098 2687 2396 1196 2411 797 642 842 435 730 729 202 315 466 378 536 699 291 154 137 337 1860 527 175 2207
shrinkage=0.05


Tree=9
num_leaves=31
num_cat=0
split_feature=8 5 13 17 1 9 18 19 19 19 0 9 15 8 9 15 14 9 15 10 15 11 11 15 1 6 20 20 4 16
split_gain=133.277 74.1238 35.8163 32.3878 27.2198 24.1692 22.6405 23.0565 21.3383 20.8501 19.0725 16.8563 14.5191 13.8772 18.2071 13.0762 12.8909 12.5718 12.6462 12.2427 12.0893 13.3396 11.4182 11.0008 10.9532 13.5777 12.4968 10.0756 9.98736 11.9076
threshold=0.31866650000000013 1.2288414394856975 15.500000000000002 1.1232040304936401 4.1557229083665339 0.98838471282608364 87.751213737735725 54.654969100080805 74.879553826922262 86.207458709510561 4.1738246026753103 0.3997516805111147 12.065000000000003 0.91226322784928027 3.453280537541275 4.8546500000000004 308.50000000000006 1.3338946086864034 5.7150000000000007 -16.015221353107389 1.4943000000000002 9.8545500000000015 17.490500000000004 0.24300000000000002 1.2392030253033666 1.0173298161448212 35.177240710010004 46.483353404844856 131.74331490887184 1.2671160486839221
decision_type=2 2 2 2 2 2 2 2 2 2 2 2 2 2 2 2 2 2 2 2 2 2 2 2 2 2 2 2 2 2
left_child=2 6 15 8 23 -5 7 17 19 10 -7 -8 -10 14 -9 16 20 18 -2 -4 21 -1 -15 28 26 -26 -13 -25 29 -3
right_child=1 4 3 5 -6 9 11 13 12 -11 -12 24 -14 22 -16 -17 -18 -19 -20 -21 -22 -23 -24 27 25 -27 -28 -29 -30 -31
leaf_value=0.027714865485275537 0.027270399533944906 0.059823320947957573 0.057620684001267387 0.064877762520048537 -0.021609705383129479 0.037075946636165161 0.041750917871138653 0.010381538198541037 -0.023504918984255867 -0.0071517851748794216 0.00094193343317935008 0.030016234393523956 0.044806162331851113 0.010373454675028577 -0.047057607602078493 0.094079177593126118 -0.013758549435252426 0.0053629312371986501 0.11100855555339371 0.0073221565693844196 0.0046920117906631368 0.071370778831633355 -0.028240861241638548 0.043615542393587781 -0.032089167732611369 -0.010695563589857987 -0.016735080502399659 -0.011717680720382267 0.082884292541413218 0.01962414239384384
leaf_count=132 74 124 66 144 173 614 53 497 514 289 238 80 45 131 91 53 47 204 33 430 73 190 723 60 2037 531 644 123 52 252
internal_value=0 -0.216926 0.378489 0.259938 0.405657 0.484619 -0.331054 -0.113123 -0.041887 0.376028 0.542342 -0.448897 -0.35886 -0.243948 0.0311098 0.892516 0.77249 0.456493 1.07943 0.288417 0.897753 1.06915 -0.444464 0.606685 -0.471842 -0.547973 -0.215905 0.142184 0.788393 0.66576
internal_count=8717 5882 2835 2340 784 1285 5098 1753 1055 1141 852 3345 559 1442 588 495 442 311 107 496 395 322 854 611 3292 2568 724 183 428 376
shrinkage=0.05


Tree=10
num_leaves=31
num_cat=0
split_feature=8 7 8 20 6 2 15 20 5 20 1 11 19 9 16 18 11 8 2 11 7 0 1 1 17 19 13 13 6 12
split_gain=121.41 73.6479 44.1712 41.7835 24.9866 20.1784 19.7238 17.9554 19.4426 17.802 17.2875 18.7405 17.2661 16.7948 16.9217 19.6928 14.9133 13.9175 14.6787 12.9643 12.8395 12.4116 12.3366 12.1981 15.8392 10.4823 10.3183 10.1659 8.66614 9.46049
threshold=0.12191189723793282 1.1166534693433079 0.7657836804585314 30.154497252151554 1.0400397999835524 84.998805293178734 0.48500000000000004 47.918818348144711 1.1832917912102217 69.151943663894613 2.7404862745098044 11.91905 67.603202160133407 1.6644142749308026 1.1760736994065117 86.71978985885552 46.578450000000011 0.030834862640220798 34.191705609842622 26.742550000000005 1.0613555305995428 2.6374212009156932 1.5297016543058555 1.9844227091633473 1.0945277452207869 72.771705575310918 16.500000000000004 17.500000000000004 0.95712462995414782 2.1561000000000008
decision_type=2 2 2 2 2 2 2 2 2 2 2 2 2 2 2 2 2 2 2 2 2 2 2 2 2 2 2 2 2 2
left_child=6 2 3 23 9 -3 10 28 17 -5 11 20 -6 14 21 -16 -7 -9 -19 -13 25 -4 -15 -2 -25 -1 -12 -18 -8 -30
right_child=1 5 13 4 12 16 7 8 -10 -11 26 19 -14 22 15 -17 27 18 -20 -21 -22 -23 -24 24 -26 -27 -28 -29 29 -31
leaf_value=0.06374720405785432 0.06355663531758779 -0.031627950101758583 0.024067191865293311 0.0010577834712654172 0.073388965993268426 0.049744777546036706 0.015619491748173536 0.033083240421991164 0.072767560149886723 -0.019133464160344733 0.036090789399315495 0.10459796200140606 0.01054018680546465 -0.011412307130925094 0.04919058755758416 -0.0052295716662880331 0.051709721375328525 -0.027534153363811233 0.010825421013340324 0.054348697369055593 -0.029342701034285674 -0.024139493143703825 -0.032517266814409099 -0.039604879339463689 0.054377113627532517 0.009175624102060442 -0.034234797865986773 -0.0025939917170626379 0.10312631397237385 0.037446582569163889
leaf_count=87 138 65 83 1205 72 319 53 150 50 1168 47 77 221 545 110 526 53 220 302 194 37 970 1562 41 47 72 48 157 47 51
internal_value=0 -0.135209 -0.212654 -0.00285598 -0.089477 0.587532 0.55987 0.35036 0.202511 -0.171237 0.862949 1.02661 0.527089 -0.389814 -0.212536 0.0894637 0.717402 0.0991217 -0.0793059 1.38045 0.527372 -0.404349 -0.536846 0.883704 0.233577 0.789244 0.0309706 0.25046 1.0116 1.38089
internal_count=8717 7282 6688 2892 2666 594 1435 873 722 2373 562 467 293 3796 1689 636 529 672 522 271 196 1053 2107 226 88 159 95 210 151 98
shrinkage=0.05


Tree=11
num_leaves=31
num_cat=0
split_feature=8 6 2 18 16 9 10 9 3 18 20 20 4 2 8 13 9 16 15 14 11 13 11 8 14 1 11 8 7 3
split_gain=110.377 63.2205 30.7586 27.3775 23.2421 21.4676 21.1721 20.4422 19.2919 19.1233 15.8441 15.1406 15.127 13.6095 13.6076 13.4217 13.2672 10.7084 10.6716 10.1236 10.006 9.5339 9.07772 9.04677 8.71317 7.32534 6.90394 6.66093 6.16693 6.04353
threshold=0.31866650000000013 0.79069510798004328 28.747522435743701 88.559252180813317 1.180382964908669 1.5190517220451372 -61.920142459597507 0.35906417472977536 0.49352419354838711 93.810472631859412 34.230429312920855 28.797397866563102 -7.3187493317949004 92.036998774090861 0.015964471823348002 18.500000000000004 0.2490116467023806 1.4390278155057044 13.595000000000001 663.50000000000011 58.991199999999999 61.500000000000007 27.061850000000003 3.0752510578938472 254.50000000000003 2.5704925448126024 38.126250000000006 1.3910718629379202 1.1525193617822089 0.068071054164239961
decision_type=2 2 2 2 2 2 2 2 2 2 2 2 2 2 2 2 2 2 2 2 2 2 2 2 2 2 2 2 2 2
left_child=2 17 10 4 8 12 25 -8 11 14 -1 -3 -6 -11 -9 -10 -5 23 21 -7 24 22 -12 26 -18 -4 -2 -22 -25 -23
right_child=1 3 6 16 5 19 7 9 15 13 18 -13 -14 -15 -16 -17 20 -19 -20 -21 27 29 -24 28 -26 -27 -28 -29 -30 -31
leaf_value=0.054428448881968051 0.081282589301334973 0.04884759221349564 0.064088357735202037 0.04266733422838237 0.0064676430260068212 -0.0072457652578646926 0.087615081486184437 0.058321170340296484 0.033732547234038887 -0.018538319346494119 0.030745911143649621 -0.0041674266984335498 0.06273725505311481 0.050499727577880807 0.019034379405273298 -0.027847240374235607 -0.018405353082067168 -0.0028745959111924407 0.042776545622813592 0.044288969670179548 -0.01842206764108149 0.013141612176774734 -0.020140109545014342 -0.0076658074848265957 0.015573346993877754 0.0094808860349644419 0.031112693076343647 -0.036942114864058198 0.04156371365598515 -0.039946985109297201
leaf_count=40 83 78 154 42 106 472 45 101 52 268 78 590 147 38 1642 844 1775 74 39 57 439 32 121 48 110 32 47 841 77 245
internal_value=0 -0.200563 0.341218 -0.268946 -0.0758992 0.248177 0.445514 0.379688 -0.248539 0.346244 -0.156395 0.0570458 0.785163 -0.17921 0.429962 -0.481463 -0.417283 0.698049 -0.280323 -0.0287084 -0.436596 -0.380918 0.0070792 0.892855 -0.325575 1.10196 1.27282 -0.605837 0.481224 -0.667312
internal_count=8717 5882 2835 5553 2346 782 2280 2094 1564 2049 555 668 253 306 1743 896 3207 329 515 529 3165 476 199 255 1885 186 130 1280 125 277
shrinkage=0.05


Tree=12
num_leaves=31
num_cat=0
split_feature=8 7 8 20 6 13 2 20 1 5 20 19 6 9 20 0 11 10 12 3 1 17 11 6 2 17 6 14 0 20
split_gain=99.9921 62.2927 37.7759 35.9435 22.1161 17.4121 17.0868 15.8207 15.6537 16.0994 18.9929 14.634 14.6014 14.2168 13.8951 12.8312 12.4839 11.918 11.8426 11.1638 10.3532 14.1151 10.1079 9.94904 9.90918 9.46119 8.26604 10.4926 8.19244 7.68924
threshold=0.12191189723793282 1.1166534693433079 0.7657836804585314 30.154497252151554 1.0400397999835524 175.50000000000003 84.998805293178734 69.151943663894613 3.9187106843215367 1.2288414394856975 90.508978721146107 67.603202160133407 1.0762995340108497 2.0134420615775492 77.106682906942567 5.7176403604569712 62.196450000000006 -43.50046538772483 2.7291500000000002 0.096179170315591464 1.9844227091633473 1.0945277452207869 45.927100000000003 1.0376526751601907 26.864207974405705 1.4795550686999344 1.0460078233974843 58.500000000000007 2.7572612372792373 74.070017232371924
decision_type=2 2 2 2 2 2 2 2 2 2 2 2 2 2 2 2 2 2 2 2 2 2 2 2 2 2 2 2 2 2
left_child=5 2 3 20 7 13 -3 -5 9 12 -11 -6 -4 15 28 18 25 -16 -1 -7 -2 -22 -20 -19 -21 -8 -10 -28 -15 -30
right_child=1 6 8 4 11 19 16 -9 26 10 -12 -13 -14 14 17 -17 -18 23 22 24 21 -23 -24 -25 -26 -27 27 -29 29 -31
leaf_value=0.05969965521089779 0.058053254251903268 -0.030066963851602835 -0.018596622437211743 0.00090085335357376344 0.067023133135165822 0.048360790569407869 0.048253892537465475 -0.018201843371882555 -0.038634691711116068 -0.00023631688648912595 0.089930181188380545 0.009883329439358185 0.021416087736227253 0.062738897261966867 0.043405445699698321 -0.0168761950167708 0.0046914152609800891 -0.030635170128388085 0.042130246539118406 -0.061934680421039681 -0.03864112985018945 0.049995589073907082 -0.01053326580061947 0.02786242904767823 0.0031376515163396832 -0.003084059973673029 0.03668787717603586 -0.030189595315025915 0.01939876052174995 0.068332203543462186
leaf_count=299 138 65 2612 1205 72 31 332 1168 722 143 35 221 134 69 46 39 147 143 138 60 41 47 61 45 58 50 51 99 407 39
internal_value=0 -0.124704 -0.197043 -0.00360147 -0.0849276 0.503925 0.536391 -0.16271 -0.363369 -0.278947 0.369541 0.491215 -0.329576 0.580112 0.389529 0.84252 0.653289 -0.0546042 0.933434 -0.223843 0.810626 0.211279 0.524137 -0.316398 -0.5388 0.844822 -0.657086 -0.149773 0.579513 0.474325
internal_count=8717 7282 6688 2892 2666 1435 594 2373 3796 2924 178 293 2746 1286 749 537 529 234 498 149 226 88 199 188 118 382 872 150 515 446
shrinkage=0.05


Tree=13
num_leaves=31
num_cat=0
split_feature=8 6 2 18 16 9 3 8 10 19 9 20 6 10 20 13 9 9 5 8 0 11 16 14 7 1 13 8 1 8
split_gain=91.6718 52.1264 26.3584 24.7397 20.2144 18.7522 17.7726 17.3981 17.1963 16.4269 15.1483 14.6755 14.2928 13.3523 12.7479 12.0839 11.9659 11.3995 11.0549 9.70204 9.30269 9.27131 9.20639 8.94482 8.42338 8.16962 8.10824 7.78083 6.49419 6.18904
threshold=0.31866650000000013 0.79069510798004328 30.142789616555888 88.559252180813317 1.180382964908669 1.5190517220451372 0.49352419354838711 0.030834862640220798 -61.920142459597507 84.990251469262816 0.35906417472977536 47.556412258442315 1.0376526751601907 58.033223159806063 28.797397866563102 18.500000000000004 0.2490116467023806 0.85945451370696324 1.0492528298943928 0.16299139690995523 2.5232891043407224 58.991199999999999 1.4390278155057044 663.50000000000011 0.99386656527021844 2.5131079827780916 69.500000000000014 3.0752510578938472 2.5704925448126024 1.3910718629379202
decision_type=2 2 2 2 2 2 2 2 2 2 2 2 2 2 2 2 2 2 2 2 2 2 2 2 2 2 2 2 2 2
left_child=2 22 7 4 6 13 14 -1 28 10 -10 18 17 -6 -3 -8 -5 -11 -9 -14 -12 25 27 -7 26 -18 -13 -2 -4 -23
right_child=1 3 8 16 5 23 15 11 9 12 20 24 19 -15 -16 -17 21 -19 -20 -21 -22 29 -24 -25 -26 -27 -28 -29 -30 -31
leaf_value=0.040654993317361415 0.057564367660647556 0.044929109620549301 0.058625951557272661 0.04028142838564866 0.026459675252579036 -0.0067997008374513432 0.031646373745897814 -0.014370068123426921 0.092294161387949034 0.037591318694649871 0.056831489652629089 0.021312119365122624 0.065378356565728199 0.10249365646974758 -0.0033075734850414994 -0.026442071689307463 -0.0091328989736315144 -0.013960665817730082 0.05529361880513646 -0.0058187959648114606 0.019520260693339377 -0.017311422117195798 -0.0037329823837444066 0.041229063825359562 -0.04001228897881929 -0.025873070690488855 -0.02723128321003826 0.021122251903750017 0.007404345144415448 -0.035368994720257077
leaf_count=77 130 78 152 42 219 472 52 55 32 58 78 83 58 34 590 844 1189 406 52 37 1359 439 74 57 237 696 119 125 32 841
internal_value=0 -0.185446 0.308543 -0.248853 -0.0650069 0.235964 -0.228109 -0.119453 0.411813 0.351215 0.46652 -0.280392 0.0242602 0.732452 0.0651128 -0.455064 -0.391794 -0.142248 0.423544 0.779857 0.432428 -0.410662 0.62439 -0.0250087 -0.491271 -0.303259 -0.132896 0.803061 1.00248 -0.576216
internal_count=8717 5882 2835 5553 2346 782 1564 623 2212 2028 1469 546 559 253 668 896 3207 464 107 95 1437 3165 329 529 439 1885 202 255 184 1280
shrinkage=0.05


Tree=14
num_leaves=31
num_cat=0
split_feature=13 8 14 11 7 20 1 18 10 19 5 0 9 20 12 2 2 0 2 6 3 14 13 19 0 8 9 7 6 12
split_gain=84.4996 41.7216 34.1704 29.5745 24.3872 22.7854 24.6141 19.125 17.4479 16.9552 16.5099 15.8692 19.3203 14.6012 12.6443 14.5249 10.7097 10.3889 10.2693 9.89082 9.63389 8.66509 7.76892 7.20187 7.12875 8.44075 6.82893 7.10051 6.16879 5.81362
threshold=24.500000000000004 0.03341246364340001 264.50000000000006 43.332200000000007 1.126219689103886 65.490356777929165 1.1263931333391859 93.810472631859412 25.438920699730698 50.579937840905011 1.2390469553778141 3.1921908410775846 4.2150515990511632 66.511031616087067 4.2082500000000005 81.209973385798378 42.183340549837204 3.8299385281893961 50.360249591445665 1.0348777517490919 0.52606196840826258 282.50000000000006 52.500000000000007 66.024817913504563 4.7673349595480481 0.13323981702102081 2.2891822214822959 1.0305437894303047 1.008324069740161 3.2566500000000005
decision_type=2 2 2 2 2 2 2 2 2 2 2 2 2 2 2 2 2 2 2 2 2 2 2 2 2 2 2 2 2 2
left_child=7 8 3 4 9 6 -5 11 23 -3 24 26 14 17 19 -16 -15 -4 -7 -13 -19 -18 -6 -2 25 -9 -1 28 -28 -14
right_child=1 2 13 5 22 18 -8 10 -10 -11 -12 12 29 16 15 -17 21 20 -20 -21 -22 -23 -24 -25 -26 -27 27 -29 -30 -31
leaf_value=0.07355825579801098 0.094948519073786014 0.018691549124458483 0.055698297612335079 0.028768580156264902 0.011082365635080599 -0.043042551940229365 -0.01598843112217202 0.043328097246772904 -0.022186744340337253 -0.0094588392209080507 0.035823393457091422 0.027996148278491485 -0.00059541347330447129 -0.044227660971846737 -0.014554519265020029 0.037860052963839791 0.063507504030550846 -0.031044651303083967 -0.022409866669821699 0.062695434416027485 0.034937402207714317 0.0032832077869250418 0.053936524371566208 0.043865147159839066 -0.044189586849287407 -0.020887441682853697 0.0099423567850730667 0.077600281647427785 0.065690337829627229 -0.045795788207895122
leaf_count=90 40 311 139 192 89 615 1140 32 38 2765 82 651 102 58 180 98 34 41 916 107 79 287 95 106 108 111 89 36 31 55
internal_value=0 -0.127839 -0.16236 -0.22076 -0.0705298 -0.405088 -0.176043 0.417587 0.848653 -0.127209 -0.0839691 0.521023 0.414891 0.327093 0.521804 0.111387 0.0357806 0.72042 -0.612523 0.662706 0.233564 0.194733 0.660696 1.16811 -0.411224 -0.0740296 1.01027 0.738301 0.483607 -0.304674
internal_count=8717 6945 6761 6123 3260 2863 1332 1772 184 3076 333 1439 1193 638 1036 278 379 259 1531 758 120 321 184 146 251 143 246 156 120 157
shrinkage=0.05


Tree=15
num_leaves=31
num_cat=0
split_feature=8 6 2 18 16 9 3 10 19 9 4 6 20 15 20 9 13 9 8 8 10 14 13 0 12 4 8 13 0 1
split_gain=77.0368 44.2474 22.5742 22.091 17.4471 16.553 16.2708 14.9064 15.4022 14.1286 13.1216 12.8135 12.2481 11.1422 11.0875 10.7938 10.5189 10.4574 9.75706 9.66938 8.8648 8.742 10.9322 8.67155 8.41783 8.37522 8.0796 7.77883 6.92285 6.70105
threshold=0.31866650000000013 0.79069510798004328 28.747522435743701 88.559252180813317 1.180382964908669 1.3917639974128588 0.49352419354838711 -61.920142459597507 84.990251469262816 0.35906417472977536 -7.3187493317949004 1.0376526751601907 43.502789296789295 13.845000000000001 28.797397866563102 0.3997516805111147 18.500000000000004 0.85945451370696324 0.13590575042211525 3.30166116102636 6.9960214515509653 1.0000000180025095e-35 40.500000000000007 2.7060818013983603 2.2700000000000005 19.751346645730766 0.16299139690995523 61.500000000000007 2.7572612372792373 0.70760263850732585
decision_type=2 2 2 2 2 2 2 2 2 2 2 2 2 2 2 2 2 2 2 2 2 2 2 2 2 2 2 2 2 2
left_child=2 24 12 4 6 10 14 -4 9 -9 -6 17 18 27 -3 20 -8 -10 -1 -7 -5 29 -23 -11 -2 -26 -13 28 -14 -17
right_child=1 3 7 15 5 19 16 8 11 23 -12 26 13 -15 -16 21 -18 -19 -20 -21 -22 22 -24 -25 25 -27 -28 -29 -30 -31
leaf_value=0.060911455230220971 0.066177185174566652 0.041922736745676981 0.045744521891390388 0.067807880810907786 0.0050358319202682437 0.0076912726662915782 0.02855097308549295 0.086367745371753984 0.033633010571771135 0.045620666596589143 0.059749835573257359 0.059091286916986924 0.046301475535952097 0.045021575127096737 -0.002751800559370369 0.012900417155852105 -0.025116928066466999 -0.014461718448533355 -0.012593901319921594 -0.03056393425874241 -0.016921314498216083 -0.0028527435736812965 -0.021283702549698746 0.01697256579940536 0.0067218343442589246 0.044655266241084401 -0.0056534596378427227 -0.034516789711804212 -0.013530979099605859 -0.035625349128444443
leaf_count=46 52 78 186 33 97 434 52 33 61 127 125 58 31 35 590 44 844 416 37 126 31 666 1798 1362 174 103 37 265 141 635
internal_value=0 -0.17209 0.281212 -0.231513 -0.0576893 0.220478 -0.211 0.368797 0.313921 0.422237 0.72643 -0.000673935 -0.149357 -0.313559 0.0690861 -0.368334 -0.431256 -0.156404 0.587834 -0.00458714 0.554091 -0.390847 -0.322667 0.390041 0.570131 0.419888 0.71007 -0.424471 -0.0385976 -0.643559
internal_count=8717 5882 2835 5553 2346 782 1564 2280 2094 1522 222 572 555 472 668 3207 896 477 83 560 64 3143 2464 1489 329 277 95 437 172 679
shrinkage=0.05


Tree=16
num_leaves=31
num_cat=0
split_feature=13 8 14 9 17 1 3 1 18 10 2 9 13 20 2 19 0 16 13 8 16 9 20 2 0 8 17 0 8 7
split_gain=70.71 35.6954 29.4707 28.0216 26.4053 22.9244 22.5398 17.3877 16.4072 15.1851 14.6606 14.2224 16.5771 13.7421 14.7861 12.9008 11.9433 10.8031 10.3317 10.3218 10.2877 17.3 9.76852 12.0375 9.29196 9.26307 9.09446 9.05643 8.66098 7.56937
threshold=24.500000000000004 0.03341246364340001 254.50000000000003 2.7391576102806829 1.0842993230331759 5.0607496902155162 0.33246621621621625 1.7485693687881929 93.810472631859412 25.438920699730698 93.696134615767591 1.2989091998246647 12.500000000000002 44.001918771985956 89.02998256528808 52.216394255489959 3.1797342404359168 1.4300927095870895 138.50000000000003 0.98543658500074327 1.1890432824091275 2.9126593008597053 67.675767650046268 46.953454615834765 4.7673349595480481 0.44547215865298001 1.1858639571585237 3.3426080719390456 0.13323981702102081 1.1218165481763533
decision_type=2 2 2 2 2 2 2 2 2 2 2 2 2 2 2 2 2 2 2 2 2 2 2 2 2 2 2 2 2 2
left_child=8 9 3 4 7 -6 19 -3 11 -2 24 22 20 14 -4 -15 -14 -12 -17 -5 -13 -22 27 -24 28 -25 -18 -1 -10 -8
right_child=1 2 13 6 5 -7 29 -9 10 -11 17 12 16 15 -16 18 26 -19 -20 -21 21 -23 23 25 -26 -27 -28 -29 -30 -31
leaf_value=0.079069980764895575 0.053687988937918346 -0.0055931141019335429 0.080161211797797616 0.014716339725714617 0.0075551292625791874 -0.029617230982617607 -0.033464452889891458 -0.028114462331854634 0.045552469746026655 -0.021605224689931465 0.068278404186864067 0.066337553828235779 0.035234381926244486 0.06833266298926928 -0.0050083600096910534 0.0094304144317579747 -0.008860685967936972 -0.0063402056460061433 -0.032687718935748254 -0.027335116990365095 0.053011879191711332 -0.015566996516873363 0.014321911295781274 0.061690772599405842 -0.048463283579052538 0.1311626821485159 0.0174763164893071 0.018549199819853257 -0.019402009675496101 0.010283087090748367
leaf_count=32 146 1136 64 249 1991 290 1270 948 32 38 44 102 160 39 37 459 383 45 94 135 93 71 47 66 104 33 269 183 108 49
internal_value=0 -0.118487 -0.150896 -0.208397 -0.10714 0.0656135 -0.47338 -0.309426 0.379791 0.780152 -0.0870546 0.474518 0.348382 0.282367 1.00139 0.144474 0.187476 0.634769 0.0537099 0.0308433 0.797659 0.476105 0.840097 1.27422 -0.411592 1.66336 0.0507105 0.555692 -0.02565 -0.628198
internal_count=8717 6945 6761 6068 4365 2281 1703 2084 1772 184 333 1439 1078 693 101 592 812 89 553 384 266 164 361 146 244 99 652 215 140 1319
shrinkage=0.05


Tree=17
num_leaves=31
num_cat=0
split_feature=8 5 2 1 9 8 20 18 17 14 0 8 9 2 20 7 1 20 18 8 3 6 6 15 3 17 7 5 7 4
split_gain=64.577 38.5099 19.5673 18.446 18 20.2903 15.3023 15.124 14.8466 13.5673 13.2182 13.0167 12.8607 12.559 11.9277 11.8052 12.6561 15.3594 11.2143 11.8832 10.8802 10.5892 10.2377 9.82323 9.40938 10.358 9.28246 9.23964 8.01291 7.50048
threshold=0.31866650000000013 1.2288414394856975 30.142789616555888 4.5213214779344213 2.4299562159881885 0.64747229458207134 34.658539506591609 88.136210001727008 1.0842993230331759 270.50000000000006 5.1232456180685313 0.030834862640220798 3.0588472808756948 19.06193798107498 47.556412258442315 1.1655427163251872 2.125787992856162 77.106682906942567 88.604427317085154 0.018865191864592037 0.47605942029758136 0.95712462995414782 0.9589504565927981 4.5550000000000006 0.3003974926253688 1.1512170552480312 0.98812589748844115 1.0492528298943928 0.99386656527021844 17.708576745206901
decision_type=2 2 2 2 2 2 2 2 2 2 2 2 2 2 2 2 2 2 2 2 2 2 2 2 2 2 2 2 2 2
left_child=2 4 11 21 5 6 20 -8 13 24 -10 -1 15 -7 27 16 22 -18 -14 -20 -2 29 -4 -21 25 -6 -11 -13 -16 -3
right_child=1 3 12 -5 9 8 7 -9 10 26 -12 14 18 -15 28 -17 17 -19 19 23 -22 -23 -24 -25 -26 -27 -28 -29 -30 -31
leaf_value=0.033863977242643187 0.075824320206675011 0.017778913167791812 0.012349923307489198 -0.026150041016469824 -0.019421070900930842 0.031500528190299928 0.021139211709813019 -0.017201131695175616 0.0048769758989414616 0.041322961957296588 -0.023848126132662826 -0.014375022486745659 0.020008107489779828 -0.024864084840282213 -0.0052009931639030579 0.074102197519863147 0.019435635961836228 -0.022256537117004704 0.053550395551953317 -0.00051058010738764528 0.0027994515750347534 -0.010744053667392775 0.037449292265822602 -0.038579173245355293 -0.030117494587303607 0.035832505529666756 -0.013457160509101986 0.049063633476652664 -0.03821302046509694 0.044185404448878002
leaf_count=77 62 348 279 142 195 62 301 300 903 69 341 55 361 1221 202 45 368 147 33 304 40 113 560 115 1422 71 111 52 237 181
internal_value=0 -0.159386 0.256161 0.282067 -0.247328 -0.136926 0.215457 0.0542132 -0.245527 -0.444434 -0.0559338 -0.116052 0.343738 -0.43874 -0.259557 0.466489 0.428949 0.163039 0.128135 -0.105705 0.975231 0.421113 0.588339 -0.212229 -0.519037 -0.0924019 0.167944 0.369471 -0.455404 0.539606
internal_count=8717 5882 2835 784 5098 3230 703 601 2527 1868 1244 623 2212 1283 546 1399 1354 515 813 452 102 642 839 419 1688 266 180 107 439 529
shrinkage=0.05


Tree=18
num_leaves=31
num_cat=0
split_feature=13 14 11 20 1 9 16 1 13 9 20 0 17 3 8 1 17 17 11 5 5 4 15 16 9 12 0 3 2 0
split_gain=59.7395 30.5392 26.316 20.5111 20.8715 19.2936 23.2478 13.9109 13.8938 15.7945 13.6317 12.7305 12.0994 12.0269 11.9795 11.0828 10.058 9.54635 12.9476 11.5374 9.5605 9.27251 10.1887 9.21108 15.303 8.87363 8.08628 10.4807 8.0095 8.51045
threshold=24.500000000000004 254.50000000000003 43.332200000000007 65.490356777929165 1.1263931333391859 2.7391576102806829 1.1239719641360715 2.4460274333496055 11.500000000000002 1.2989091998246647 66.511031616087067 3.1797342404359168 1.1595045038520648 0.33246621621621625 1.7205863320153794 0.64729770739630232 1.1475401454735248 1.2312035201286151 35.664850000000008 1.0753461042454884 1.1355690073456446 -153.91584434781441 -1.1349999999999996 1.1890432824091275 2.9126593008597053 2.7863000000000002 3.5841816483194333 0.56063089915548947 50.360249591445665 4.1628611601449625
decision_type=2 2 2 2 2 2 2 2 2 2 2 2 2 2 2 2 2 2 2 2 2 2 2 2 2 2 2 2 2 2
left_child=8 2 5 4 16 6 15 -8 23 21 26 -11 25 -7 -6 -2 -4 -12 20 -20 -19 -10 -23 -1 -25 -13 27 -3 -5 -30
right_child=1 10 3 28 14 13 7 -9 9 11 17 12 -14 -15 -16 -17 -18 18 19 -21 -22 22 -24 24 -26 -27 -28 -29 29 -31
leaf_value=0.056946036259618429 0.01461050590065037 0.075569880526171668 0.012320617864941652 -0.038876016239500294 -0.00090794607282100267 0.00414657231912079 0.021151092314020382 -0.0034244264176258895 0.080195242921902915 0.031234258552664342 -0.024733934095871088 0.0052026171360592391 0.012515056851380161 -0.026454096542166447 -0.026336925725245472 -0.01611438280811836 0.071788784392776431 0.071121544042721016 0.035356346804083595 -0.023061244626104718 0.0065652058723447218 -0.033361649877334774 0.032121588869728164 0.041560423904707613 -0.016187157134098362 -0.027267858475068588 0.015639954625307675 0.018223741469031895 -0.0018630994622873714 -0.028339575150896437
leaf_count=136 206 77 153 618 519 254 932 474 41 175 125 180 426 610 619 861 44 62 62 145 50 31 281 147 77 278 173 65 279 617
internal_value=0 -0.110162 -0.170834 -0.350144 -0.132445 -0.0323127 0.0721357 0.263271 0.347701 0.244227 0.304257 0.106299 -0.00816557 -0.341345 -0.271124 -0.200124 0.54124 0.041317 0.246473 -0.10077 0.840369 0.640042 0.511365 0.708349 0.450623 -0.274536 0.638491 1.00203 -0.554183 -0.403726
internal_count=8717 6945 6186 2849 1335 3337 2473 1406 1772 1412 759 1059 884 864 1138 1067 197 444 319 207 112 353 312 360 224 458 315 142 1514 896
shrinkage=0.05


Tree=19
num_leaves=31
num_cat=0
split_feature=8 7 13 19 1 6 9 17 18 9 14 9 17 0 2 17 3 17 19 20 3 18 18 5 15 3 0 7 2 18
split_gain=54.3561 35.5736 20.4276 19.3989 19.7813 17.6384 13.7732 17.3043 16.556 13.2657 12.7007 12.08 13.2111 16.0932 11.9482 11.3945 11.2043 11.0842 10.972 10.5805 10.1209 10.1102 9.70422 9.60283 9.42255 10.6408 15.6633 9.30731 9.08356 8.78747
threshold=0.23865268783283602 1.1590222931084939 177.50000000000003 54.654969100080805 1.911827170022719 1.0292579512144286 2.2533513581159643 1.0551848614100756 95.162437479924762 1.1873278288805911 270.50000000000006 2.7947754677575398 1.1232040304936401 4.2133413675463993 48.874896777977092 1.0596921535119859 0.08975000000000001 1.2083225965111344 80.620410962760516 42.446221453445609 0.3003974926253688 88.68273526849697 87.817153350148274 1.0804672079652731 1.6065000000000003 0.25510131434830235 3.2424267430751219 0.98319828465845649 19.06193798107498 86.819655112986666
decision_type=2 2 2 2 2 2 2 2 2 2 2 2 2 2 2 2 2 2 2 2 2 2 2 2 2 2 2 2 2 2
left_child=2 3 11 4 9 22 7 28 -9 21 20 12 14 -14 18 -11 -4 -18 -1 -7 -8 -2 -6 -15 27 26 -26 -13 -5 -27
right_child=1 -3 16 6 5 19 10 8 -10 15 -12 24 13 23 -16 -17 17 -19 -20 -21 -22 -23 -24 -25 25 29 -28 -29 -30 -31
leaf_value=0.015421860556062714 0.086741354023432818 0.025343464995496862 0.03589896818161839 0.015850192148599281 0.0015470076821560497 -0.020539722903943985 -0.0029220863630253762 0.0047769912657970176 -0.023509610596820159 -0.035735355242306366 0.0066643628551195377 -0.011402731455059777 0.046442066108142603 0.065853801346025684 0.049772477556530387 0.027471788011423987 -0.042038090028039418 0.019203461912019829 -0.019001400081223866 0.058658110202172126 -0.027450336690779887 0.013495441082632072 -0.037633264521653657 0.0073449278884586385 0.074190874303381615 0.015665002885416082 -0.024729023716203773 0.025857149769213245 -0.024263280732267755 -0.02457061238122259
leaf_count=352 64 363 42 94 160 32 307 1628 394 51 218 101 381 35 77 157 174 43 182 72 1613 37 229 261 42 85 34 317 918 254
internal_value=0 -0.131143 0.264744 -0.18328 0.155614 -0.158811 -0.24118 -0.136051 -0.00920616 0.591718 -0.396339 0.330084 0.459324 0.651513 0.215987 0.250395 -0.34435 -0.556446 0.0930199 0.67351 -0.466656 1.2348 -0.411624 0.28385 0.128449 -0.110633 0.618115 0.346111 -0.407087 -0.279853
internal_count=8717 6337 2380 5974 802 493 5172 3034 2022 309 2138 2121 1288 677 611 208 259 217 534 104 1920 101 389 296 833 415 76 418 1012 339
shrinkage=0.05


Tree=20
num_leaves=31
num_cat=0
split_feature=13 8 11 20 16 18 9 8 2 6 15 6 10 6 15 6 1 5 17 11 13 9 3 12 16 10 4 6 7 11
split_gain=50.9038 27.6937 23.5983 23.7294 20.2485 21.5834 21.6495 17.872 13.736 13.1161 15.9548 14.2412 13.0638 12.9516 12.1918 11.0493 10.6811 10.3583 9.82564 9.66448 9.63544 9.5285 9.25177 10.7459 10.5601 9.20909 8.95326 7.24106 6.85806 6.8505
threshold=24.500000000000004 0.03341246364340001 43.332200000000007 65.95700020911751 1.1220537204089571 88.604427317085154 1.2451679294453484 1.7205863320153794 50.360249591445665 1.0390444922212245 0.15500000000000003 0.97050112086175422 25.438920699730698 1.008324069740161 20.605000500000006 1.0535339316636811 1.2174552759740265 1.0936266870314324 1.1072137875204577 11.360250000000002 12.500000000000002 1.2851028961093063 0.79930354153708427 4.8360500000000011 1.1553401675639419 30.052954587277402 -132.30842958303023 0.91667142087822373 0.97049941862568956 87.199950000000015
decision_type=2 2 2 2 2 2 2 2 2 2 2 2 2 2 2 2 2 2 2 2 2 2 2 2 2 2 2 2 2 2
left_child=9 12 4 7 14 26 -7 18 -5 10 22 21 -2 20 15 -3 -9 -10 -4 -11 -13 -12 23 28 -24 29 -6 -26 -1 -21
right_child=1 2 3 8 5 6 -8 16 17 19 11 13 -14 -15 -16 -17 -18 -19 -20 25 -22 -23 24 -25 27 -27 -28 -29 -30 -31
leaf_value=-0.012934073553908116 0.047621608027410028 -0.017384359261404945 -0.0071445720908532191 -0.039950897685834277 -0.013195399129833439 0.023076487703294842 -0.011922672837096242 0.029634795378055353 -0.0031129683842366796 -0.0088723405279643574 0.015565293196193881 0.082894474977833033 -0.022126060213388372 -0.014737483597659005 0.053248542144771163 0.047419655414285111 -0.024518838209092925 -0.027629600713900859 0.019169828229573801 0.079799775713949458 0.02271944927971099 -0.021809276996052743 -0.034423904978913754 -0.0070484682725833027 0.050764886356755794 0.0063901853289478261 0.022496810618290987 0.0052173352390321578 0.04022595047849719 0.027774436870923198
leaf_count=33 146 1162 351 636 101 304 1083 60 494 36 115 36 38 92 39 36 640 579 422 91 170 351 64 78 54 43 854 148 418 43
internal_value=0 -0.102757 -0.131989 -0.290719 -0.00398238 0.119066 -0.0750779 -0.0678636 -0.496082 0.319848 0.248532 0.0122479 0.683724 0.376662 -0.259932 -0.304015 -0.38497 -0.328042 0.158794 0.812434 0.683186 -0.244326 0.455566 0.615463 0.122715 1.0192 0.37511 0.353493 0.736442 1.28369
internal_count=8717 6945 6761 3182 3579 2342 1387 1473 1709 1772 1559 764 184 298 1237 1198 700 1073 773 213 206 466 795 529 266 177 955 202 451 134
shrinkage=0.05


Tree=21
num_leaves=31
num_cat=0
split_feature=8 5 15 20 6 15 1 5 6 8 2 6 19 11 11 11 13 19 6 20 0 20 17 2 11 12 17 5 16 19
split_gain=46.6563 30.4362 19.6933 21.706 17.4408 18.4547 15.2233 17.1609 14.9626 13.5975 13.3163 16.0129 14.1269 12.3501 12.0332 16.4345 11.6213 10.4307 10.3005 9.82192 17.5499 9.89932 9.64802 10.9176 9.55478 9.43305 8.38537 10.522 8.22161 8.96214
threshold=0.49788968011437523 1.2666204347634316 0.44500000000000006 47.918818348144711 1.0415870033909345 19.605000500000003 2.8256158761160726 1.0392944095318648 1.008324069740161 0.021029819978584652 137.10831115293357 1.0990258998075373 56.70365055370376 74.396000000000015 11.91905 33.291700000000006 12.500000000000002 84.824338102616721 0.91360972787179584 94.031493823583119 4.8000848060690027 64.878313987924216 1.1490917536832423 43.205954093872556 23.340450000000004 1.1984000000000001 1.4795550686999344 1.0478226151918084 1.3733273430391066 95.183798193586412
decision_type=2 2 2 2 2 2 2 2 2 2 2 2 2 2 2 2 2 2 2 2 2 2 2 2 2 2 2 2 2 2
left_child=2 8 6 17 5 9 14 -8 13 -5 11 12 -10 19 26 -16 -9 22 28 21 -21 -2 -4 -24 -20 -17 27 -1 -3 -30
right_child=1 18 3 4 -6 -7 7 16 10 -11 -12 -13 -14 -15 15 25 -18 -19 24 20 -22 -23 23 -25 -26 -27 -28 -29 29 -31
leaf_value=-0.022256761297684127 -0.0057279121847492644 0.030837663996716794 0.015695459207821925 0.032968612119869345 0.026491856542377137 0.074445836776727392 0.060124663009485352 0.029648456158132448 0.033706547318494012 -0.010547577192318757 -0.035065906046380775 0.057384537292682392 -0.007368200061464796 -0.028630068783037744 0.063769186097393779 0.071006502395031826 -0.029828451760605182 -0.038300327952035015 0.036861031548174959 -0.018453324091368666 0.10365700806004868 -0.022257162507017109 0.083709317582632115 0.026167246505307096 -0.027792991121538047 0.017529963946838267 -0.033604122011706282 0.026027902188334142 -0.017044917488513622 0.046933815264014106
leaf_count=68 1240 304 290 81 215 36 43 45 143 1667 140 77 638 1049 163 40 168 33 36 48 31 1097 57 94 128 328 38 285 101 34
internal_value=0 -0.166072 0.178808 0.0603076 -0.0487168 -0.127179 0.401857 -0.0678804 -0.24882 -0.160932 0.0103435 0.121135 0.0143967 -0.331503 0.527226 0.735626 -0.315936 0.469485 0.277946 -0.234738 0.65187 -0.264064 0.551956 0.974302 -0.231528 0.476512 0.244242 0.34999 0.433315 -0.0161436
internal_count=8717 5066 3651 2473 1999 1784 1178 256 4463 1748 998 858 781 3465 922 531 213 474 603 2416 79 2337 441 151 164 368 391 353 439 135
shrinkage=0.05


Tree=22
num_leaves=31
num_cat=0
split_feature=13 1 17 9 19 20 3 11 7 20 18 19 10 17 9 5 8 2 0 9 8 10 18 17 16 12 2 16 7 0
split_gain=43.0541 25.7888 25.7016 16.789 15.867 14.2437 16.7186 13.154 11.9266 11.924 11.7956 11.1457 11.0016 10.977 14.5221 12.9354 11.2646 10.9002 10.5473 14.0911 10.0974 9.54797 10.4585 9.29944 8.78956 8.77414 10.3596 9.93343 8.54084 8.42451
threshold=24.500000000000004 2.459819763149115 1.1726280430630533 0.84373267162461929 45.830463111019661 94.031493823583119 0.48706138618104494 71.211500000000015 0.9885977425640381 40.718840179961809 93.810472631859412 30.930889229818852 29.51011000054466 1.0877968113735801 1.5890683215527839 1.0499491788682291 2.8693005155568971 93.696134615767591 3.1921908410775846 4.2150515990511632 1.1330040738375347 43.928313189365205 87.57388073894812 1.0831878211098147 1.4300927095870895 4.2082500000000005 81.209973385798378 1.3457870929273501 1.0732139110003682 4.7673349595480481
decision_type=2 2 2 2 2 2 2 2 2 2 2 2 2 2 2 2 2 2 2 2 2 2 2 2 2 2 2 2 2 2
left_child=10 2 4 -4 7 6 -6 23 -7 28 18 20 -11 21 15 -15 -16 29 -1 25 -3 -13 -23 -2 -19 27 -27 -20 -5 -12
right_child=1 11 3 9 5 8 -8 -9 -10 12 17 13 -14 14 16 -17 -18 24 19 -21 -22 22 -24 -25 -26 26 -28 -29 -30 -31
leaf_value=0.038191164643065274 0.013460842149136832 0.057611324675673051 0.055535016410574213 0.059240514763688516 -0.0018783273325147791 0.08076219644406607 -0.020966266118297276 -0.038420009426624969 -0.0023327730906826439 0.012590731037167442 -0.0013241178364829778 -0.038605367167527133 -0.016093009722817551 0.075635695011956702 -0.010971332077658743 -0.00062279812140867319 -0.03616858463240074 0.057772308507532968 0.029080944882116218 -0.016501748703453778 -0.013688726527376792 -0.050623365813113032 0.020529676845105524 0.065484655750427043 -0.0089479672620993121 -0.015510728411278396 0.028354338483663439 -0.0080431480005872021 -0.003958414540977011 -0.047029531832342812
leaf_count=246 97 48 101 88 1684 46 1168 41 53 689 140 544 239 32 764 544 479 44 670 157 64 49 107 74 45 180 98 88 34 104
internal_value=0 -0.0954772 0.013471 0.292702 -0.105956 -0.155524 -0.187628 0.487023 0.735058 0.203807 0.293294 -0.293657 0.112441 -0.329627 -0.232237 0.0769432 -0.389131 -0.10645 0.372177 0.285977 0.437672 -0.60873 -0.0492818 0.738628 0.505813 0.37531 0.0343728 0.490391 0.830487 -0.395224
internal_count=8717 6945 4314 1151 3163 2951 2852 212 99 1050 1772 2631 928 2519 1819 576 1243 333 1439 1193 112 700 156 171 89 1036 278 758 122 244
shrinkage=0.05


Tree=23
num_leaves=31
num_cat=0
split_feature=8 7 8 20 6 1 20 2 16 18 1 15 13 1 3 9 8 8 9 7 16 11 20 7 2 6 14 13 1 6
split_gain=39.786 31.936 18.5944 23.4446 15.0634 12.4781 11.5168 11.0934 10.9586 19.6566 12.5548 10.791 10.3724 9.72643 9.57518 8.26243 11.1045 9.92991 8.20289 8.24075 8.15153 7.66599 8.04384 7.23838 7.15745 7.14067 10.5006 6.14309 9.05452 5.62262
threshold=0.12191189723793282 1.1166534693433079 0.7657836804585314 30.154497252151554 1.0400397999835524 3.9187106843215367 67.403302040196863 84.998805293178734 1.1915484279363484 86.71978985885552 0.87887536000576028 20.605000500000006 175.50000000000003 1.7907408949390582 0.096179170315591464 2.0134420615775492 0.018865191864592037 0.069727093832508816 3.7954385990081749 1.0427473176429591 1.4039139356853731 43.988650000000007 16.776291122561556 1.0074005040386409 26.864207974405705 1.0460078233974843 58.500000000000007 16.500000000000004 2.4949102837879269 0.94482047634356048
decision_type=2 2 2 2 2 2 2 2 2 2 2 2 2 2 2 2 2 2 2 2 2 2 2 2 2 2 2 2 2 2
left_child=12 2 3 21 11 8 -6 -3 10 -10 -4 -5 13 15 -14 29 -17 -18 19 23 27 22 -2 -15 -16 -7 -27 -9 -29 -1
right_child=1 7 5 4 6 25 -8 20 9 -11 -12 -13 14 18 24 16 17 -19 -20 -21 -22 -23 -24 -25 -26 26 -28 28 -30 -31
leaf_value=0.0099602646557212793 0.092671022463233874 -0.027893778688096879 0.0074967283797657078 -0.0079329210738019098 0.06220616691099206 -0.033051736847512857 0.0085267184603869135 0.051239232962869391 0.040542999209767283 -0.0064702251374981236 -0.020488675947848842 0.055126414028368945 0.041319242175840411 0.0088684855892272856 -0.059986210095030079 0.051013893104211429 -0.0044491864603998068 0.029818419171349655 -0.018404392477486372 -0.011467418085406071 -0.0069659875332849204 0.009283839946890169 0.03315255120316881 0.042724152131385223 -0.0034094196834869063 0.041995998194358029 -0.026682632053427208 0.03975813503880618 0.0052283016624739874 0.045712618086742172
leaf_count=61 33 65 290 2336 59 722 234 100 140 967 1527 37 31 167 60 80 235 160 113 101 86 95 98 120 58 51 99 159 184 249
internal_value=0 -0.0837071 -0.138429 -0.00368505 -0.0716361 -0.262322 0.397816 0.385531 -0.185554 0.00640237 -0.310898 -0.138093 0.311468 0.368335 -0.257804 0.513462 0.338414 0.186847 0.138267 0.282038 0.476058 0.642955 0.973374 0.465657 -0.5613 -0.542429 -0.0601217 0.587822 0.447662 0.777705
internal_count=8717 7282 6688 2892 2666 3796 293 594 2924 1107 1817 2373 1435 1286 149 785 475 395 501 388 529 226 131 287 118 872 150 443 343 310
shrinkage=0.05


Tree=24
num_leaves=31
num_cat=0
split_feature=13 1 17 9 8 19 20 18 6 12 9 11 20 19 17 9 5 8 10 11 10 18 15 8 19 8 11 10 2 10
split_gain=36.3089 22.0906 21.9052 14.5592 14.1509 13.1476 12.4824 11.1471 10.6967 12.4532 10.4718 11.0527 10.1952 9.97983 10.0854 13.286 11.2713 10.3466 9.67671 9.59688 9.08132 9.74026 9.07635 10.0853 8.91856 8.56465 8.33481 7.80596 7.55858 7.13001
threshold=24.500000000000004 2.459819763149115 1.1726280430630533 0.84373267162461929 0.03341246364340001 45.830463111019661 94.031493823583119 87.532603593368364 1.0390444922212245 1.6720000000000002 1.3567103967405341 62.945650000000008 40.718840179961809 30.930889229818852 1.0877968113735801 1.5890683215527839 1.0499491788682291 2.8693005155568971 29.51011000054466 -17.322549999999996 43.928313189365205 87.57388073894812 0.44500000000000006 3.1353805165760078 70.411186163154767 1.1330040738375347 11.360250000000002 30.052954587277402 71.945182328138287 0.70361184990813552
decision_type=2 2 2 2 2 2 2 2 2 2 2 2 2 2 2 2 2 2 2 2 2 2 2 2 2 2 2 2 2 2
left_child=8 2 4 -4 24 7 -7 -6 9 19 11 -11 28 25 20 16 -16 -17 -14 -1 -15 -22 23 -12 -2 -3 -10 -28 -5 -24
right_child=1 13 3 12 5 6 -8 -9 26 10 22 -13 18 14 15 17 -18 -19 -20 -21 21 -23 29 -25 -26 -27 27 -29 -30 -31
leaf_value=-0.014871982211831386 0.077893109077447134 0.053051705528474172 0.051351504708072628 0.058320025688665539 0.046400334344299916 -0.010445497819573929 0.033254382801102191 -0.0063746992775504212 -0.010400536025314511 0.033154227473227847 0.015235202019141487 -0.0098054957191884839 0.011547408856989284 -0.037205890401150965 0.069919318654806148 -0.010267019121322621 -0.00023982443690770503 -0.03474793423340021 -0.015432118997536852 0.040781608253737979 -0.049381944517455978 0.020190535494564944 -0.031740135677122687 -0.040805072342043031 0.010018728963685365 -0.012525463289028272 0.057088928970751955 0.0041568037913432302 0.0033366513705788015 -0.0022261447246130417
leaf_count=41 32 48 101 76 100 2773 96 105 36 253 428 101 689 544 32 764 544 479 239 201 49 107 148 41 57 64 134 43 46 346
internal_value=0 -0.0885225 0.0120826 0.269002 -0.0989552 -0.131407 -0.177764 0.418689 0.268728 0.204084 0.115013 0.430317 0.186113 -0.273879 -0.308551 -0.215118 0.0803433 -0.367352 0.10124 0.632129 -0.580555 -0.0333391 -0.00782482 0.204745 0.714384 0.416768 0.710687 0.900585 0.761213 -0.227275
internal_count=8717 6945 4314 1151 3163 3074 2869 205 1772 1559 1317 354 1050 2631 2519 1819 576 1243 928 242 700 156 963 469 89 112 213 177 122 494
shrinkage=0.05


Tree=25
num_leaves=31
num_cat=0
split_feature=8 6 9 17 8 1 12 7 13 8 1 9 17 6 19 9 7 19 17 8 14 13 1 18 3 2 9 12 0 5
split_gain=33.525 25.5789 15.514 15.7876 14.4308 13.8509 13.961 13.1905 12.3163 12.1323 11.2397 13.4746 16.8393 13.0834 12.4492 9.91614 9.61543 9.16244 8.88639 8.69025 8.38793 8.2682 7.76172 7.3054 6.64255 9.77358 7.24701 6.55058 6.48612 6.2316
threshold=0.31866650000000013 0.79069510798004328 1.8024233153604432 1.0945277452207869 10.793651599541123 0.64729770739630232 2.9232500000000003 1.0165498991010351 163.50000000000003 2.811801353485329 1.3291231314070069 3.9614583087439543 1.0389243367010046 0.96218303124443572 59.216098844466906 1.1311240878729187 1.1442645473884343 87.521222655563164 1.0577602990384867 0.036021161885362731 369.50000000000006 40.500000000000007 0.87887536000576028 87.751213737735725 0.08975000000000001 22.517981584946369 1.1311240878729187 1.8624500000000002 2.8523983101097632 1.3474010043382558
decision_type=2 2 2 2 2 2 2 2 2 2 2 2 2 2 2 2 2 2 2 2 2 2 2 2 2 2 2 2 2 2
left_child=8 27 3 5 7 6 -3 -5 10 18 13 12 -12 14 -1 -15 -14 -7 -4 -17 21 -13 -16 -20 -10 -26 -27 -2 -28 -29
right_child=1 2 9 4 -6 17 -8 -9 24 -11 11 20 16 15 22 19 -18 -19 23 -21 -22 -23 -24 -25 25 26 28 29 -30 -31
leaf_value=0.045484037523906631 0.066308196866811983 -0.020734477925636017 -0.031112962764496328 0.028626156989584296 -0.025319400875759498 -0.010429641141695067 0.060801927056218452 0.001641076357829403 0.025514092340349549 -0.028208974502396029 -0.028737087967636601 -0.011521671710170399 0.012745336025841703 0.056393475000710958 -0.024621998748925043 0.044717546691991926 0.05875989822762983 -0.039471876608907851 0.0043957480963966915 0.014403028351471878 0.026866575080894784 -0.05718866219802108 0.01190860808119646 -0.012469351809295285 -0.056394714609077239 0.040294285570132149 0.011840615957622697 0.040723866089288067 -0.033545517965121306 0.0073275945344453662
leaf_count=61 31 52 288 441 176 1071 73 585 51 904 129 213 993 122 150 134 49 227 565 397 48 67 135 1171 83 34 65 91 104 207
internal_value=0 -0.119345 -0.167161 -0.0313338 0.161822 -0.221587 0.537942 0.263128 0.182175 -0.297198 0.23125 0.112227 0.219147 0.406732 0.0587014 0.579584 0.303293 -0.305845 -0.195932 0.455124 -0.280808 -0.430318 -0.144002 -0.131863 -0.23512 -0.375931 -0.131758 0.441863 -0.324104 0.342881
internal_count=8717 5882 5553 2625 1202 1423 125 1026 2835 2928 2498 1499 1171 999 346 653 1042 1298 2024 531 328 280 285 1736 337 286 203 329 169 298
shrinkage=0.05


Tree=26
num_leaves=31
num_cat=0
split_feature=13 1 16 18 3 9 20 12 20 18 2 9 14 5 16 18 2 0 9 8 13 20 9 7 7 1 17 16 20 9
split_gain=30.7519 19.5798 20.1646 17.8686 17.3186 14.9174 11.771 10.9092 9.92427 9.61438 9.34121 9.62469 11.1637 9.32716 11.4337 10.26 9.2395 9.0651 11.4185 8.27214 8.04389 8.02526 7.97607 7.83053 14.2747 7.73162 9.16396 7.42427 7.1035 7.88613
threshold=24.500000000000004 2.459819763149115 1.1220537204089571 88.864862590351876 0.48011597258829736 1.0412496987899926 23.351734851792802 6.5872500000000018 71.261239189553422 93.810472631859412 34.679224674922317 2.3975707565731814 270.50000000000006 1.0660145036410904 1.1083867798094211 93.603860610436712 93.696134615767591 3.1921908410775846 4.2150515990511632 0.10065978572565602 77.500000000000014 94.322602928463212 1.2989091998246647 0.94038788167950627 0.95556474696833249 2.3942781032986118 1.1159619921804469 1.4390278155057044 92.320635714075664 1.313485860110067
decision_type=2 2 2 2 2 2 2 2 2 2 2 2 2 2 2 2 2 2 2 2 2 2 2 2 2 2 2 2 2 2
left_child=9 2 4 6 7 20 22 8 -2 17 -3 13 -13 14 -12 -15 25 -1 23 -8 -5 -7 -4 -19 -25 26 -11 -18 29 -6
right_child=1 10 3 5 28 21 19 -9 -10 16 11 12 -14 15 -16 -17 27 18 -20 -21 -22 -23 -24 24 -26 -27 -28 -29 -30 -31
leaf_value=0.033976877466591705 0.0097967347505958473 -0.0365502825555587 0.094277525060903297 0.04378232840668498 -0.01334199549787405 -0.0098366913205682107 0.032032617473199201 0.064624018821488438 -0.015910091893155461 -0.032379130358814276 -0.030199374567282358 -0.027237144392572871 0.01276957505894848 -0.0019602494360591209 0.033179609702234075 -0.027603996314604202 0.050587654676628013 -0.03863799338652385 -0.01596440499715537 0.0079045911804752674 -0.0016647160969864079 0.026466535599637804 0.029773622793973106 0.083387291518692452 0.014987826435136842 -0.042867453505615535 0.031687499159174064 -0.010854323093141972 0.017744152840089192 -0.043086632995852456
leaf_count=246 421 254 32 122 236 1266 192 38 462 68 63 794 108 869 187 356 46 34 157 904 88 87 64 39 963 119 57 43 48 354
internal_value=0 -0.0822161 0.0124337 0.127975 -0.215915 -0.0469636 0.329241 -0.00780954 -0.0614623 0.246772 -0.258233 -0.210156 -0.423111 -0.0890022 0.358542 -0.176653 -0.116463 0.317409 0.237613 0.259022 0.512242 -0.145215 1.03958 0.317373 0.349318 -0.386096 0.0119327 0.445235 -0.539999 -0.619052
internal_count=8717 6945 4314 2755 1559 1563 1192 921 883 1772 2631 2377 902 1475 250 1225 333 1439 1193 1096 210 1353 96 1036 1002 244 125 89 638 590
shrinkage=0.05


Tree=27
num_leaves=31
num_cat=0
split_feature=8 7 20 2 15 9 19 14 1 19 15 11 9 20 0 13 1 5 15 18 12 15 15 13 12 16 3 20 8 3
split_gain=28.8519 21.6325 13.5966 15.8371 12.1508 12.095 11.2008 11.032 11.4574 11.3224 10.9904 10.0324 9.94719 15.8139 9.47172 15.581 8.80085 8.70487 8.57507 8.54208 8.17348 7.4783 6.75828 6.25628 7.20541 6.07352 8.05238 7.53767 6.50013 6.06892
threshold=0.49788968011437523 1.0864055719307399 34.230429312920855 28.747522435743701 0.37270000000000009 0.7439421564485591 87.88234097741325 498.50000000000006 1.2969354655180025 69.535501439943161 16.259500500000005 47.030250000000002 1.5404685581976854 90.695888806353921 2.819671120581837 327.50000000000006 2.764127290836655 1.1907963098105026 4.4850000000000012 97.925545543450411 2.7083500000000007 8.6050000000000022 1.0650000000000002 85.500000000000014 1.7685500000000001 1.3733273430391066 0.56063089915548947 65.70887809325616 2.9361394204983999 0.076637715930902128
decision_type=2 2 2 2 2 2 2 2 2 2 2 2 2 2 2 2 2 2 2 2 2 2 2 2 2 2 2 2 2 2
left_child=2 7 16 10 25 11 19 8 14 -9 23 -5 13 -10 15 -2 -1 -8 -11 -7 -6 -22 -18 24 -4 26 -3 -27 -28 -25
right_child=1 4 3 5 20 6 17 9 12 18 -12 -13 -14 -15 -16 -17 22 -19 -20 -21 21 -23 -24 29 -26 27 28 -29 -30 -31
leaf_value=0.035017279051284989 -0.0022980356536998758 0.0039761139664211088 0.028295441749320617 0.04770272811423406 0.033764442258296688 0.010582154520730823 -0.016231499890834493 0.057769987271390169 -0.011977612538333512 0.026268108873759796 0.044008664734466255 -0.0052701639349740838 -0.021647903708800202 0.034693575590838438 -0.0069683849801818456 0.066130186058601353 -0.023284415436379532 0.016013277012358575 -0.042265322902569943 -0.049211690128707207 -0.033408722259185335 0.011191871996270329 0.035935969439980127 0.0065468343201475323 -0.016111626370388696 0.033659298885674378 0.056152505201726093 -0.033672444495622803 0.020323121847071347 -0.040686334704806565
leaf_count=270 143 105 61 143 50 1845 457 55 1048 52 39 58 2054 120 762 75 59 126 48 35 173 74 35 45 243 33 117 46 111 235
internal_value=0 -0.134157 0.139278 0.090689 0.21913 0.158194 0.11452 -0.21046 -0.238664 0.382246 -0.265658 0.658523 -0.317805 -0.133462 -0.0088591 0.440863 0.515727 -0.164529 -0.106275 0.193368 -0.172258 -0.361494 -0.0452598 -0.357134 -0.124886 0.436939 0.559973 -0.102124 0.784767 -0.634552
internal_count=8717 5066 3651 3287 709 2664 2463 4357 4202 155 623 201 3222 1168 980 218 364 583 100 1880 297 247 94 584 304 412 333 79 228 280
shrinkage=0.05


Tree=28
num_leaves=31
num_cat=0
split_feature=8 7 20 8 9 9 20 6 13 6 18 11 19 11 6 20 7 20 14 4 0 8 17 13 12 14 2 13 20 6
split_gain=26.7579 23.9774 16.2455 16.7464 14.9536 13.9585 13.5845 13.034 12.3514 11.7513 11.565 10.8118 9.74949 9.35458 9.1454 9.10592 8.83284 9.58361 8.25896 8.04899 8.43016 7.35594 7.5453 6.98395 7.68622 7.9164 6.97958 6.58216 5.9619 7.3943
threshold=0.12191189723793282 1.1166534693433079 67.403302040196863 1.7205863320153794 3.2737062975138058 1.2111350621847825 85.59376136729071 0.99535035119695348 156.50000000000003 0.89045809938968079 85.176015924185307 -44.17669999999999 97.848241889591066 61.503050000000009 1.0211151957754467 45.237778953616505 1.1590222931084939 71.466125433497055 288.50000000000006 28.57633252335118 5.9303460790928701 0.2776253945986113 1.5326835668816317 173.50000000000003 3.0149500000000002 79.500000000000014 79.540623671289779 34.500000000000007 43.066696695024909 1.023254193883371
decision_type=2 2 2 2 2 2 2 2 2 2 2 2 2 2 2 2 2 2 2 2 2 2 2 2 2 2 2 2 2 2
left_child=19 2 3 4 11 6 14 12 27 -8 -9 -2 -7 21 -4 -10 -15 -18 -6 20 23 -3 26 24 25 -1 -23 -5 -21 -30
right_child=1 13 5 8 18 7 9 10 15 -11 -12 -13 -14 16 -16 -17 17 -19 -20 28 -22 22 -24 -25 -26 -27 -28 -29 29 -31
leaf_value=0.042337703677876704 -0.019479615609541728 0.07220795532675793 -0.01906342614796315 -0.049032227351638119 -0.018977614352099284 -0.026736764026521889 0.081406084918336785 0.062885696535464247 -0.013681403167357898 0.012520850676499926 -0.0089111506022297518 0.014223368904201323 0.026918509315595581 -0.047658233143741804 0.02440702698135859 0.032797715185570113 -0.014332609395529753 0.05162670851904097 0.023494505568551177 0.030476447109144905 -0.029046112504979439 -0.029371888789989704 -0.029105981633868197 -0.010144759421827776 0.005077847821030994 0.019050085938214115 0.028832395966173558 -0.015957468266870594 -0.016908547557196296 0.023152415989151284
leaf_count=243 138 31 409 114 412 1503 36 33 129 252 1033 1442 57 53 76 151 70 47 64 53 42 32 36 100 236 456 325 839 239 66
internal_value=0 -0.0701211 -0.118399 0.000922217 0.118031 -0.24314 0.0426248 -0.334679 -0.255418 0.447121 -0.131157 0.225056 -0.49314 0.336635 -0.216788 0.215356 -0.123971 0.199847 -0.246861 0.254677 0.343529 0.493407 0.413356 0.380957 0.43204 0.540052 0.498382 -0.405397 -0.0282804 -0.150459
internal_count=8717 7282 6688 3289 2056 3399 773 2626 1233 288 1066 1580 1560 594 485 280 170 117 476 1435 1077 424 393 1035 935 699 357 953 358 305
shrinkage=0.05


Tree=29
num_leaves=31
num_cat=0
split_feature=13 11 20 1 17 2 16 18 9 5 2 5 4 14 6 6 15 6 12 14 1 7 4 15 13 11 9 11 11 3
split_gain=24.8227 17.3152 20.9285 18.07 13.787 18.1527 13.3538 15.873 16.6252 13.4005 10.1746 10.1993 12.08 10.1333 9.71609 9.40764 9.84017 10.915 12.6441 9.38867 8.64149 10.3396 8.5433 9.23141 8.80377 8.50915 8.36929 7.56141 7.50691 7.25661
threshold=24.500000000000004 43.332200000000007 65.048678937000957 3.4861802690548078 1.1475401454735248 54.342814363896068 1.1220537204089571 88.604427317085154 1.6075677602718585 1.0687412561495868 50.360249591445665 1.0936266870314324 -74.566806381851322 270.50000000000006 1.0535339316636811 1.0390444922212245 0.19500000000000003 0.97050112086175422 3.7003500000000007 255.50000000000003 1.4982911091014108 1.0179018893945044 -132.30842958303023 4.4850000000000012 35.500000000000007 135.24450000000004 1.2851028961093063 101.99750000000002 11.91905 0.79930354153708427
decision_type=2 2 2 2 2 2 2 2 2 2 2 2 2 2 2 2 2 2 2 2 2 2 2 2 2 2 2 2 2 2
left_child=15 6 3 4 -3 -6 14 22 9 -9 -4 12 -12 -10 20 16 29 26 19 -19 21 -2 24 -24 -8 27 -18 -5 -17 -1
right_child=1 2 10 25 5 -7 7 8 13 -11 11 -13 -14 -15 -16 28 17 18 -20 -21 -22 -23 23 -25 -26 -27 -28 -29 -30 -31
leaf_value=0.023049231790018408 0.0082011791989338653 -0.0026246013620591386 -0.033561564780392114 -0.019429789873093753 0.055488444727880219 0.0026260830758926164 0.033469226704386901 0.065005763627302385 -0.017036000996882114 0.0078766035140208617 0.055510739352527372 -0.024317172592622699 -0.0067674410986467114 0.016137283781736022 0.046212776376862302 -0.010352052975701388 0.013189744685721436 0.04672552814362288 -0.021700644055072601 0.00011862196325298038 -0.024077772444344867 -0.021019165847866117 0.030657300543271451 0.0079794966645935911 -0.03710634668654153 -0.04961125548379676 -0.021998044303858499 0.037597443638680075 0.041073703692912841 0.0013153532599587115
leaf_count=534 466 673 673 245 140 193 31 66 825 396 57 602 442 137 40 38 114 128 90 77 497 292 484 420 73 146 349 47 175 267
internal_value=0 -0.0747175 -0.215259 0.000912252 0.168259 0.529468 0.0312537 0.128992 -0.0399653 0.316345 -0.408972 -0.261786 0.00723626 -0.227652 -0.174875 0.221452 0.160685 -0.0273615 0.290968 0.569033 -0.216338 -0.0577445 0.337934 0.406617 -0.280827 -0.45624 -0.255711 -0.205416 0.635365 0.321128
internal_count=8717 6945 3218 1444 1006 333 3727 2432 1424 462 1774 1101 499 962 1295 1772 1559 758 295 205 1255 758 1008 904 104 438 463 292 213 801
shrinkage=0.05


Tree=30
num_leaves=31
num_cat=0
split_feature=8 6 20 13 6 16 0 6 2 9 0 7 17 1 20 7 13 6 4 3 20 2 9 4 16 13 14 1 15 15
split_gain=23.2706 19.6221 16.7213 16.4428 11.7 13.5844 15.0316 11.4479 11.0142 9.03036 12.2645 10.4315 9.86287 8.44528 8.40497 17.342 9.92136 8.34142 8.65219 8.65099 8.28975 8.05666 8.05463 7.84253 7.68315 7.49165 7.03965 8.51329 6.7487 6.71214
threshold=0.7657836804585314 0.80027634048750695 34.230429312920855 22.500000000000004 0.94326453956188183 1.1335981439075866 3.4268257574637757 1.0400397999835524 90.095769859789272 2.6991512334587355 2.6374212009156932 1.0091528485488608 1.0842993230331759 2.6798461889560934 90.695888806353921 1.0842415654287609 72.500000000000014 1.0359532625109553 -7.3187493317949004 0.60031784858050019 15.830241187384003 38.725578701386375 1.1132733053410717 -88.705336248653992 1.4039139356853731 112.50000000000001 250.50000000000003 1.6550228020878019 6.6850000000000014 1.0650000000000002
decision_type=2 2 2 2 2 2 2 2 2 2 2 2 2 2 2 2 2 2 2 2 2 2 2 2 2 2 2 2 2 2
left_child=2 14 13 17 8 7 -7 -6 23 10 11 -3 25 20 15 -2 24 18 22 -20 -1 -14 -4 -5 -17 -12 -11 -28 -22 -15
right_child=1 9 3 4 5 6 -8 -9 -10 26 12 -13 21 29 -16 16 -18 -19 19 -21 28 -23 -24 -25 -26 -27 27 -29 -30 -31
leaf_value=0.066297727963342948 -0.045856313286899208 0.054749860633932237 0.047765804806396223 -0.0607483722151195 -0.012894496221615188 0.025082026017509113 -1.7953496971386972e-05 0.032390715651636377 0.028376662476196121 -0.025212855748588999 -0.026084454486299664 -0.010544362496727579 -0.03701512849263499 -0.019458007813411213 0.064226988677081973 0.02284981207413081 0.069704486087042675 0.036331238448084814 0.011346078946885869 -0.022259820267512706 0.030117308751012397 -0.00013526518144059554 0.012588093310276313 -0.016832876300757124 -0.031488745915116974 -0.0032575043222135415 0.047469647948419826 -0.020532323594395659 -0.021397752522313931 0.035440042745128832
leaf_count=59 61 88 88 69 951 452 835 75 57 964 782 70 104 77 37 149 40 151 219 158 246 1431 429 531 37 377 43 67 31 39
internal_value=0 -0.145646 0.103545 0.053107 -0.0404139 0.0336978 0.179435 -0.179796 -0.327889 -0.206909 -0.134021 0.544607 -0.175789 0.480452 0.344894 0.221503 0.459195 0.279746 0.197375 -0.0577558 0.641528 -0.0500512 0.374615 -0.437172 0.259004 -0.368231 -0.420355 0.147496 0.487649 -0.024586
internal_count=8717 4250 4467 4015 2970 2313 1287 1026 657 3926 2852 158 2694 452 324 287 226 1045 894 377 336 1535 517 600 186 1159 1074 110 277 116
shrinkage=0.05


Tree=31
num_leaves=31
num_cat=0
split_feature=8 6 20 13 6 2 16 0 6 16 17 9 0 2 18 7 4 1 20 20 7 13 19 3 16 8 17 3 3 17
split_gain=21.1002 17.7942 15.0257 14.9545 13.2283 11.6931 10.0501 14.0502 12.496 8.85649 11.8853 8.36898 10.994 9.09601 10.1688 9.05262 7.64297 7.5729 7.47721 7.41908 15.8364 8.82251 7.38198 7.09282 6.95866 6.62312 10.4577 7.5272 7.3308 6.13994
threshold=0.7657836804585314 0.80027634048750695 34.230429312920855 18.500000000000004 0.94326453956188183 90.095769859789272 1.1335981439075866 3.4035349725389969 1.0400397999835524 1.3733273430391066 1.3049960309404303 2.6991512334587355 2.6374212009156932 37.144980039354671 95.162437479924762 1.0091528485488608 41.040830452188757 2.6798461889560934 15.830241187384003 90.695888806353921 1.0842415654287609 72.500000000000014 75.510620712162407 0.53749279123414084 1.4039139356853731 2.811801353485329 1.2041854320902179 0.17881829026586063 0.84437661476553039 1.0400123670668036
decision_type=2 2 2 2 2 2 2 2 2 2 2 2 2 2 2 2 2 2 2 2 2 2 2 2 2 2 2 2 2 2
left_child=2 19 17 9 5 23 8 -8 -6 10 16 12 15 22 -15 29 -4 18 -1 20 -2 24 -14 -5 -22 26 27 -13 -28 -3
right_child=1 11 3 4 6 -7 7 -9 -10 -11 -12 25 13 14 -16 -17 -18 -19 -20 -21 21 -23 -24 -25 -26 -27 28 -29 -30 -31
leaf_value=0.062818720283417617 -0.044566701207356611 0.013642558752571671 0.019213889971943617 -0.012844620834442037 -0.010594522371431716 0.027466041828848348 0.023443051255705737 0.00044968179322509401 0.033066849400603927 -0.017746723968745541 0.054710597535414122 0.027269377014113839 -0.0066245083778450967 -0.00027010858918048784 -0.022658227782146892 -0.010083136177487155 -0.014332983565199825 -0.0011731052278198227 0.023066465263980665 0.06021526557873004 0.02169004667689961 0.065661925577874744 -0.036805659608367375 -0.04052099803348911 -0.030250686624653696 -0.033637679936434239 0.029021003442401019 -0.031279925008578853 -0.019719007602824315 0.078373722867260159
leaf_count=59 61 40 502 457 1000 64 485 955 87 77 88 41 248 1664 448 70 96 116 277 37 149 40 334 204 37 460 124 370 79 48
internal_value=0 -0.139383 0.0983716 0.0504486 -0.0227038 -0.313507 0.0522781 0.16792 -0.127913 0.314269 0.392944 -0.198066 -0.127994 -0.168024 -0.0926202 0.509608 0.280346 0.455078 0.60709 0.327984 0.211009 0.435997 -0.465658 -0.422482 0.246346 -0.405263 -0.235295 -0.497192 0.212985 1.00979
internal_count=8717 4250 4467 4015 3252 725 2527 1440 1087 763 686 3926 2852 2694 2112 158 598 452 336 324 287 226 582 661 186 1074 614 411 203 88
shrinkage=0.05


Tree=32
num_leaves=31
num_cat=0
split_feature=8 7 19 14 9 9 20 7 17 1 1 15 14 13 11 7 20 3 8 18 4 0 13 9 15 0 20 6 20 6
split_gain=19.3165 17.8166 14.0779 15.6485 16.4739 13.3166 12.9984 16.4004 14.6561 9.78056 8.99309 9.46814 8.57679 7.93472 7.82794 7.99134 8.88416 6.90793 6.66892 6.65124 6.57724 7.55539 5.76111 6.894 7.82211 5.56032 5.12847 5.06552 5.04198 6.08495
threshold=0.12191189723793282 1.1166534693433079 52.216394255489959 123.50000000000001 0.69582576500855853 3.2737062975138058 65.95700020911751 1.009550117396768 1.0617014281858699 1.2392030253033666 3.4861802690548078 4.8546500000000004 587.50000000000011 19.500000000000004 61.503050000000009 1.1590222931084939 71.466125433497055 0.32368805407425022 0.2776253945986113 93.986598447513856 28.57633252335118 5.9303460790928701 173.50000000000003 1.5890683215527839 5.4750000000000005 2.5232891043407224 54.875337044396005 0.78175143008647585 43.066696695024909 1.023254193883371
decision_type=2 2 2 2 2 2 2 2 2 2 2 2 2 2 2 2 2 2 2 2 2 2 2 2 2 2 2 2 2 2
left_child=20 2 3 4 -2 6 8 -8 -4 17 11 -5 -11 -6 18 -16 26 -7 -3 -20 21 22 23 24 -1 -25 -17 -21 -22 -30
right_child=1 14 5 10 13 9 7 -9 -10 12 -12 -13 -14 -15 15 16 -18 -19 19 27 28 -23 -24 25 -26 -27 -28 -29 29 -31
leaf_value=0.024063567218039254 0.056555142549473074 0.067045419247370119 -0.012421271151352111 0.033005935838020133 0.037689608865785922 0.023992472336236987 -0.0012488230025058285 -0.022276777005550318 0.0099829951279782822 -0.028407553208704403 -0.0042158629298883017 0.098252467636805244 0.015950370417772097 -0.011199840189581145 -0.046738014154338821 0.0098503422414567866 0.04838707631395444 -0.012526186844577944 0.024699683905000692 0.015863585164162447 0.02720391510270739 -0.029044339946346476 -0.0100520277060902 0.045588829953389733 0.068191736763345612 0.010184190148210901 -0.049681376972325123 -0.03755745950227693 -0.016282361631086536 0.020046573742553513
leaf_count=225 57 31 699 80 46 102 1368 1075 1362 974 50 38 64 523 53 39 47 250 308 40 53 42 100 54 55 601 31 45 239 66
internal_value=0 -0.0606157 -0.102818 0.189201 0.0028094 -0.147703 -0.0821679 -0.210205 0.0596227 -0.365967 0.775913 1.07894 -0.500169 -0.131642 0.290237 -0.132617 0.172059 -0.0269602 0.433526 0.357361 0.215938 0.29617 0.33155 0.377768 0.650478 0.260382 -0.299104 -0.189459 -0.0405153 -0.153738
internal_count=8717 7282 6688 794 626 5894 4504 2443 2061 1390 168 118 1038 569 594 170 117 352 424 393 1435 1077 1035 935 280 655 70 85 358 305
shrinkage=0.05


Tree=33
num_leaves=31
num_cat=0
split_feature=13 20 0 11 10 11 15 8 11 11 3 17 9 3 8 13 19 20 2 8 7 2 10 11 6 10 7 20 9 20
split_gain=18.3743 13.2279 12.8932 12.704 14.3582 12.8902 20.6994 12.5181 10.4987 9.81654 9.51249 9.58693 12.8463 12.5463 8.90541 8.71789 7.97998 7.97151 7.44831 7.04441 6.94366 6.45762 6.201 8.78291 6.15548 5.7818 5.87601 5.62461 7.87265 6.53017
threshold=41.500000000000007 46.483353404844856 3.1797342404359168 43.332200000000007 -48.240444891082795 -4.3630999999999984 2.1450000000000005 2.6825374398766413 -12.961249999999998 9.252200000000002 0.032446447230929994 1.0467448854016235 1.10073485155689 0.81529632406450203 0.078348031957709605 12.500000000000002 30.930889229818852 28.797397866563102 119.33429064642776 0.91226322784928027 1.0170486684332185 68.968794004801708 -10.996913770257262 48.402200000000008 0.9114644916501099 -17.21471384090874 1.0193851258721442 65.70887809325616 0.43881790967512491 60.036910536051217
decision_type=2 2 2 2 2 2 2 2 2 2 2 2 2 2 2 2 2 2 2 2 2 2 2 2 2 2 2 2 2 2
left_child=2 7 17 4 20 21 -7 8 -2 -10 -4 22 13 -13 -11 -14 -5 -1 25 -19 -3 -6 23 -12 -24 -9 -27 29 -29 -18
right_child=1 3 10 16 5 6 -8 18 9 14 11 12 15 -15 -16 -17 27 19 -20 -21 -22 -23 24 -25 -26 26 -28 28 -30 -31
leaf_value=0.063278771548029175 -0.020529174571215659 0.0071056379866453086 -0.051052483745165494 0.033959948319869378 -0.040400693562391295 0.026019701656923206 -0.0069881320107070188 -0.058053338878544337 0.066756895563158503 0.064983158463779209 0.040882120084501775 0.035415176837095982 0.020034550310093019 -0.0066056076871845396 0.011393106094206958 -0.00061241935108508028 -0.017997969046392431 0.021392606362180412 0.028508811288728265 -0.028454702280217254 0.078749043715207245 -0.0023791692287242743 -0.0054843187637360364 -0.034337130143615745 -0.03908261316804177 0.009179056502345127 -0.027353759703326076 0.034753274582455834 -0.025014838372062101 0.011637339686197637
leaf_count=46 100 33 38 47 215 324 1495 58 46 35 58 297 264 120 546 1802 349 407 47 56 36 102 166 38 159 134 199 31 1274 195
internal_value=0 -0.100842 0.120525 -0.171671 -0.0511642 -0.0899377 -0.0124413 0.120365 0.286107 0.392769 0.0603856 0.0758931 0.125977 0.472094 0.307749 0.0498936 -0.336522 0.438351 -0.248489 0.348567 0.951205 -0.55759 -0.266415 0.266538 -0.42943 -0.391803 -0.252684 -0.365614 -0.46295 -0.145514
internal_count=8717 5266 3451 4101 2205 2136 1819 1165 727 627 2942 2904 2483 417 581 2066 1896 509 438 463 69 317 421 96 325 391 333 1849 1305 544
shrinkage=0.05


Tree=34
num_leaves=31
num_cat=0
split_feature=8 6 15 12 15 1 3 9 17 0 3 5 3 0 9 0 17 13 19 2 3 20 14 16 19 13 7 14 16 1
split_gain=16.8911 14.6977 12.6402 12.6765 12.0812 11.0286 10.351 10.1375 16.0011 12.5967 10.6544 9.98502 9.82518 7.99115 7.92119 9.693 8.98147 8.77457 7.31656 7.30846 7.25768 9.40772 7.19827 7.10844 6.97919 6.77369 6.23994 6.15532 7.64296 14.4346
threshold=0.7657836804585314 0.79069510798004328 1.6065000000000003 4.6136500000000007 20.605000500000006 1.4187729099412627 0.79652586206896558 2.7618141620543741 1.1081157327550384 2.9115209603625476 0.2624467951927893 1.0282551224627403 0.059114117518622104 3.2424267430751219 2.6991512334587355 2.6374212009156932 1.0842993230331759 333.50000000000006 50.579937840905011 38.725578701386375 0.032446447230929994 15.830241187384003 308.50000000000006 1.1416366185348508 83.255294305050811 112.50000000000001 1.0091528485488608 250.50000000000003 1.2151811489376254 2.0406778277928583
decision_type=2 2 2 2 2 2 2 2 2 2 2 2 2 2 2 2 2 2 2 2 2 2 2 2 2 2 2 2 2 2
left_child=2 -2 3 6 7 24 20 8 12 -10 13 -7 -4 -9 15 17 25 26 -12 -18 -1 -22 -13 -8 -5 -17 -3 -16 -29 -30
right_child=1 14 4 5 -6 11 23 10 9 -11 18 22 -14 -15 27 16 19 -19 -20 -21 21 -23 -24 -25 -26 -27 -28 28 29 -31
leaf_value=-0.03022805591766561 0.015917284567762823 0.03222323826286938 0.044780655301969438 -0.00078890409019461707 0.048911810127875148 0.033858441410588046 -0.037414315270461927 0.035500341303936034 0.063938282339784644 0.010832339218536163 0.028276674108540796 -0.038949707823439345 -0.010901021059052799 -0.017717511344389415 -0.023205139570347998 -0.024194255490598282 -0.035138712105078539 0.075509639694207292 -0.021567911843386682 0.00072828797231010113 0.070849801568079282 0.019050334593017294 0.01282379926621925 0.0050651473328885829 0.053691574105590716 -0.0022955161056491934 -0.02522404010621522 -0.044447952994743814 0.080083068248152964 -0.022361945800628457
leaf_count=32 296 65 41 75 57 40 60 91 56 584 40 193 864 59 967 786 104 35 687 1448 38 1193 37 270 50 381 58 32 34 44
internal_value=0 -0.126067 0.0877449 0.214877 -0.0258258 -0.150821 0.298796 -0.051848 0.0606745 0.314596 -0.251741 -0.41314 -0.157846 0.291234 -0.177799 -0.110223 -0.147958 0.486435 -0.372619 -0.0292566 0.389991 0.417575 -0.589066 -0.0390482 0.394504 -0.334827 0.151736 -0.382497 0.148214 0.537253
internal_count=8717 4250 4467 1988 2479 395 1593 2422 1545 640 877 270 905 150 3954 2877 2719 158 727 1552 1263 1231 230 330 125 1167 123 1077 110 78
shrinkage=0.05


Tree=35
num_leaves=31
num_cat=0
split_feature=13 20 19 8 0 6 6 1 11 3 0 8 12 3 17 16 2 3 20 9 5 12 8 16 1 16 17 19 9 6
split_gain=16.0743 11.9775 12.8633 11.3137 11.256 11.2251 11.7405 12.351 10.2612 9.31021 13.2984 8.87388 10.1842 8.35461 8.51644 12.1951 10.5038 9.32654 7.72757 7.65324 7.48993 6.76704 6.50445 6.4944 6.11286 7.11433 6.81289 5.02277 4.96439 7.57281
threshold=41.500000000000007 51.459146473060059 22.118444734211753 2.2105846559941043 3.1921908410775846 1.0322524838591949 0.80027634048750695 2.4111370517928301 -12.961249999999998 0.16825000000000004 4.0290375854825831 7.4240254902097744 9.4500000000000011 0.032446447230929994 1.0895429500008402 1.0857925594526578 74.412045273479677 0.19371262826410732 28.797397866563102 3.7954385990081749 1.3090494757431339 1.3733000000000002 0.91226322784928027 1.3556272238317912 4.9204459421921483 1.1194155908811771 1.0329796517952101 84.824338102616721 5.1246521273646222 0.97657567611473273
decision_type=2 2 2 2 2 2 2 2 2 2 2 2 2 2 2 2 2 2 2 2 2 2 2 2 2 2 2 2 2 2
left_child=4 3 -3 8 18 6 23 -8 -2 21 -11 12 -7 -6 16 27 17 -15 -1 -17 -18 -10 28 -4 25 -5 -27 -16 -20 -30
right_child=1 2 5 24 13 11 7 -9 9 10 -12 -13 -14 14 15 19 20 -19 22 -21 -22 -23 -24 -25 -26 26 -28 -29 29 -31
leaf_value=0.060391325754577986 -0.020736293958493392 0.060413531600074968 0.059531427804194625 -0.034004411388736396 -0.048450613477215854 0.015886598961760329 -0.0087517069275734743 -0.026573106700359707 0.086263768532518686 3.513835667577356e-05 0.035791921284572023 -0.025021210950513226 -0.053983341031373921 0.0294923682534496 0.085730268673753454 0.0095308817823618747 0.066218538977603367 -0.017486874784545935 0.026990243995129705 -0.0070139081537690358 0.0060456907940356543 0.027243545632271861 -0.028178979964006225 -0.0052368947790956376 -0.048176956440340812 0.049345740526958698 -0.0034851930310716909 0.021996517047272089 -0.031608759156224568 0.022869642090501508
leaf_count=47 108 36 38 126 38 467 2027 1069 32 418 205 138 35 64 32 1465 36 681 301 491 88 70 58 34 80 48 335 31 48 71
internal_value=0 -0.0949449 -0.171773 0.091161 0.112558 -0.187493 -0.254368 -0.283321 0.246853 0.34345 0.233315 0.0988228 0.232228 0.0552564 0.0697477 0.144922 -0.134371 -0.259814 0.404244 0.114103 0.426136 0.9468 0.317277 0.598861 -0.205718 -0.109924 0.0569889 1.12044 0.391285 0.0281352
internal_count=8717 5266 3844 1422 3451 3808 3168 3096 833 725 623 640 502 2926 2888 2019 869 745 525 1956 124 102 478 72 589 509 383 63 420 119
shrinkage=0.05


Tree=36
num_leaves=31
num_cat=0
split_feature=13 1 15 11 20 15 4 3 14 6 19 7 8 0 10 4 2 12 11 2 5 18 20 12 15 9 0 0 9 17
split_gain=15.4571 14.0348 21.1149 17.9167 15.6233 12.4303 11.6974 10.2211 12.3552 10.1241 9.11319 8.17643 14.0335 10.8542 9.78033 13.4079 8.11624 7.74026 10.6971 7.67218 6.402 8.76555 6.35791 6.31042 6.0638 9.12853 7.53421 8.03137 5.42356 4.9543
threshold=12.500000000000002 2.5131079827780916 1.1435500000000001 67.321300000000022 90.0549046855988 20.605000500000006 51.779372347792837 0.55707142857142877 182.50000000000003 0.94531758690754852 54.115107060013507 0.95968410908707502 7.4240254902097744 6.568734432707716 62.553251822626031 45.561510407583903 60.206275074276434 5.9715500000000006 -109.98849999999999 85.971693078052851 1.0766190950560504 89.704623020891759 36.392064384924907 4.4765000000000006 4.4850000000000012 3.9614583087439543 3.2623602785166246 3.5841816483194333 1.275817739034673 1.2288736935083022
decision_type=2 2 2 2 2 2 2 2 2 2 2 2 2 2 2 2 2 2 2 2 2 2 2 2 2 2 2 2 2 2
left_child=24 2 4 5 7 10 16 9 -9 -2 -4 12 14 17 15 -3 -6 18 -13 -15 29 -22 -19 -16 25 26 -1 -28 -29 -5
right_child=1 11 3 20 6 -7 -8 8 -10 -11 -12 13 -14 19 23 -17 -18 22 -20 -21 21 -23 -24 -25 -26 -27 27 28 -30 -31
leaf_value=0.064920703483204237 0.0021520968128386584 0.018838890123946666 0.018369607566260979 -0.045288997553978035 -0.0086213222424767633 0.03967262854576635 0.088145990940855942 -0.013323248369565346 0.017161459140767107 0.028563039345246562 -0.0037128925910671186 -0.058516976764034702 -0.038937603995386344 -0.03017431240998952 0.012583649023148114 -0.036362781302890272 0.043403445283172241 0.0046824942245958468 -0.0078150437720452774 0.021571028205833481 0.0053018168469488487 -0.034887474610598594 -0.032195001524704073 0.085449595250709637 0.053725058886919919 -0.022728675629118029 -0.027241798343513868 0.0017348391934533401 0.034397487568622119 0.00213562276718183
leaf_count=39 342 300 260 242 59 103 47 491 249 408 2477 69 121 60 31 95 108 94 1532 196 179 166 582 40 50 63 41 83 157 33
internal_value=0 -0.0292565 0.0435371 -0.070434 0.245006 0.00734381 0.802397 0.160644 -0.0324988 0.344028 -0.0249181 -0.166128 0.107234 -0.227286 0.284382 0.12387 0.523569 -0.286589 -0.198453 0.230684 -0.462649 -0.239531 -0.534789 1.1021 0.379956 0.291571 0.431188 0.313492 0.457458 -0.757865
internal_count=8717 8284 5164 3460 1704 2840 214 1490 740 750 2737 3120 587 2533 466 395 167 2277 1601 256 620 345 676 71 433 383 320 281 240 275
shrinkage=0.05


Tree=37
num_leaves=31
num_cat=0
split_feature=13 1 15 11 20 15 4 3 5 6 17 9 8 7 4 2 7 5 20 17 5 13 4 6 12 15 9 0 0 8
split_gain=13.9592 12.7411 19.0209 16.4489 13.9294 11.0523 10.1565 9.16116 11.207 9.04735 9.01614 7.45314 10.4392 9.53125 8.60773 7.24995 6.14478 6.04012 8.45367 5.4721 12.4013 12.0241 10.3694 8.47346 5.95666 5.44789 8.24331 6.87621 7.24261 5.15282
threshold=12.500000000000002 2.5131079827780916 1.1435500000000001 67.321300000000022 90.0549046855988 20.605000500000006 51.779372347792837 0.55707142857142877 1.0648547017696406 0.94858603173662848 1.2231933104260133 1.5890683215527839 2.8693005155568971 0.95248124295240333 -67.427094647306845 60.206275074276434 0.94301697081910818 1.0766190950560504 52.142732376122957 1.0877968113735801 1.0456137751192629 22.500000000000004 -3.2359317342109728 0.84895970551808009 2.3058500000000004 4.4850000000000012 3.9614583087439543 3.2623602785166246 3.5841816483194333 0.0429180739058048
decision_type=2 2 2 2 2 2 2 2 2 2 2 2 2 2 2 2 2 2 2 2 2 2 2 2 2 2 2 2 2 2
left_child=25 2 4 5 7 10 15 9 -9 -2 -4 19 13 16 -15 -6 -13 -5 -19 21 -21 22 -3 -22 -23 26 27 -1 -29 -30
right_child=1 11 3 17 6 -7 -8 8 -10 -11 -12 12 -14 14 -16 -17 -18 18 -20 20 23 24 -24 -25 -26 -27 -28 28 29 -31
leaf_value=0.06203090147628712 0.0025536434316035623 0.071365318616097961 -0.0040562955149068616 -0.036849199414062832 -0.0082094116901695515 0.037131193649402504 0.082041318082958226 -0.028268437523053386 0.0059266281246360209 0.027358514427023868 0.015506175887441912 0.0019495250445487567 -0.029098633317239525 -0.033990841814275377 -0.006614879834003877 0.040942071547351661 0.046302044545032527 0.01321683108710563 -0.027052031059964694 0.069570300482112532 0.039476947758623045 0.022540240521601303 -0.016390405138186955 -0.0027892860533277365 -0.027328222029843793 0.0509235969002408 -0.021689363284935131 -0.025953909899646604 -0.0019728526330124456 0.031450798427058536
leaf_count=39 356 38 2403 275 59 103 47 185 555 394 334 158 642 214 841 108 68 121 224 35 59 41 33 614 377 50 63 41 67 173
internal_value=0 -0.027961 0.0413244 -0.0671546 0.232167 0.00695907 0.756291 0.152352 -0.0309662 0.325288 -0.0237041 -0.158826 -0.261584 -0.14844 -0.244074 0.495363 0.319858 -0.446026 -0.229429 -0.0097205 0.114781 -0.231182 0.616992 0.0383177 -0.429674 0.360962 0.277075 0.409458 0.297425 0.433737
internal_count=8717 8284 5164 3460 1704 2840 214 1490 740 750 2737 3120 1923 1281 1055 167 226 620 345 1197 708 489 71 673 418 433 383 320 281 240
shrinkage=0.05


Tree=38
num_leaves=29
num_cat=0
split_feature=8 7 9 20 7 8 9 14 7 3 13 9 11 0 2 7 18 5 13 3 9 11 4 5 0 17 7 2
split_gain=12.7976 12.8113 11.1874 12.0996 13.9041 13.0067 11.882 11.7281 14.6043 10.7444 9.45888 9.24515 7.91816 6.83345 9.86461 6.31619 5.76838 8.38837 7.00786 7.24252 7.23523 6.28069 5.95174 5.81852 5.4297 6.48139 5.35047 4.64116
threshold=0.12191189723793282 1.1166534693433079 3.3486768687318569 68.355478957578015 1.009550117396768 1.7205863320153794 1.3688659791505753 525.00000000000011 0.99436399013210475 0.38398283094936908 34.500000000000007 0.83085573635457177 -44.17669999999999 4.3047512338336285 85.971693078052851 0.97834728970130047 96.616249565235719 1.3549149140789258 175.50000000000003 0.10225039104512128 2.0304148175805294 35.664850000000008 32.461317687276683 1.0950630062336613 7.5279129856263038 1.5326835668816317 0.96256571413757885 26.864207974405705
decision_type=2 2 2 2 2 2 2 2 2 2 2 2 2 2 2 2 2 2 2 2 2 2 2 2 2 2 2 2
left_child=16 2 3 5 6 12 -5 9 -9 15 -7 -6 -2 -3 -15 -4 17 18 20 -20 21 -1 -22 -18 25 -16 -11 -21
right_child=1 13 7 4 11 10 -8 8 -10 26 -12 -13 -14 14 24 -17 23 -19 19 27 22 -23 -24 -25 -26 -27 -28 -29
leaf_value=0.032821877370154538 -0.016575540107145917 0.055495101027223548 -0.022820528959950105 0.016097517946156582 0.0064804414544760245 -0.046311844886912749 -0.0084726608850861102 0.069222695098555262 -0.020340264393535409 -0.0088422484072063871 -0.0041335632880082256 -0.024992637914039068 0.012171811815609066 -0.043150347411060136 0.013492603825646536 0.012497675056605081 -0.054231156857862312 -0.034430832148112676 0.033083275983888931 -0.056841386000255248 0.012588129764058986 0.0072592899925842226 -0.011394190164813731 0.0047987772657751985 0.044543190355336014 -0.03000319467580442 -0.030693815482338585 -0.00791206778830803
leaf_count=318 141 41 122 454 176 102 983 44 51 268 983 894 1496 52 391 225 41 42 32 54 530 161 153 48 59 51 749 56
internal_value=0 -0.0502706 -0.0866132 -0.0336263 -0.165479 0.0764719 -0.00135765 -0.286939 0.481786 -0.356141 -0.166715 -0.388848 0.194222 0.247855 0.186157 0.0128419 0.175752 0.208052 0.239176 -0.246592 0.288839 0.486995 0.150293 -0.386114 0.264575 0.186864 -0.500113 -0.542549
internal_count=8717 7282 6688 5229 2507 2722 1437 1459 95 1364 1085 1070 1637 594 553 347 1435 1346 1304 142 1162 479 683 89 501 442 1017 110
shrinkage=0.05


Tree=39
num_leaves=31
num_cat=0
split_feature=17 8 9 1 14 11 2 19 20 20 3 12 8 15 15 5 9 10 0 7 18 15 17 13 18 14 19 20 0 0
split_gain=12.4617 12.9367 13.321 10.089 9.61132 10.4614 9.19299 8.40658 8.35075 9.44938 10.0168 7.46627 8.27009 7.44966 7.1768 6.97498 6.74502 6.99059 8.3637 6.48737 8.34108 9.90014 6.91658 6.07824 5.75188 7.06384 5.45651 5.36651 5.22712 4.81482
threshold=1.0551848614100756 3.6345508870361289 0.7439421564485591 2.4258110795454555 1452.5000000000002 -44.17669999999999 35.302650721623785 87.390855217349326 85.848172199312216 55.205392900561812 0.10225039104512128 5.8817500000000011 3.8264218245911201 -0.75499999999999989 0.89050000000000018 1.1510397759195417 1.5775279696839799 -9.6355671351307919 2.7572612372792373 1.0205186256540937 86.690703723660974 4.0450000000000008 1.0314180100793815 61.500000000000007 88.427004437209021 66.500000000000014 64.310616284300522 72.351571864423832 8.0636145218068442 4.3047512338336285
