tree
version=v2
num_class=1
num_tree_per_iteration=1
label_index=0
max_feature_idx=26
objective=binary sigmoid:1
feature_names=average_inner_amplitude average_outer_amplitude average_turn_rate max_decrease pb_height pe_height profit_growth sma10_250 sma120_250 sma50_120 variance volume_ratio adjust_period business_growth pe pb mkt_cap new_high_days days_with_lower_price days_from_bottom roe eps close_sma50 eps_growth rps50 rps120 rps250
feature_infos=[0.053030242646095828:6.7396665370694695] [0.120591601902653:11.140937040093016] [0:27.631952941176468] [0.2884498538563473:30] [0:1] [0:1] [-1144021.4326049495:584817.11675126909] [0.76639779336440572:6.1539077267885371] [0.53931983030062647:1.92322305890428] [0.74925723432239177:2.0328973955296696] [2.627188605555557e-05:278.68762908442329] [0.0010645774199536634:49.080485795046712] [15:1172] [-201.19128824856335:416820.65011194511] [-171232:3031380] [-2556.6300000000001:10079] [0:23122] [0:3161] [101:3161] [0:3159] [-729.88897699999995:1104.900024] [-4.4104000000000001:14.58] [1.0000828350858773:10.788209844038864] [-57050:107850] [0.16927634363098301:99.961389961389997] [0.084638171815484498:99.958471760797295] [0.51020408163265096:99.968671679197996]
tree_sizes=2529 2541 2553 2534 2556 2561 2545 2549 2571 2550 2553 2541 2565 2563 2551 2560 2559 2566 2549 2533 2556 2558 2547 2550 2562 2575 2556 2568 2556 2549 2562 2555 2557 2563 2550 2556 2550 2562 2573 2542 2592 2560 2580 2560 2565 2554 2542 2571 2552 2565 2562 2537 2531 2547 2558 2533 2567 2564 2566 2509 2532 2554 2524 2567 2535 2549 2572 2534 2521 2357 2552 2546 2560 2560 2544 2548 2552 2509 2554 2537 2548 2501 2547 2518 2554 2475 2284 2544 2543 2505 2546 2505 2512 2490 2544 2472 2526 2537 2553 2506 2549 2504 2495 2496 2526 2516 2504 2522 2499 2535 2519 2518 2513 2515 2530 2523 2543 2535 2520 2471 2479 2524 2519 2520 2543 2555 2501 2513 2536 2536 2530 2548 2434 2484 2494 2545 2517 2543 2456 2519 2527 2471 2508 2480 2526 2483 2525 2510 2523 2514

Tree=0
num_leaves=31
num_cat=0
split_feature=10 18 21 4 15 18 1 7 26 18 11 7 1 18 25 19 12 4 13 17 16 12 1 19 8 17 7 7 1 26
split_gain=1110.65 516.643 388.136 285.853 277.973 226.915 193.449 222.271 181.569 170.564 159.67 143.442 113.375 109.236 89.2251 83.788 80.6378 80.1806 78.1153 74.7508 75.255 66.2077 56.0617 53.3444 50.2194 48.424 45.8715 44.8386 43.7721 43.0813
threshold=0.042148437770930351 524.50000000000011 1.0000000180025095e-35 0.42590659553081267 3.7162500000000005 2428.5000000000005 3.2040269275959883 1.0444139616733146 55.454881207385164 404.50000000000006 0.17638911932775528 1.2625902707071217 2.6350201844649193 2314.5000000000005 72.605368290543154 355.50000000000006 65.500000000000014 0.75125519499601212 -55.222558164122916 446.50000000000006 38.500000000000007 173.50000000000003 2.5571879044904575 366.50000000000006 1.0546927400288768 615.50000000000011 1.0653918041307604 1.0527528911704411 2.8576660673146224 84.335319127264469
decision_type=2 2 2 2 2 2 2 2 2 2 2 2 2 2 2 2 2 2 2 2 2 2 2 2 2 2 2 2 2 2
left_child=1 2 9 8 5 6 7 -2 12 11 -6 -1 13 -3 -9 -8 24 19 -4 20 28 26 -20 -18 -12 -16 -10 -14 -5 -28
right_child=4 3 18 17 10 -7 15 14 21 -11 16 -13 27 -15 25 -17 23 -19 22 -21 -22 -23 -24 -25 -26 -27 29 -29 -30 -31
leaf_value=-0.6486236020520938 -0.81016243070386162 -0.63528259637288942 -0.63611997900421202 -0.69381990351996703 -0.62838014082128291 -0.89318004646918503 -0.8225186554028463 -0.66985872354768361 -0.84058490588486168 -0.58378453903187588 -0.87189393165741325 -0.79237751770971387 -0.7933122710613415 -0.90131104672873774 -0.78095241117940617 -0.74513634662147366 -0.82814050905654857 -0.83523179583890872 -0.7008077197430278 -0.70544910605193367 -0.82953283852294657 -0.57449281623330428 -0.77690674275757998 -0.7568806840695399 -0.84349115867797098 -0.63478632626181186 -0.73364508642052817 -0.70315808351719289 -0.78355812670244063 -0.85383393789612949
leaf_count=1067 1654 1139 243 329 160 1071 5194 1322 738 1211 4374 466 531 77 726 748 2699 3168 550 447 1779 62 2548 600 8684 124 547 501 1114 187
internal_value=0 0.439205 0.941413 0.151426 -0.268186 0.000801651 0.104367 0.483473 0.628283 1.54382 -0.444704 1.06482 1.01954 1.46676 0.938139 -0.139736 -0.465724 -0.112355 0.446645 0.105169 -0.0097556 0.0549163 0.354073 -0.163764 -0.542013 0.391745 -0.0372495 0.492583 0.357058 0.345385
internal_count=44060 16704 6085 10619 27356 10839 9768 3826 3782 2744 16517 1533 2248 1216 2172 5942 16357 6837 3341 3669 3222 1534 3098 3299 13058 850 1472 1032 1443 734
shrinkage=1


Tree=1
num_leaves=31
num_cat=0
split_feature=10 18 21 4 12 7 26 18 1 1 18 7 18 11 16 4 16 18 18 10 13 4 26 7 1 7 25 7 1 17
split_gain=894.139 439.427 303.741 242.012 214.787 182.681 148.072 131.432 124.634 122.451 130.428 113.204 110.028 95.0449 81.2315 76.4649 77.8981 73.8241 81.9485 58.6505 58.5229 55.4209 52.9853 51.0804 51.0442 47.2059 46.9438 46.5544 66.898 44.3971
threshold=0.052162371544214145 516.50000000000011 1.0000000180025095e-35 0.41223672537881501 46.500000000000007 1.0403210619107739 62.087672368321911 372.50000000000006 2.6350201844649193 3.3135915937097447 2428.5000000000005 1.3031893385823001 2314.5000000000005 0.46962605601554758 72.500000000000014 0.75125519499601212 57.500000000000007 1623.5000000000002 2445.5000000000005 0.14217377735743716 -55.222558164122916 0.3994854497354498 87.957780995878366 0.99223995542516497 2.5571879044904575 1.0513436667450746 30.907320993460051 1.0225632020483271 2.8211530159816061 560.50000000000011
decision_type=2 2 2 2 2 2 2 2 2 2 2 2 2 2 2 2 2 2 2 2 2 2 2 2 2 2 2 2 2 2
left_child=1 2 7 6 13 26 8 11 12 10 14 -1 23 -2 -7 16 27 -11 22 -15 -4 -16 -19 -3 -22 -10 -6 -5 -29 -18
right_child=4 3 20 15 5 9 -8 -9 25 17 -12 -13 -14 19 21 -17 29 18 -20 -21 24 -23 -24 -25 -26 -27 -28 28 -30 -31
leaf_value=0.1170027921306865 0.1047847748484597 0.070255672354864004 0.13627027020883706 -0.020054138607204151 -0.0010696077798061554 0.10229023528417325 -0.0069051531430074885 0.17128748961812543 -0.0080945367587989831 -0.024415571827064924 -0.058450280037410464 -0.027200790370143349 -0.088769928848119059 -0.030326582152384374 0.077847737447235013 -0.033204219035285705 -0.039926956048398521 0.10680404894320057 -0.099143457230892393 -0.058372186228160476 0.088110293573175041 -0.014939061640747259 -0.006812356694330563 0.16367450291148022 0.017890345091961732 0.071918286572417195 -0.061128623864356038 0.12106712597957259 0.026823259860627582 0.06775503056645088
leaf_count=958 193 354 248 625 818 1375 1316 1572 663 3270 468 340 110 6221 527 3801 1534 574 165 8206 567 679 290 993 2747 698 2482 439 1630 197
internal_value=0 0.35202 0.80128 0.111874 -0.269839 -0.0362688 0.532664 1.30779 0.805422 0.152868 0.48156 0.805053 1.23236 -0.441776 0.667413 -0.104813 0.0872575 -0.0843627 0.422166 -0.462487 0.378611 0.259777 0.687202 1.39186 0.301718 0.335184 -0.462187 0.315358 0.470674 -0.272429
internal_count=44060 18792 6432 12360 25268 10648 4134 2870 2818 7348 3049 1298 1457 14620 2581 8226 4425 4299 1029 14427 3562 1206 864 1347 3314 1361 3300 2694 2069 1731
shrinkage=0.1


Tree=2
num_leaves=31
num_cat=0
split_feature=15 18 7 18 1 11 21 10 17 25 18 18 7 1 21 25 19 9 1 21 18 18 1 4 17 12 16 19 16 18
split_gain=752.403 359.683 235.849 191.397 246.486 163.5 137.923 137.41 132.791 131.404 104.334 93.4771 92.6989 87.6975 81.3976 80.0666 79.2503 71.9842 59.5254 53.2849 53.2294 114.102 70.1816 52.9379 51.5082 46.2723 45.7985 41.821 39.1047 32.3151
threshold=3.3629500000000001 2428.5000000000005 0.99697568210315257 674.50000000000011 3.4425043090802157 0.46962605601554758 1.0000000180025095e-35 0.067260709795071622 560.50000000000011 74.294217836165771 516.50000000000011 372.50000000000006 1.3031893385823001 3.0059607260606889 1.0000000180025095e-35 55.264018450311504 355.50000000000006 1.0394791856016237 2.2113358131807761 -0.012449999999999998 2428.5000000000005 1623.5000000000002 4.3903125647797365 0.66391939318464865 579.50000000000011 171.50000000000003 7.5000000000000009 329.50000000000006 732.50000000000011 1515.5000000000002
decision_type=2 2 2 2 2 2 2 2 2 2 2 2 2 2 2 2 2 2 2 2 2 2 2 2 2 2 2 2 2 2
left_child=1 2 15 6 8 -2 11 10 9 -5 14 12 -4 28 -7 18 20 -18 -1 -13 21 25 -23 -12 -6 -9 -20 -15 -8 -25
right_child=5 -3 3 4 24 7 13 16 -10 -11 23 19 -14 27 -16 -17 17 -19 26 -21 -22 22 -24 29 -26 -27 -28 -29 -30 -31
leaf_value=0.08463223685809243 0.1235922660846278 -0.08546740290512933 0.10202580056567526 0.065124930990530155 -0.028036317575899014 0.097535664350861737 0.10574515053468161 -0.057407741986987552 0.14613582101446926 -0.010294316330489281 0.010736442375529145 0.063090428678598209 -0.043078754389081063 0.019406360481486567 0.0033075282839956904 -0.063089530130101726 0.046829315228069303 -0.029083674439023856 0.18563429257828401 0.16542539098448675 -0.09301716329114984 0.026716391500884736 -0.064141790005304969 -0.042019467009940081 0.03466197020678994 0.067818090593423794 -0.015425802687354998 0.13386674894225239 -0.031308294374043776 0.0091130413502720341
leaf_count=373 318 1256 732 3717 3032 650 1179 8787 637 1492 1849 277 281 2387 1095 1135 759 2582 51 1190 1233 1483 567 3474 760 140 1654 156 102 712
internal_value=0 0.297105 0.367379 0.472934 0.2813 -0.26963 0.758584 -0.291551 0.552966 0.439339 -0.0576095 1.13738 0.642149 0.499223 0.39731 -0.166103 -0.411839 -0.113456 0.0828993 1.46821 -0.494199 -0.445889 0.0191154 -0.195924 -0.152283 -0.553739 -0.0901869 0.265152 0.948834 -0.333194
internal_count=44060 20411 19155 15942 9638 23649 6304 23331 5846 5209 7780 2480 1013 3824 1745 3213 15551 3341 2078 1467 12210 10977 2050 6035 3792 8927 1705 2543 1281 4186
shrinkage=0.1


Tree=3
num_leaves=31
num_cat=0
split_feature=10 18 4 21 12 7 18 1 7 18 25 1 16 9 25 26 7 9 18 11 11 20 8 18 8 18 18 1 13 16
split_gain=617.082 325.42 215.563 209.196 135.681 131.693 128.959 127.964 107.832 92.5853 84.0939 74.0117 81.6113 71.6997 64.9404 57.867 55.221 65.0341 51.7237 50.7548 50.227 48.548 66.0019 56.2078 53.104 47.1087 47.0617 45.8128 45.2164 44.1776
threshold=0.074723345987808623 524.50000000000011 0.66391939318464865 1.0000000180025095e-35 46.500000000000007 1.0431448898558202 2383.5000000000005 3.0059607260606889 1.0527528911704411 404.50000000000006 70.014402089073158 3.4732105382887593 35.500000000000007 1.0523542468522407 67.924322501246863 84.87508693093676 1.0968299051126036 1.1171202022142623 1591.5000000000002 0.46962605601554758 0.064531850048982278 1.0000000180025095e-35 1.0487273183555199 951.50000000000011 0.85497944645764556 299.50000000000006 2445.5000000000005 4.4589704048337122 -55.222558164122916 156.50000000000003
decision_type=2 2 2 2 2 2 2 2 2 2 2 2 2 2 2 2 2 2 2 2 2 2 2 2 2 2 2 2 2 2
left_child=1 3 6 9 20 -6 7 8 10 13 -3 12 -7 -1 -14 -10 17 -9 -13 -4 -2 24 23 -23 -21 -15 29 -24 -5 -20
right_child=4 2 19 28 5 11 -8 16 15 -11 -12 18 14 25 -16 -17 -18 -19 26 21 -22 22 27 -25 -26 -27 -28 -29 -30 -31
leaf_value=0.10632126730887428 0.13886229939827935 0.047833972232854391 0.14106090888325015 0.11235341527705885 -0.046613267903349714 0.1016065798806559 -0.076935430668475857 -0.032633127240255307 0.10982468344202748 0.13873227987074202 -0.057867199299132456 -0.028587967337319171 0.05676937493501788 0.092963438798510573 -0.01439171596374956 -0.023060070044954431 0.02967131812629345 0.13856427273585711 0.084397798773607313 0.12531364409698909 -0.043596393969700269 0.026372352259711081 0.032335219487576269 -0.072453859556161279 -0.053230698204724175 -0.01761161913917347 -0.089604898190720372 -0.037218471244511213 0.022712793838724085 -0.051337679982453283
leaf_count=887 64 2025 82 255 2902 623 546 1693 1640 1408 424 2530 1000 251 1427 168 2056 111 533 82 12273 372 1652 1065 2734 518 134 630 3836 139
internal_value=0 0.242986 0.0612047 0.608465 -0.270923 -0.0737223 0.280124 0.345008 0.59495 1.0085 0.302672 0.0975809 0.336183 0.671326 0.155829 0.981916 0.0579558 -0.22065 -0.12987 -0.239811 -0.424924 -0.262139 -0.0980398 -0.466746 -0.479842 0.194263 0.344987 0.132981 0.287046 0.564618
internal_count=44060 22435 15280 7155 21625 9288 8663 8117 4257 3064 2449 6386 3050 1656 2427 1808 3860 1804 3336 6617 12337 6535 3719 1437 2816 769 806 2282 4091 672
shrinkage=0.1


Tree=4
num_leaves=31
num_cat=0
split_feature=15 18 7 1 18 11 18 16 10 25 17 18 18 1 9 21 21 25 26 4 21 18 21 17 19 1 5 9 16 0
split_gain=525.657 262.702 171.458 133.615 170.961 119.245 117.541 104.722 100.916 97.7118 90.8145 67.5874 136.286 78.4389 66.6611 64.0874 130.475 62.3696 58.0193 52.4224 52.2644 49.2148 46.5607 45.6009 45.0265 44.4759 39.518 35.3484 34.0705 31.0353
threshold=3.3629500000000001 2428.5000000000005 0.99697568210315257 2.7562475515026095 540.50000000000011 0.17638911932775528 409.50000000000006 56.500000000000007 0.026228711514777774 52.586579320934703 588.50000000000011 2428.5000000000005 1623.5000000000002 4.3218725285732411 1.0423894810815753 0.0010500000000000004 -1.0000000180025095e-35 55.264018450311504 86.739895802395822 0.31300172612197935 0.025250000000000005 1183.5000000000002 0.41020000000000006 299.50000000000006 43.500000000000007 2.2751557354774303 0.53701063829787243 1.0663048193451194 19.500000000000004 1.5310564748436295
decision_type=2 2 2 2 2 2 2 2 2 2 2 2 2 2 2 2 2 2 2 2 2 2 2 2 2 2 2 2 2 2
left_child=1 2 17 7 6 -2 23 27 -7 19 24 12 15 18 -12 16 -10 25 -14 -9 -8 -17 -13 -5 -6 -1 -11 -4 -27 -24
right_child=5 -3 3 4 10 8 20 9 11 26 14 22 13 -15 -16 21 -18 -19 -20 -21 -22 -23 29 -25 -26 28 -28 -29 -30 -31
leaf_value=0.065283604292098577 0.12718020777387187 -0.077196924589528038 0.11621502268443984 0.046207515056246373 0.015656611751587536 0.0082611774035488521 0.1268467578373392 0.13448691166822829 -0.031763821185144897 0.033343392832910497 0.1396745477020884 -0.09592081942251228 0.053689198922487261 -0.036344976946534803 0.028980873517926539 -0.03459736292880633 0.097039929634752164 -0.057488776960107714 -0.020787275692472861 0.030266310456496318 0.050785538629587082 -0.066192079152791947 0.035881481258155302 -0.020196725499536706 -0.0212218025086265 0.044155015245664661 -0.040703115728731275 0.021781331581776718 -0.028184767486187062 -0.090252378055438162
leaf_count=433 220 1256 1702 2078 2959 3619 1105 526 1676 808 329 1278 1738 1205 878 8948 479 1135 694 351 616 3362 272 599 3260 388 543 188 1257 158
internal_value=0 0.24444 0.302131 0.390471 0.273724 -0.230754 0.595878 0.712525 -0.247131 0.40095 0.0702589 -0.310976 -0.271927 0.10591 0.598104 -0.369881 -0.0187276 -0.15569 0.326352 0.937651 1.01287 -0.432292 -0.74196 0.316688 -0.037366 0.0612864 0.0396224 1.06801 -0.105112 -0.0995886
internal_count=44060 20411 19155 15942 11824 23649 4398 4118 23429 2228 7426 19810 18102 3637 1207 14465 2155 3213 2432 877 1721 12310 1708 2677 6219 2078 1351 1890 1645 430
shrinkage=0.1


Tree=5
num_leaves=31
num_cat=0
split_feature=10 18 4 21 18 1 7 25 1 16 4 25 7 16 18 9 9 17 1 20 18 8 0 20 18 14 20 8 16 18
split_gain=435.671 221.811 170.701 158.346 111.065 106.051 118.364 106.019 96.5558 103.895 76.7188 73.9659 66.4126 61.0029 60.9264 58.8374 56.5036 47.9535 47.2882 43.4695 51.6031 52.0523 43.2311 42.9631 41.4473 41.1495 40.68 41.6353 38.5894 36.9692
threshold=0.09105653528397363 524.50000000000011 0.75125519499601212 1.0000000180025095e-35 2397.5000000000005 3.8094293382194135 1.069378212493479 68.190916675706561 2.7562475515026095 50.500000000000007 0.28716741675719487 31.50374807279945 1.0940225840725513 35.500000000000007 426.50000000000006 1.0515402553992761 1.1171202022142623 420.50000000000006 3.4732105382887593 1.0000000180025095e-35 1112.5000000000002 1.1311781767825606 2.1749617608869478 0.67490000225000013 431.50000000000006 29.577300000000005 -1.0000000180025095e-35 0.91369151700771012 9.5000000000000018 2428.5000000000005
decision_type=2 2 2 2 2 2 2 2 2 2 2 2 2 2 2 2 2 2 2 2 2 2 2 2 2 2 2 2 2 2
left_child=1 3 4 14 8 6 11 23 9 -3 -11 -2 16 -9 15 -1 -10 -7 -14 26 22 -22 -21 -8 25 -5 -4 -28 -26 -25
right_child=5 2 19 24 -6 17 7 13 12 10 -12 -13 18 -15 -16 -17 -18 -19 -20 20 21 -23 -24 29 28 -27 27 -29 -30 -31
leaf_value=0.091109616706664939 0.018459866272838948 0.093720984126031567 -0.0052977724481049308 0.039275016102611866 -0.071418208013619686 -0.052284810475230953 0.0025063004579435437 0.055008171777723242 -0.022498058832246405 0.06085228988248044 -0.016584984346653311 -0.052259135387983505 0.057068518277071989 -0.024024664515288931 0.12010794751251275 0.020829748915155211 0.095309937041008944 -0.019578160492339469 0.0082544115560084039 0.042545728024732554 -0.060427139906869265 0.028540668641650592 -0.036575414859692235 0.086718313508166056 0.22473978364825986 -0.0094273932366029101 0.14754941646591802 -0.074661668156901118 0.048001508209775744 -0.054980443208526603
leaf_count=1136 928 1454 700 1246 680 6913 521 549 2968 1111 1159 3305 1472 2742 1099 911 200 3324 2339 1062 1279 425 498 1164 56 2037 42 1667 970 103
internal_value=0 0.183218 0.0430112 0.479195 0.190964 -0.255115 -0.0863032 0.136292 0.24053 0.509145 0.224364 -0.364212 0.0873764 -0.102071 0.821168 0.609388 -0.147878 -0.414635 0.276235 -0.275093 -0.109832 -0.377651 0.178567 0.55494 0.209694 0.0936098 -0.50354 -0.69035 0.581276 0.765298
internal_count=44060 24511 17056 7455 11383 19549 9312 5079 10703 3724 2270 4233 6979 3291 3146 2047 3168 10237 3811 5673 3264 1704 1560 1788 4309 3283 2409 1709 1026 1267
shrinkage=0.1


Tree=6
num_leaves=31
num_cat=0
split_feature=15 18 7 1 18 25 18 11 7 4 10 17 1 17 9 4 16 8 25 18 16 14 25 7 20 10 8 11 7 26
split_gain=369.588 216.821 132.47 125.732 136.927 96.9136 88.864 84.7284 84.1793 78.1789 73.1877 64.2655 63.9309 52.8767 62.0022 51.8697 46.3477 45.7023 43.4684 43.4251 42.853 41.6747 42.1559 40.7552 36.7929 35.11 32.4987 31.7198 30.7233 29.0521
threshold=3.7162500000000005 2428.5000000000005 0.9907710820260609 3.0933936682610441 516.50000000000011 59.73814247827351 426.50000000000006 0.17638911932775528 1.0679909381280117 0.27605309734513278 0.011036526474019561 549.50000000000011 3.8951534010718656 360.50000000000006 1.0402377377671199 0.66726188108967999 60.500000000000007 1.0123212781365105 45.390987226712106 516.50000000000011 42.500000000000007 27.184300000000004 31.50374807279945 1.0610303531946259 3.0930000000000004 0.0025222692216962531 0.86907171679720496 2.6799970327358023 0.91728894458665278 39.595112084502951
decision_type=2 2 2 2 2 2 2 2 2 2 2 2 2 2 2 2 2 2 2 2 2 2 2 2 2 2 2 2 2 2
left_child=1 2 18 5 6 9 25 -2 -7 29 -9 26 -13 15 27 21 -10 -8 24 -16 -17 -12 -23 -11 28 -5 -6 -15 -1 -4
right_child=7 -3 3 4 11 8 17 10 16 23 13 12 -14 14 19 20 -18 -19 -20 -21 -22 22 -24 -25 -26 -27 -28 -29 -30 -31
leaf_value=-0.077774907777301699 0.1086487764743336 -0.070652101907495254 0.13281564849234653 0.080252466722456783 0.072841816914400559 -0.017821623475293567 -0.028974220302420847 0.027066436630584768 0.080916115284300441 0.017999784038129123 0.02690612411968939 0.086171796605235051 -0.0054175373671083472 0.070326819327147558 0.036924378433067381 -0.025254921186484411 0.016994391347089337 0.10264655408339936 -0.046782995912375176 -0.029801951960975515 -0.056038621858553489 0.026768266136217463 -0.036601638603946794 0.074297178938354344 -0.038334669340931805 0.014298664872764412 -0.016193843180726621 -0.001126467716187687 0.041981988896867453 0.073596512803616801
leaf_count=112 202 1449 912 404 196 1296 128 1233 1045 1010 935 634 740 599 519 3793 941 1151 1471 3820 5864 621 3062 1232 584 2361 5694 572 916 564
internal_value=0 0.181527 0.23043 0.29725 0.155221 0.514164 0.456855 -0.219877 0.248276 0.739874 -0.235161 -0.0288407 0.38147 -0.269659 -0.0853664 -0.342731 0.514483 0.900373 -0.188519 -0.211724 -0.437804 -0.148689 -0.256586 0.493996 0.0505691 0.242483 -0.1311 0.354779 0.292342 1.10391
internal_count=44060 22840 21391 18308 11308 7000 4044 21220 3282 3718 21018 7264 1374 19785 5510 14275 1986 1279 3083 4339 9657 4618 3683 2242 1612 2765 5890 1171 1028 1476
shrinkage=0.1


Tree=7
num_leaves=31
num_cat=0
split_feature=10 18 4 21 1 7 26 25 8 3 18 1 8 16 18 17 25 26 18 18 8 12 1 18 8 18 20 25 26 11
split_gain=308.796 150.209 126.848 118.139 82.1688 93.5838 81.3498 78.4157 69.0081 59.5813 55.25 51.1221 50.1743 48.6642 46.9393 51.316 43.6401 39.9921 39.953 49.824 38.0921 37.1618 36.5808 33.518 74.3652 42.9767 60.4068 38.8561 32.7168 31.8172
threshold=0.09105653528397363 524.50000000000011 0.52453070175438599 1.0000000180025095e-35 3.8094293382194135 1.0444139616733146 62.087672368321911 68.190916675706561 0.94753770502175172 19.956811997581191 2314.5000000000005 2.6350201844649193 1.058026091187916 35.500000000000007 372.50000000000006 299.50000000000006 31.50374807279945 84.582440092324831 2428.5000000000005 1545.5000000000002 1.0523729562966102 156.50000000000003 4.4395455264826902 1491.5000000000002 1.0612849581684771 1040.5000000000002 0.050000000350000011 83.719626887035119 12.271968341323452 0.66820642727536061
decision_type=2 2 2 2 2 2 2 2 2 2 2 2 2 2 2 2 2 2 2 2 2 2 2 2 2 2 2 2 2 2
left_child=1 3 6 14 5 16 8 18 28 23 11 -10 21 -9 15 -1 -2 -14 19 -7 -6 -8 -22 25 -25 26 -4 -26 -3 -11
right_child=4 2 9 -5 20 7 12 13 10 29 -12 -13 17 -15 -16 -17 -18 -19 -20 -21 22 -23 -24 24 27 -27 -28 -29 -30 -31
leaf_value=0.060114041397384625 0.006434023127310941 0.088712629886318173 -0.044033151528405264 0.016334233374225741 -0.058665226853873959 0.024112853994589147 -0.039923831472660702 0.044112607442599316 0.084416685255759377 0.1643513646446354 -0.062557237694011905 0.034695860447316061 0.062518890519105308 -0.023031710792563984 0.090389115856918445 -0.038953750653606553 -0.053574710956946117 -0.032709934891246982 -0.064646530798548624 0.093611716913437837 -0.0042259935915597343 0.07815178035675982 -0.03863500362032208 -0.041661052544728468 0.081842408308367587 -0.056576046658200929 0.013129646378922622 -0.0024465222495854634 -0.039192159120092079 0.014171683730014525
leaf_count=1076 796 105 1900 4309 2905 1420 1498 597 1615 63 216 1978 633 3130 1773 297 2501 304 187 681 2318 128 5014 1013 546 2076 1698 496 622 2165
internal_value=0 0.152704 0.0364187 0.394667 -0.218863 -0.0699217 0.249917 0.0888603 0.415889 -0.128361 0.525543 0.580717 -0.0621446 -0.114205 0.689387 0.402216 -0.382152 0.32803 0.397464 0.47453 -0.36218 -0.297956 -0.275677 -0.22044 0.020788 -0.308491 -0.163993 0.423696 -0.197899 0.189605
internal_count=44060 24511 17056 7455 19549 9312 7099 6015 4536 9957 3809 3593 2563 3727 3146 1373 3297 937 2288 2101 10237 1626 7332 7729 2055 5674 3598 1042 727 2228
shrinkage=0.1


Tree=8
num_leaves=31
num_cat=0
split_feature=15 18 7 1 18 25 7 11 2 4 21 17 11 3 21 18 0 20 12 9 10 18 18 21 21 12 25 11 7 19
split_gain=264.029 172.392 102.251 103.091 102.307 75.971 102.475 63.1492 66.0684 54.4291 50.5956 48.9776 43.1166 40.9912 40.7929 41.0401 35.7756 35.0364 32.3813 42.3396 39.2318 30.1281 49.6008 36.1844 29.3876 28.614 27.6785 28.2491 29.7448 26.3876
threshold=3.8905000000000007 2428.5000000000005 0.98748637031181741 3.4531660820100605 741.50000000000011 67.014251333797262 1.069378212493479 2.5570038068931074 4.8178710526315793 0.23000701262272091 0.0010500000000000004 579.50000000000011 0.17638911932775528 15.957369525121688 1.0000000180025095e-35 360.50000000000006 1.2539198196750456 2.8035000000000001 65.500000000000014 0.98093843931384228 0.026228711514777774 2462.5000000000005 1694.5000000000002 0.0010500000000000004 -0.0099499999999999988 42.500000000000007 68.828243217682669 0.87161346154600006 0.91728894458665278 46.500000000000007
decision_type=2 2 2 2 2 2 2 2 2 2 2 2 2 2 2 2 2 2 2 2 2 2 2 2 2 2 2 2 2 2
left_child=1 2 17 5 14 9 -7 8 12 16 -11 29 -2 -8 15 -5 -4 26 20 -20 -14 22 23 24 -9 -13 27 -1 -29 -6
right_child=7 -3 3 4 11 6 13 21 -10 10 -12 25 18 -15 -16 -17 -18 -19 19 -21 -22 -23 -24 -25 -26 -27 -28 28 -30 -31
leaf_value=0.19463547887367194 0.095539712126107151 -0.06469681396238959 0.1038509299764773 0.01098534722176449 -0.010212270595923644 -0.036500996392479841 0.013990819170007952 -0.027517176952928071 -0.045944318357782093 0.083481329609104746 0.029014504696809787 -0.0022496876951107426 0.024801684930618628 0.066892641454552759 0.011287410965796834 0.071818569863608558 0.04047892758149816 -0.046926465407773468 0.10512038908748528 0.0077422887880275017 -0.01663427862129116 -0.090005399906080696 0.0096493570232518509 -0.048146270463993696 0.054348666843473642 0.07330196172362792 -0.064705263639172436 -0.08449809607170404 0.019161607381068563 -0.048049230842215261
leaf_count=38 180 1535 1140 742 1887 1259 1420 714 2161 898 3577 628 1293 1177 2805 1313 571 1308 277 1092 7132 538 1143 5190 286 352 279 154 1185 1786
internal_value=0 0.144105 0.185819 0.239836 0.0764243 0.384963 0.149109 -0.199449 -0.0970602 0.524871 0.403159 -0.162964 -0.0201902 0.381631 0.285438 0.501995 0.834332 -0.195626 -0.0427771 0.271663 -0.0966258 -0.357104 -0.321079 -0.403311 -0.0196626 0.256945 0.0123702 0.132384 0.0797529 -0.285343
internal_count=44060 24054 22519 19555 9513 10042 3856 20006 12135 6186 4475 4653 9974 2597 4860 2055 1711 2964 9794 1369 8425 7871 7333 6190 1000 980 1656 1377 1339 3673
shrinkage=0.1


Tree=9
num_leaves=31
num_cat=0
split_feature=10 12 17 18 7 26 8 1 16 26 0 9 1 2 16 16 4 4 18 25 18 18 14 17 18 2 21 16 26 10
split_gain=227.735 111.76 116.679 79.1211 72.3357 70.2479 64.2723 58.4456 62.6596 54.9051 53.9426 52.6861 44.7583 44.4313 44.0321 43.5348 41.9138 41.9011 50.1156 39.5579 37.9769 40.4851 37.57 37.1392 36.6602 34.0865 30.4104 44.9359 31.6794 30.1001
threshold=0.032805245378675491 40.500000000000007 570.50000000000011 2383.5000000000005 1.0294619178498834 36.041951969003613 0.98476957170468726 3.3346010277309244 35.500000000000007 88.22863774071071 1.1047681873399591 1.1378156391459582 2.7039102756275826 2.216925220588235 83.500000000000014 11.500000000000002 0.62777573879618542 0.66062372510429812 580.50000000000011 23.098289209065104 557.50000000000011 1607.5000000000002 37.366350000000004 540.50000000000011 299.50000000000006 6.0174087173579123 0.45030000000000009 31.500000000000004 40.481773020305056 0.18460413340833115
decision_type=2 2 2 2 2 2 2 2 2 2 2 2 2 2 2 2 2 2 2 2 2 2 2 2 2 2 2 2 2 2
left_child=3 17 4 5 19 10 11 8 12 29 -1 15 -6 14 24 -7 -10 25 22 -3 -9 -22 -19 -16 -8 26 27 -2 -28 -4
right_child=1 2 9 -5 7 6 13 20 16 -11 -12 -13 -14 -15 23 -17 -18 18 -20 -21 21 -23 -24 -25 -26 -27 28 -29 -30 -31
leaf_value=0.094995751121153951 0.029749139497318978 0.016184369529555567 0.10913384994689659 -0.079369976202202958 0.14392240688665048 0.07919034099244654 0.10783379552655287 0.024264165066461493 0.0274044745385227 0.0012905700834998854 0.034513521955793956 0.081874067834397435 0.041668629160934847 0.0053768316091504492 -0.014035072996363782 -0.041719276800552471 -0.028008850277160588 0.046428960633389194 -0.041813513589010004 -0.043806686736318559 -0.037731677747402534 0.019589390068077441 -0.022531790228456909 0.097257670572265698 0.04041260699753723 -0.085373242959518342 0.095632656337028221 -0.026571412481343488 0.0062677764993709813 0.043465468931758428
leaf_count=813 870 656 615 435 256 140 377 1003 1834 718 2636 208 615 3678 1036 1656 1034 554 8457 3093 2691 801 1262 152 3137 296 251 3305 854 627
internal_value=0 -0.119163 0.0230483 0.212758 -0.0617804 0.237479 0.149113 0.0508678 0.245491 0.504818 0.493613 -0.197107 0.72736 0.229561 0.364541 -0.31631 0.0848395 -0.25221 -0.340814 -0.326298 -0.125517 -0.241016 -0.00698447 0.00742822 0.48095 -0.0972459 -0.0566571 -0.143676 0.275031 0.765942
internal_count=44060 29792 13943 14268 11983 13833 10384 8234 3739 1960 3449 2004 871 8380 4702 1796 2868 15849 10273 3749 4495 3492 1816 1188 3514 5576 5280 4175 1105 1242
shrinkage=0.1


Tree=10
num_leaves=31
num_cat=0
split_feature=10 21 20 21 8 26 8 8 18 18 0 26 9 12 18 26 18 8 26 9 21 1 13 9 20 19 22 1 8 9
split_gain=193.153 96.52 119.991 106.493 95.9738 97.9773 95.8249 87.1693 59.8172 91.3554 59.6471 52.8419 51.4706 47.3219 53.4942 48.2487 47.216 46.2444 59.2529 58.105 43.82 43.339 42.0736 41.0386 38.7901 37.4142 33.0739 31.6828 30.2642 29.7262
threshold=0.09105653528397363 1.0000000180025095e-35 1.0000000180025095e-35 -0.0099499999999999988 0.96771757199680175 60.328305936760167 1.0911443026893515 1.003755321881288 2428.5000000000005 1623.5000000000002 2.2901188713112197 20.159064679612602 1.0970134111272087 170.50000000000003 1290.5000000000002 24.888325899478701 2413.5000000000005 0.99982412081510952 81.893886893886915 1.0388455066878166 0.52010000000000012 3.3795505258101257 17.222020016479782 1.1426797093732557 -0.36649999999999994 355.50000000000006 1.0454095022889345 3.1500002016733606 0.91369151700771012 1.0523542468522407
decision_type=2 2 2 2 2 2 2 2 2 2 2 2 2 2 2 2 2 2 2 2 2 2 2 2 2 2 2 2 2 2
left_child=1 3 7 24 11 16 26 -3 9 13 17 -4 -5 14 25 -16 21 -11 19 -19 -10 -6 -20 -13 -1 -2 -7 -9 -26 -27
right_child=8 2 4 12 5 6 -8 27 20 10 -12 23 -14 -15 15 -17 -18 18 22 -21 -22 -23 -24 -25 28 29 -28 -29 -30 -31
leaf_value=0.022008562395421906 -0.024915076996218446 0.04270666717308965 0.043815815631657221 0.080867594476060345 0.05473466330892094 -0.068165647420224171 0.030339688993366948 -0.10841889469506361 -0.075356219000367888 -0.017602727324236331 -0.038347349791709597 -0.044211292710191301 0.019226498429580609 0.044026174140214168 0.091024391589467998 -0.063108401546068227 -0.068251756162301877 0.10682165361754947 0.046394073400391735 0.018652308716235352 0.0070496064662054977 0.014160920627409174 -0.044278538257192072 0.075182181579110247 0.10274004064194886 0.055486735551812452 -0.012216644933955278 -0.042966944306487648 -0.045266457873844451 -0.008526044446717963
leaf_count=2007 8597 522 429 1984 3824 618 3107 422 1678 814 919 2349 815 444 106 2408 244 813 491 602 481 1736 503 140 67 491 3416 2027 804 1202
internal_value=0 0.119569 0.0432484 0.357751 0.115627 0.193647 0.0197626 -0.369031 -0.177212 -0.135705 0.14774 -0.24399 0.634617 -0.231259 -0.259194 -0.561531 0.39411 0.279776 0.428733 0.705411 -0.562962 0.4277 0.0115551 -0.371018 0.0592349 -0.186136 -0.204692 -0.551369 -0.329722 0.118264
internal_count=44060 24511 18834 5677 15863 12945 7141 2971 19549 17390 4142 2918 2799 13248 12804 2514 5804 3223 2409 1415 2159 5560 994 2489 2878 10290 4034 2449 871 1693
shrinkage=0.1


Tree=11
num_leaves=31
num_cat=0
split_feature=15 18 7 1 25 18 11 18 2 25 9 19 16 0 8 18 20 11 11 20 2 11 17 9 12 10 4 18 16 4
split_gain=166.06 118.199 77.1454 86.0484 76.7817 62.9298 55.4149 54.2031 52.9286 50.1 43.0952 51.202 49.4929 42.1714 37.7487 37.256 36.008 34.3096 33.8704 30.8447 30.6616 30.2247 27.2657 27.016 25.3359 26.2727 25.0515 23.9478 29.789 24.5736
threshold=3.9939500000000003 2428.5000000000005 1.0294619178498834 3.4626348907545621 54.15430341714471 516.50000000000011 2.5570038068931074 426.50000000000006 4.8178710526315793 80.259129824347255 1.0725790082224897 361.50000000000006 45.500000000000007 1.1217062451826743 1.0726601262020481 2087.5000000000005 1.6433500000000001 0.17638911932775528 7.3363551369948796 7.7150000000000007 6.49489705882353 0.9563391454550898 299.50000000000006 1.1378156391459582 40.500000000000007 0.026228711514777774 0.65040635292440896 1591.5000000000002 31.500000000000004 0.25321481932051054
decision_type=2 2 2 2 2 2 2 2 2 2 2 2 2 2 2 2 2 2 2 2 2 2 2 2 2 2 2 2 2 2
left_child=1 2 4 9 13 7 8 22 17 10 11 -4 -12 15 -11 19 18 -2 -15 -1 21 -7 -5 -6 25 -19 -9 29 -29 -26
right_child=6 -3 3 5 23 20 -8 26 -10 14 12 -13 -14 16 -16 -17 -18 24 -20 -21 -22 -23 -24 -25 27 -27 -28 28 -30 -31
leaf_value=0.074938161867691214 0.088237170828627601 -0.056333793787593137 0.047104837538579906 0.025376672648925392 -0.041945090284173224 0.078900902414124674 -0.031968829543082299 0.0059578523055274857 -0.04063451135561752 -0.027695910387828721 -0.044031215626303785 0.12563564444804806 0.049158759875623251 0.035114194114882868 0.035356313095951844 -0.07665775541371013 -0.027358087047259762 0.019997541077423506 -0.073061552620298328 -0.042414522913836038 -0.080782139422321611 -0.0073685406503441568 -0.025344172507761928 0.10588417517529747 0.15229443718365432 -0.017198728907504211 0.081106165614243969 0.14426946514048089 0.028833267139351894 -0.0021397845478991193
leaf_count=785 175 1580 4853 1462 2410 200 7605 245 2087 843 462 368 521 1153 865 98 1390 1093 153 111 279 5329 685 58 53 5404 898 116 745 2034
internal_value=0 0.109825 0.142812 0.214994 -0.0678129 0.0679978 -0.166587 0.291999 -0.0680548 0.369892 0.454079 0.528162 0.0556528 0.121488 0.0464824 0.480008 -0.0242322 0.00194879 0.227379 0.608126 -0.0768879 -0.0412609 0.0953207 -0.380995 -0.0190952 -0.100705 0.653871 0.152559 0.459849 0.0188354
internal_count=44060 24748 23168 17010 6158 9098 19312 3290 11707 7912 6204 5221 983 3690 1708 994 2696 9620 1306 896 5808 5529 2147 2468 9445 6497 1143 2948 861 2087
shrinkage=0.1


Tree=12
num_leaves=31
num_cat=0
split_feature=10 18 2 7 12 11 1 8 25 18 26 16 25 14 22 7 4 11 20 1 16 18 17 16 3 18 2 8 16 17
split_gain=144.763 90.9459 79.2901 76.3976 69.0611 41.8296 49.4203 51.9277 47.8347 40.5924 38.4699 37.6373 36.0328 35.4126 32.9426 32.2833 32.1229 31.9095 31.0444 28.264 27.0973 26.9902 26.1227 24.7946 29.5259 23.8285 23.4719 22.4088 22.2134 24.1238
threshold=0.14217377735743716 2428.5000000000005 2.8961527631578954 1.0143631126396759 71.500000000000014 5.7592649310565962 4.2141874136838018 1.0213298064913332 82.035552011554813 764.50000000000011 18.780658673643952 56.500000000000007 54.547369227234405 37.006750000000004 1.1940882017227341 1.3186684426645963 0.065331514903368929 3.6338455468038258 2.6225500000000008 2.6916840515633536 37.500000000000007 1607.5000000000002 430.50000000000006 211.50000000000003 24.052742692922539 2314.5000000000005 7.7617148148148161 0.86907171679720496 305.50000000000006 769.50000000000011
decision_type=2 2 2 2 2 2 2 2 2 2 2 2 2 2 2 2 2 2 2 2 2 2 2 2 2 2 2 2 2 2
left_child=1 2 3 12 11 6 7 10 14 13 25 17 16 22 21 -13 -1 -5 -18 -12 -10 -9 27 24 -6 -2 -15 -4 29 -8
right_child=5 -3 9 4 23 -7 28 8 20 -11 19 15 -14 26 -16 -17 18 -19 -20 -21 -22 -23 -24 -25 -26 -27 -28 -29 -30 -31
leaf_value=0.097842375186560651 0.07267496752815715 -0.060240504317763871 0.093536433689810489 0.034003665949087332 0.079873191414782274 -0.066920271690278796 -0.036349676338029081 0.0064468776649982814 0.046144057285680322 -0.027923058581829432 0.0023395727126016628 -0.0061682507845899617 -0.033851137267464401 -0.0051894829598487357 0.12410285041795453 0.039746544082171195 0.020673838288877457 -0.00014785888146549308 -0.026227982419617386 -0.04705488666626885 -0.023840853879836567 0.05817004758544763 0.074350325635120104 -0.0007208033801842812 0.035966185325691909 -0.13082074301210342 -0.071627958656257248 0.0054933781733293094 -0.080436122350927564 0.0018405258284042937
leaf_count=156 254 1192 143 5879 1424 926 4426 1422 314 3271 810 3894 1717 2453 165 922 1541 1568 1153 2353 1939 755 387 332 1255 38 293 1429 500 1149
internal_value=0 0.0828648 0.104447 0.176084 0.247118 -0.191449 -0.160175 -0.0461648 0.109054 -0.0812123 -0.261472 0.173808 -0.0739288 0.0422886 0.328573 0.0229021 0.0691542 0.267668 0.0119648 -0.338519 -0.132288 0.252217 0.25655 0.528324 0.595158 0.505622 -0.119387 0.13453 -0.325139 -0.281975
internal_count=44060 29009 27817 19841 15274 15051 14125 8050 4595 7976 3455 12263 4567 4705 2342 4816 2850 7447 2694 3163 2253 2177 1959 3011 2679 292 2746 1572 6075 5575
shrinkage=0.1


Tree=13
num_leaves=31
num_cat=0
split_feature=15 11 16 17 18 18 18 4 11 8 16 9 21 20 21 21 0 18 1 15 0 26 25 18 26 17 16 1 8 18
split_gain=125.36 75.5828 67.5698 69.2034 65.9825 77.3802 82.3022 106.212 56.7717 54.3584 65.7824 55.2458 53.6338 74.7952 65.724 47.7828 47.3377 63.8776 45.9048 36.9742 36.1741 35.3356 33.9392 32.3874 27.7238 26.9903 24.7632 22.8002 21.1346 24.0918
threshold=2.4541500000000007 0.46962605601554758 160.50000000000003 430.50000000000006 2445.5000000000005 1623.5000000000002 1046.5000000000002 0.55009652509652518 6.0099318951794576 1.0348877026081615 142.50000000000003 1.0388455066878166 1.0000000180025095e-35 1.0000000180025095e-35 -1.0000000180025095e-35 0.79020000000000012 1.3434534401486966 2229.5000000000005 2.8576660673146224 1.0682000000000003 1.8273575698817746 62.731540011932459 74.576893859201263 764.50000000000011 16.709844849379753 307.50000000000006 792.50000000000011 2.6200181366900037 1.2511369581779943 2279.5000000000005
decision_type=2 2 2 2 2 2 2 2 2 2 2 2 2 2 2 2 2 2 2 2 2 2 2 2 2 2 2 2 2 2
left_child=2 28 3 8 5 6 12 22 16 20 11 -11 14 -14 -3 26 17 24 -17 21 -7 -4 -8 25 -1 -18 -6 -10 29 -2
right_child=1 4 19 -5 15 9 7 -9 27 10 -12 -13 13 -15 -16 18 23 -19 -20 -21 -22 -23 -24 -25 -26 -27 -28 -29 -30 -31
leaf_value=0.11206292373995595 0.11404385670668288 -0.0073401937455434803 0.088912313240001123 0.070638350962884872 -0.069462387298080144 -0.00021888916388453333 0.035372540415183375 -0.047726136719881497 0.010309978317432623 0.082640920159558498 -0.020879174021523533 0.020281483647446821 -0.037906637977075205 0.00094121718231985794 0.057484294008557972 0.14395973720457356 0.032155609884326093 -0.076397765971930667 -0.071422401475659925 -0.028223689714625272 -0.08119549770554528 -0.051799389123209305 -0.025669457957408732 -0.01044973123039666 0.045792118401717881 -0.023572239761801086 0.13234908944142962 -0.056698884119189857 -0.059912520569751528 -0.072446838403854352
leaf_count=297 322 1701 241 1226 1939 1436 1196 6101 367 1167 916 1566 3679 8714 1248 126 2719 244 103 2024 373 131 750 2047 2260 442 39 611 41 34
internal_value=0 -0.0829304 0.172844 0.245503 -0.0967495 -0.0708812 -0.128821 -0.32006 0.179928 0.164098 0.318105 0.483634 -0.0344298 -0.101981 0.225662 -0.519668 0.238084 0.4552 0.504449 -0.160626 -0.149861 0.448763 0.128358 0.116331 0.536633 0.244159 -0.653879 -0.307048 0.81011 0.970804
internal_count=44060 31451 12609 10213 31054 28847 23389 8047 8987 5458 3649 2733 15342 12393 2949 2207 8009 2801 229 2396 1809 372 1946 5208 2557 3161 1978 978 397 356
shrinkage=0.1


Tree=14
num_leaves=31
num_cat=0
split_feature=10 18 1 7 25 11 25 17 18 16 18 21 4 16 3 9 8 2 16 2 9 16 3 18 7 16 26 15 0 7
split_gain=108.864 80.2965 83.9952 82.7107 59.8839 59.6506 45.8003 44.0369 48.7011 42.5643 42.3554 40.941 38.3797 33.8126 33.3476 31.6912 31.5636 31.3119 33.2978 30.1701 29.625 29.5767 28.62 28.5604 26.028 24.6387 34.0835 24.2657 23.2746 23.5765
threshold=0.010682205655279029 2428.5000000000005 3.4531660820100605 1.0418161973072404 68.190916675706561 1.6518571141585225 16.232906402606304 425.50000000000006 508.50000000000006 35.500000000000007 1448.5000000000002 0.52010000000000012 0.28202564102564104 42.500000000000007 14.418602441500296 1.0954002284228854 1.1013578983851529 7.1462385673624302 69.500000000000014 1.9465713235294122 1.0683200857493065 15.500000000000002 17.308039658789909 2261.5000000000005 1.2749088864829192 74.500000000000014 40.481773020305056 1.1106500000000004 1.6498390038543884 1.0431448898558202
decision_type=2 2 2 2 2 2 2 2 2 2 2 2 2 2 2 2 2 2 2 2 2 2 2 2 2 2 2 2 2 2
left_child=23 2 3 6 10 17 -2 21 -9 -6 15 -3 22 -14 -11 -5 -12 18 19 -4 -10 -7 -8 24 25 -1 27 -27 29 -13
right_child=1 11 5 4 9 7 12 8 20 14 16 28 13 -15 -16 -17 -18 -19 -20 -21 -22 -23 -24 -25 -26 26 -28 -29 -30 -31
leaf_value=0.041762105217415663 0.047342285431761277 -0.062811812600235703 0.06337356359910444 0.031428153159074872 0.040388507071413976 0.0059013714278159345 0.030482432481226236 0.061961700520634669 0.018893601530882535 -0.033941371449666517 0.055713061851665961 -0.062634751840731737 -0.0056541339384811725 -0.053919574031302091 0.011046445166412108 -0.058666300156500539 0.13908651555456028 -0.049594378214981624 -0.0096631853382939861 0.013814507424666084 -0.024516369685745585 -0.031043621067241334 -0.026332891666040015 -0.068663645522690775 0.0001598073024618695 0.11803210813015351 -0.028842752059701122 0.013632285824535309 -0.085366020275116 0.065081433493921884
leaf_count=3783 543 2321 836 2756 1061 1157 975 495 1157 1441 1094 121 1197 1911 1764 196 234 477 2106 2227 2347 10151 749 192 1272 139 597 281 130 350
internal_value=0 -0.051322 -0.0251983 0.102282 0.228611 -0.119316 -0.117917 -0.193303 0.00668581 0.0443423 0.400614 -0.464256 -0.18937 -0.344226 -0.0854405 0.257811 0.704127 0.0808734 0.130823 0.27719 -0.0924992 -0.268186 0.0669041 0.250698 0.272135 0.341371 0.0493226 0.489862 0.0998811 0.344731
internal_count=44060 37796 34874 13921 8546 20953 5375 15307 3999 4266 4280 2922 4832 3108 3205 2952 1328 5646 5169 3063 3504 11308 1724 6264 6072 4800 1017 420 601 471
shrinkage=0.1


Tree=15
num_leaves=31
num_cat=0
split_feature=15 16 1 11 9 8 7 25 1 4 11 20 17 5 22 10 10 3 8 2 20 17 18 2 17 18 18 21 24 24
split_gain=94.1114 76.2602 89.1222 78.714 63.007 87.3726 51.3036 85.9335 45.5658 41.0802 35.584 34.4023 32.3904 31.2216 30.162 27.9759 27.0314 27.9823 26.8488 31.0336 26.2255 25.6751 25.2044 22.7965 23.8593 25.2853 37.0998 30.7421 24.1334 22.733
threshold=4.643250000000001 56.500000000000007 2.5095976185291593 4.2631316516217783 1.0467251751949247 1.0181676893444134 1.101233248054754 45.861820263012056 3.2700094982755434 0.31300172612197935 1.9839416228060649 3.5200500000000003 752.50000000000011 0.47029731454456059 1.1118465076003685 0.35018073597508664 0.3258697260350179 15.330018154205641 0.86907171679720496 2.5877196544980445 1.2920000000000003 446.50000000000006 2247.5000000000005 4.6235795665634685 2188.5000000000005 2445.5000000000005 1574.5000000000002 0.0010500000000000004 76.316798139428428 69.992014417214349
decision_type=2 2 2 2 2 2 2 2 2 2 2 2 2 2 2 2 2 2 2 2 2 2 2 2 2 2 2 2 2 2
left_child=1 2 22 4 5 20 7 9 11 14 16 -8 -7 -9 -3 21 17 -2 29 -20 -4 -10 -1 24 25 26 27 -12 -28 -6
right_child=10 6 3 -5 18 12 8 13 15 -11 23 -13 -14 -15 -16 -17 -18 -19 19 -21 -22 -23 -24 -25 -26 -27 28 -29 -30 -31
leaf_value=0.066790703724713782 -0.013275872510987538 0.066962143070835881 0.023120023262295664 -0.022623160753281728 0.11530895944542695 0.046793122758986005 -0.0030083001729933677 -0.02164264735775448 -0.013840589195245157 -0.016833990546261852 0.0090094003874372688 0.057503895367918272 0.13911722489848044 -0.061224168644076274 -0.0079669016083455928 -0.049971010066810193 -0.022346656107214018 0.025370519367899941 0.016501906814705439 -0.017094219165090938 -0.021335443897235462 0.029875379294983961 -0.065920560786967994 -0.054451385999594142 0.069185261146946384 -0.076260312870143301 0.041147692510875841 -0.035678091662542676 -0.017608881115802021 0.0035190998267436904
leaf_count=1541 1705 699 1164 2749 162 3974 675 2122 1853 1189 962 1198 167 2110 377 684 2429 2336 2158 3096 1359 1024 86 1289 147 547 720 4709 658 171
internal_value=0 0.0682593 0.15989 0.10576 0.179274 0.320064 -0.0707961 -0.207395 0.0871879 0.128371 -0.152867 0.353898 0.508232 -0.408134 0.418604 -0.067791 -0.0215175 0.0905599 0.0097872 -0.0282786 -0.0018668 0.0251071 0.616251 -0.248357 -0.2015 -0.22033 -0.186763 -0.274778 0.135469 0.598479
internal_count=44060 28558 16627 15000 12251 6664 11931 6497 5434 2265 15502 1873 4141 4232 1076 3561 6470 4041 5587 5254 2523 2877 1627 9032 7743 7596 7049 5671 1378 333
shrinkage=0.1


Tree=16
num_leaves=31
num_cat=0
split_feature=10 2 18 12 18 4 7 26 18 11 11 12 10 24 17 20 18 4 8 16 8 22 20 9 26 20 17 22 24 12
split_gain=81.8773 56.8438 57.2134 66.8133 53.3951 52.0866 51.935 55.4239 41.7662 37.8473 35.3118 42.4343 31.841 30.6215 42.9866 30.3638 25.545 32.8893 23.7121 23.2118 21.7985 19.5195 19.2267 18.4296 18.1594 17.798 17.2944 17.0527 16.6795 16.313
threshold=0.14217377735743716 6.0174087173579123 580.50000000000011 157.50000000000003 398.50000000000006 0.75125519499601212 1.0896405140740755 84.582440092324831 2087.5000000000005 1.5523210667872684 2.6376924820359395 40.500000000000007 0.0079425062136111169 87.122240834167599 736.50000000000011 0.093500000000000014 299.50000000000006 0.55402362996480659 0.9752351415224022 19.500000000000004 1.0213298064913332 1.2110232946967645 0.050000000350000011 1.0148529325629285 15.352588543635852 1.0000000180025095e-35 315.50000000000006 1.2477514458700389 74.379842958093462 106.50000000000001
decision_type=2 2 2 2 2 2 2 2 2 2 2 2 2 2 2 2 2 2 2 2 2 2 2 2 2 2 2 2 2 2
left_child=1 2 4 5 12 6 8 -8 -4 -7 11 -2 16 14 20 -11 17 -1 -6 -18 -13 -14 -22 -5 25 -12 -26 -15 -28 -20
right_child=10 -3 3 23 18 9 7 -9 -10 15 24 13 21 27 -16 -17 19 -19 29 -21 22 -23 -24 -25 26 -27 28 -29 -30 -31
leaf_value=0.012898666356859358 -0.019865675659454848 -0.039373737068369309 -0.00018716097178447452 0.014125008220292508 -0.011293613072332141 0.016286079413210728 0.03188265454765684 -0.024834548771833668 -0.053541721484490191 -0.049442745233547823 -0.076940768423001196 -0.0081464111574495804 -0.0021396497902553459 -0.022553241723300803 0.10788670454676606 -0.01310103628088144 -0.021787491622528507 0.089269819447429885 0.041826944802520159 0.047801728817285075 -0.0059579508966459884 -0.072019490324374325 0.056076920111727518 0.081857922598748467 -0.039834339768155057 0.07356247450201274 0.028738570179567959 0.1160842794475465 -0.026391994697694265 0.088793800428625946
leaf_count=468 5484 1349 5733 273 347 1271 4470 1028 997 2109 55 1080 2559 1206 257 3018 564 469 2942 316 379 196 799 540 4262 152 383 43 951 360
internal_value=0 0.061537 0.0820584 0.0137491 0.225925 -0.0150521 0.065655 0.218856 -0.0668244 -0.186555 -0.147669 -0.057444 0.0761839 0.123071 0.265246 -0.276505 0.283495 0.516712 0.416173 0.031215 0.15806 -0.07026 0.367014 0.601418 -0.29255 0.354917 -0.319605 -0.171704 -0.0988787 0.470462
internal_count=44060 29009 27660 19439 8221 18626 12228 5498 6730 6398 15051 9248 4572 3764 2515 5127 1817 937 3649 880 2258 2755 1178 813 5803 207 5596 1249 1334 3302
shrinkage=0.1


Tree=17
num_leaves=31
num_cat=0
split_feature=18 11 1 18 18 21 1 18 8 16 4 26 18 9 20 26 11 17 21 12 17 16 17 1 20 23 7 12 0 13
split_gain=74.6788 76.373 66.0555 70.1165 85.4247 69.1259 57.2316 54.5881 53.8562 51.1477 67.3859 52.8606 50.4505 45.3993 43.7616 41.691 37.4472 35.7046 35.3414 33.2465 32.0685 29.8437 29.2684 25.5117 23.5314 23.2827 23.1638 20.8376 18.8352 19.1886
threshold=2428.5000000000005 0.46962605601554758 2.9938541981908529 516.50000000000011 1623.5000000000002 1.0000000180025095e-35 4.3374186392896847 360.50000000000006 1.0663674007150727 42.500000000000007 0.31300172612197935 43.852896153276411 1183.5000000000002 1.0642335277251813 0.093500000000000014 68.242892620186112 5.5371304995659214 455.50000000000006 0.52010000000000012 170.50000000000003 615.50000000000011 14.500000000000002 299.50000000000006 2.1895656632542675 0.33160000000000006 -100.06862745098037 1.496496663143805 42.500000000000007 1.5310564748436295 14.622381825166773
decision_type=2 2 2 2 2 2 2 2 2 2 2 2 2 2 2 2 2 2 2 2 2 2 2 2 2 2 2 2 2 2
left_child=1 26 9 5 12 7 8 22 -6 13 11 -11 14 16 -5 -14 23 21 -2 -13 24 -7 -4 -3 -12 -9 -1 -8 29 -20
right_child=18 2 3 4 6 17 27 25 -10 10 20 19 15 -15 -16 -17 -18 -19 28 -21 -22 -23 -24 -25 -26 -27 -28 -29 -30 -31
leaf_value=0.096275471303985755 -0.056485068126556126 0.10232066121058697 0.018757918867660796 -0.026668276705902556 -0.0031741350164421695 0.024882088518364265 -0.033972254652179797 -0.0085303430048739512 0.055623696574740679 0.056646370139217028 -0.061679559035894373 -0.016947355750201617 -0.013490388254689584 -0.031578886377813413 0.00031766405323305127 -0.05733889463514108 -0.0050908499002989228 0.068835521561736099 -0.012708701843810241 0.073891468134721291 0.052588600661929441 -0.020944325240620926 -0.05887816908322821 0.04430310262694858 -0.013302110477949033 0.065414238591761875 -0.052672259069651811 0.037047416009828277 -0.065163474665928978 0.087888433286765155
leaf_count=453 2422 368 867 5896 1281 791 1356 207 1729 1376 565 1156 1953 407 7088 3024 618 271 246 205 285 3225 295 2395 3187 1728 49 244 166 207
internal_value=0 0.0184013 0.00689576 -0.0494493 -0.1166 0.128132 0.150348 0.359864 0.3164 0.149932 0.0345733 0.285594 -0.191604 0.341356 -0.116863 -0.394265 0.420677 -0.0567625 -0.407755 -0.0206129 -0.151171 -0.110161 0.00547519 0.522854 -0.208193 0.574999 0.816784 -0.217951 0.112278 0.357944
internal_count=44060 41019 40517 29955 22571 7384 4610 3097 3010 10562 6774 2737 17961 3788 12984 4977 3381 4287 3041 1361 4037 4016 1162 2763 3752 1935 502 1600 619 453
shrinkage=0.1


Tree=18
num_leaves=31
num_cat=0
split_feature=2 16 1 11 26 17 14 14 9 8 8 13 11 18 2 19 17 20 18 8 18 25 19 25 18 18 24 7 24 0
split_gain=67.0643 69.4198 64.5883 67.057 63.1274 68.952 51.8367 66.2041 46.5658 61.2045 47.3654 42.9251 42.5955 34.5536 34.3177 34.1053 71.9406 32.5037 30.0993 26.5537 25.6519 25.368 24.9497 23.631 17.207 16.3649 15.5369 14.5742 13.7743 14.6585
threshold=6.0174087173579123 38.500000000000007 2.3265470539873427 5.5371304995659214 12.271968341323452 420.50000000000006 32.809750000000008 -12.952499999999999 1.047561045464044 1.0225059470314666 0.88874413303736366 32.781097339483757 2.4309511845770877 1515.5000000000002 1.2018907894736846 795.50000000000011 861.50000000000011 0.29160000000000003 2087.5000000000005 1.0813637370349531 587.50000000000011 30.907320993460051 107.50000000000001 32.712039863845355 299.50000000000006 2298.5000000000005 47.370382721619556 1.2334892467567156 96.441401952695273 2.1235915784950747
decision_type=2 2 2 2 2 2 2 2 2 2 2 2 2 2 2 2 2 2 2 2 2 2 2 2 2 2 2 2 2 2
left_child=1 2 -1 8 19 6 7 27 9 14 22 -9 21 -11 -4 16 20 -18 -17 25 -7 -8 -10 -14 -12 -3 -20 -6 29 -2
right_child=28 4 3 -5 5 15 12 11 10 13 24 -13 23 -15 -16 18 17 -19 26 -21 -22 -23 -24 -25 -26 -27 -28 -29 -30 -31
leaf_value=0.076127553229878492 -0.062321192226899573 0.073625793008220045 0.031773154852512003 -0.034576425302226377 -0.057716897610766288 0.047399813522134626 0.032104165185635115 0.016262335308204794 0.10287908171541525 0.033835941241414216 0.033391027174551509 -0.025192884895077729 -0.0056975239485006724 0.090832598357818206 -0.01495251357676094 -0.04127489321619885 -0.034265384794765152 0.098832744085995489 -0.066295464530757728 -0.054374348578555165 -0.002459570693859887 -0.017209353154489206 -0.052246353134861402 -0.047927706559611767 -0.0095159134174943351 -0.088356162804438101 0.031379048484295 -0.0036551667340438696 -0.072877880252217295 -0.01605051625681865
leaf_count=653 521 681 1147 1498 1204 637 617 5515 282 4236 436 1680 838 535 2105 927 110 722 100 104 2197 4702 58 4560 4998 39 705 352 559 1342
internal_value=0 0.017347 0.127629 0.0974407 -0.0587974 -0.0807817 -0.146773 -0.0201682 0.144384 0.250839 -0.00570935 0.0684181 -0.25949 0.405538 0.018798 0.140878 0.257821 0.826498 -0.128806 0.528373 0.090114 -0.111318 0.768316 -0.409091 -0.0563118 0.668705 0.195274 -0.456997 -0.38922 -0.294144
internal_count=44060 41638 15948 15295 25690 24866 19468 8751 13797 8023 5774 7195 10717 4771 3252 5398 3666 832 1732 824 2834 5319 340 5398 5434 720 805 1556 2422 1863
shrinkage=0.1


Tree=19
num_leaves=31
num_cat=0
split_feature=18 11 10 18 1 18 13 1 8 4 16 15 21 8 4 8 3 7 8 22 16 25 10 0 7 8 26 15 24 9
split_gain=59.9948 61.3411 52.5496 50.2215 53.35 64.293 44.3689 46.62 61.1574 36.1663 33.7212 32.0442 28.8034 27.5181 23.9433 18.9769 18.3312 19.0418 19.6938 17.0687 21.0183 16.9744 16.4627 15.9277 17.7955 15.5953 15.5094 16.2828 15.0971 14.205
threshold=2428.5000000000005 0.17638911932775528 0.0092811562208044134 1591.5000000000002 2.744138921643549 951.50000000000011 38.323410746477592 5.3014303778227019 1.1013578983851529 0.37589531444981966 42.500000000000007 5.3015000000000008 0.52010000000000012 0.98476957170468726 0.57934126681965481 1.2141221394700861 11.111158235020229 1.1406965910684883 0.96404965253050834 1.1223222258520325 156.50000000000003 85.859280024027825 0.0020038664618271611 1.6498390038543884 1.0116471499844581 1.0813637370349531 48.796655775814209 1.0682000000000003 35.697689014436861 1.0899419779803614
decision_type=2 2 2 2 2 2 2 2 2 2 2 2 2 2 2 2 2 2 2 2 2 2 2 2 2 2 2 2 2 2
left_child=1 15 16 4 9 11 7 8 -5 13 -11 -6 25 -4 -7 -1 26 18 29 -8 -21 -19 -20 24 -14 -2 27 28 -3 -18
right_child=12 2 3 6 5 14 19 -9 -10 10 -12 -13 23 -15 -16 -17 17 21 22 20 -22 -23 -24 -25 -26 -27 -28 -29 -30 -31
leaf_value=0.10745586876483532 -0.0657716715908373 -0.04108626704081806 0.011713642923557019 0.010050807693153599 0.0044227433070543254 -0.010486943850822892 -0.05160250229864588 -0.045016260606115834 0.058686577446258603 0.031962769196476511 -0.028116621860324688 -0.019151821054988902 -0.11055545030426023 0.062161882982813089 -0.035017289648456587 -0.035505607629709238 -0.016349873889142386 0.0024453607825292503 0.10902720193736003 0.030482582627308692 -0.068495188314488059 0.05396231577063091 0.047368093410532441 -0.076004511960212406 0.043258402238665519 -0.016152950187727472 -0.010859770888754817 0.011221794609186684 0.1050118995899379 0.087699453628235419
leaf_count=294 1794 37 991 3496 10154 3105 624 580 1834 658 1274 4465 58 920 6607 44 301 1263 227 380 159 371 942 130 431 628 1234 829 158 72
internal_value=0 0.0161659 0.00759912 -0.0262422 -0.070346 -0.112174 0.13803 0.213219 0.270073 0.163055 -0.0546237 -0.0206713 -0.372286 0.36311 -0.263793 0.884515 0.19777 0.300797 0.466207 -0.264171 0.0291134 0.140814 0.597023 0.0926823 0.277595 -0.520578 0.0535298 0.239653 0.77365 0.040681
internal_count=44060 41019 40681 35247 28174 24331 7073 5910 5330 3843 1932 14619 3041 1911 9712 338 5434 3176 1542 1163 539 1634 1169 619 489 2422 2258 1024 195 373
shrinkage=0.1


Tree=20
num_leaves=31
num_cat=0
split_feature=11 16 2 11 25 20 7 12 2 5 1 8 1 16 18 2 13 24 7 24 8 20 9 8 19 8 14 19 18 9
split_gain=54.7244 61.7385 66.6869 40.4465 38.0915 57.6656 44.962 33.7385 32.3148 31.0186 29.3025 33.5247 28.5307 34.0328 26.0553 24.5831 25.9247 23.7634 23.4931 22.5036 21.4839 26.9016 23.0903 21.43 24.5947 20.4631 19.8947 19.8364 19.6595 19.6289
threshold=3.6338455468038258 55.500000000000007 2.9196929583333335 0.46962605601554758 39.399832955494553 2.0325000000000002 1.1161316431095811 65.500000000000014 1.4552291964851891 0.65701637764932574 2.5895962354345143 1.0568984625477118 3.2472608889348806 305.50000000000006 2213.5000000000005 1.3213948830409359 -5.3314361735180942 94.363479292306465 1.0030593362010549 62.16098406379286 1.0181676893444134 0.20040000000000005 1.1378156391459582 0.86907171679720496 335.50000000000006 1.0017119485375887 33.446850000000005 43.500000000000007 2462.5000000000005 1.0012375664890776
decision_type=2 2 2 2 2 2 2 2 2 2 2 2 2 2 2 2 2 2 2 2 2 2 2 2 2 2 2 2 2 2
left_child=1 2 3 -1 5 25 9 20 14 15 -9 -12 26 28 29 16 -6 23 -7 27 22 -22 -5 -4 -25 -3 -8 -20 -14 -2
right_child=8 4 17 7 6 18 12 10 -10 -11 11 -13 13 -15 -16 -17 -18 -19 19 -21 21 -23 -24 24 -26 -27 -28 -29 -30 -31
leaf_value=0.098776842726113867 -0.012768744797082269 0.019008851055997662 0.061409092889720518 -0.0071180794104391586 -0.065014841593127107 0.0008163446224087028 0.046529034844133892 0.10048477813861972 -0.0276304595761033 -0.056968690729438123 0.0096713576933317325 0.068809981988960753 0.0011936885672034717 -0.051383608512146767 -0.055688700972605677 -0.045065793987412804 0.0067965707376246472 -0.03654189805824834 0.11622785582361626 0.010756749789105157 0.004525222847506334 0.035169521096308227 0.08037208741571053 -0.0086613829918914097 0.031078357580489553 -0.04543710402835377 -0.0021272992538120417 0.046821653609331479 -0.061707156543345569 0.016229592110905033
leaf_count=297 2210 391 254 2497 307 452 872 343 5136 1650 1124 732 5366 924 559 1219 1938 1075 391 318 2432 3121 150 4795 909 715 791 391 399 2302
internal_value=0 0.04138 0.128782 0.234577 -0.0653341 0.178667 -0.117714 0.210807 -0.147164 -0.293652 0.446244 0.336108 -0.0135613 -0.0857564 -0.0224187 -0.170491 -0.0314137 -0.044439 0.451995 0.621065 0.145373 0.221468 -0.0193714 0.00921708 -0.0207522 -0.221873 0.242845 0.814364 -0.019651 0.0253602
internal_count=44060 33853 17729 10696 16124 2658 13466 10399 10207 5114 2199 1856 8352 6689 5071 3464 2245 7033 1552 1100 8200 5553 2647 5958 5704 1106 1663 782 5765 4512
shrinkage=0.1


Tree=21
num_leaves=31
num_cat=0
split_feature=10 11 18 21 20 8 8 26 21 26 20 9 11 7 1 8 18 1 13 17 19 6 8 25 16 8 13 24 4 3
split_gain=50.6534 48.61 42.8257 41.4648 96.4733 89.7164 80.6209 69.2981 61.6345 45.8106 44.1977 35.7136 28.5086 28.5013 27.7393 25.5823 22.504 21.9329 23.0303 19.7686 24.4983 17.4402 16.1519 15.9701 15.7716 19.7867 16.0304 15.615 14.4162 14.4035
threshold=0.35018073597508664 0.17638911932775528 2428.5000000000005 1.0000000180025095e-35 1.0000000180025095e-35 0.95070857085300342 1.0423828397234758 16.060831581279103 -0.0099499999999999988 84.582440092324831 -1.0000000180025095e-35 1.0737088882358796 2.9213623483388864 1.0143631126396759 3.1500002016733606 0.99616275551595312 366.50000000000006 2.5895962354345143 3.8635874483838912 683.50000000000011 592.50000000000011 40.24328821286614 0.97641884985952887 18.604251303541151 509.50000000000006 1.0813637370349531 14.622381825166773 41.928682996962102 0.16844566697591654 12.410538989254222
decision_type=2 2 2 2 2 2 2 2 2 2 2 2 2 2 2 2 2 2 2 2 2 2 2 2 2 2 2 2 2 2
left_child=1 -1 3 8 5 29 7 -6 10 -8 13 12 -10 -3 -7 -12 -13 18 28 23 -21 22 27 -19 25 -4 -26 -20 -2 -5
right_child=17 2 24 4 6 14 9 -9 11 -11 15 16 -14 -15 -16 -17 -18 19 21 20 -22 -23 -24 -25 26 -27 -28 -29 -30 -31
leaf_value=0.087638223650404148 0.046117399681967271 -0.025581531649719644 -0.06529174563271832 -0.056706970861237598 0.051947774675929849 -0.090385673099115674 0.028468049629099469 -0.012222101999453781 0.083777362388391396 -0.0021930750010592261 0.027386710819700816 -0.024281450979977557 0.032504214668306851 0.026328245766430416 -0.035660365269609778 -0.055772009167960671 0.035195049963465251 0.01984984642100171 0.10047353330974443 0.052460666777795477 -0.017698279678123732 -0.031387480654650517 0.10123828414321133 -0.033678249028950849 -0.02768172136478594 0.0047215288977520212 0.13363629006549024 -0.08066198782885392 -0.091273572194592159 0.073406544083143357
leaf_count=289 50 682 1342 45 819 539 7176 11228 941 3668 227 480 967 2122 3505 925 695 330 43 354 1013 117 256 5076 116 380 68 63 137 407
internal_value=0 0.0294788 0.0216549 0.0359215 -0.00417228 -0.320083 0.0511297 -0.0745431 0.183112 0.187639 -0.00517174 0.400739 0.577162 0.139707 -0.438319 -0.383454 0.110605 -0.187254 0.206726 -0.231291 0.0187148 0.470974 0.713184 -0.300831 -0.391307 -0.479619 0.344432 -0.0568342 -0.479012 0.602288
internal_count=44060 36621 36332 34426 27387 4496 22891 12047 7039 10844 3956 3083 1908 2804 4044 1152 1175 7439 666 6773 1367 479 362 5406 1906 1722 184 106 187 452
shrinkage=0.1


Tree=22
num_leaves=31
num_cat=0
split_feature=2 11 16 26 8 25 12 9 1 8 26 18 8 11 1 7 2 8 2 8 19 24 12 10 18 24 16 19 18 22
split_gain=49.8684 55.2878 49.1065 42.2921 43.2122 48.3319 46.3628 42.2902 39.781 37.3767 36.1896 35.3234 28.837 28.6058 27.8903 21.1892 21.0306 20.6287 20.6532 20.4641 18.2276 20.7624 17.3 14.9429 14.5564 13.0465 12.3258 13.2368 15.7541 15.6055
threshold=6.0174087173579123 5.5371304995659214 36.500000000000007 12.271968341323452 1.0625838745585725 45.390987226712106 99.500000000000014 1.0451693083379985 3.628200251298987 0.95368299182994309 84.582440092324831 593.50000000000011 0.88874413303736366 1.0411058932540989 2.3265470539873427 0.98588342537039642 1.24578496642391 0.96886448878141751 1.4149407610993658 1.0813637370349531 107.50000000000001 81.783314129878121 201.50000000000003 0.69153386409614048 299.50000000000006 33.958582205567104 11.500000000000002 304.50000000000006 1364.5000000000002 1.1756526698122212
decision_type=2 2 2 2 2 2 2 2 2 2 2 2 2 2 2 2 2 2 2 2 2 2 2 2 2 2 2 2 2 2
left_child=1 2 7 19 5 15 -7 9 10 16 -6 -10 20 -11 -15 -5 -1 25 -19 23 21 -9 24 -4 -14 -3 -2 -28 29 -29
right_child=26 17 3 4 8 6 -8 12 11 13 -12 -13 22 14 -16 -17 -18 18 -20 -21 -22 -23 -24 -25 -26 -27 27 28 -30 -31
leaf_value=0.021025332656555699 0.036420025419793771 -0.0059582709880272164 0.069358899008722066 -0.021865100021099038 0.037654469332409228 -0.032349088460441058 0.011281337208837568 0.12549112035428475 0.02653115919631854 0.091470555786048097 -0.0064598721239850403 -0.013097863008704056 0.029078009123402596 0.081054723475056781 0.022912118305171317 0.018110025284225079 -0.051366182569984944 0.0036233208330644106 -0.037366250433872809 -0.044438495705921781 -0.051658654005684479 0.0029969640882733014 0.10636720836827872 -0.053786018951688545 -0.0093918044869395877 -0.066611492183527257 -0.050774536608826665 -0.056884296648500143 -0.072420659112049812 0.03668135047853216
leaf_count=341 110 240 616 958 2630 7129 1537 170 1433 325 1469 6085 464 380 6274 2562 481 1363 1157 112 56 96 59 51 4801 849 1625 136 194 357
internal_value=0 0.014815 0.0400135 -0.0237542 -0.0423398 -0.139866 -0.238243 0.143336 0.0574179 0.246134 0.229118 -0.0481024 -0.00129556 0.295784 0.264937 0.0788836 -0.206636 -0.254368 -0.145513 0.469985 0.607174 0.829149 -0.0413993 0.603846 -0.0555198 -0.525983 -0.342084 -0.384519 -0.10763 0.106224
internal_count=44060 41638 38029 24582 23803 12186 8666 13447 11617 7801 4099 7518 5646 6979 6654 3520 822 3609 2520 779 322 266 5324 667 5265 1089 2422 2312 687 493
shrinkage=0.1


Tree=23
num_leaves=31
num_cat=0
split_feature=2 7 25 26 8 18 18 8 1 1 11 25 2 18 16 18 16 10 26 4 9 11 16 18 9 18 18 18 11 4
split_gain=45.4954 45.4465 39.7662 35.0755 61.5429 36.2565 36.1286 42.9416 35.8003 33.8652 32.9661 32.2207 30.4911 29.0871 26.1031 25.2517 24.8989 24.0317 26.0317 23.7007 23.0616 22.6343 22.3379 21.3875 21.294 20.4022 20.3991 20.3574 19.225 17.7031
threshold=2.5877196544980445 1.0474295295519218 22.431057250614053 84.582440092324831 1.1740563299003954 299.50000000000006 1503.5000000000002 1.1362189050961742 5.078797857586216 2.744138921643549 2.9371464041105004 68.190916675706561 8.1265444444444448 2195.5000000000005 13.500000000000002 2428.5000000000005 542.50000000000011 0.0085893435123287239 30.240800845426104 0.5290234066553865 0.97862164130249762 0.46962605601554758 24.500000000000004 334.50000000000006 1.0523542468522407 2477.5000000000005 869.50000000000011 997.50000000000011 0.46962605601554758 0.20141820801501142
decision_type=2 2 2 2 2 2 2 2 2 2 2 2 2 2 2 2 2 2 2 2 2 2 2 2 2 2 2 2 2 2
left_child=1 2 -1 6 5 -5 9 11 16 19 12 15 14 17 24 -8 -9 18 -4 23 -12 -11 -13 -3 -2 -16 -23 -21 -19 -30
right_child=10 3 13 4 -6 -7 7 8 -10 21 20 22 -14 -15 25 -17 -18 28 -20 27 -22 26 -24 -25 -26 -27 -28 -29 29 -31
leaf_value=0.026348436377362568 0.070665959612050952 -0.044409879693072668 0.07007950480861129 0.092885711966421702 0.028490920138454348 -0.028388211750848991 0.057319941291868605 0.11154207747822359 -0.08173790891777355 0.09626160329165584 0.012544848411691926 0.085279443872465971 -0.052168377673299904 -0.054203153695214217 -0.0035175861830835488 -0.033218973945614183 -0.085022622867897441 0.076732151594996745 -0.00070824211823700633 0.030061154257386782 -0.036420614037152022 0.011781688239073454 -0.0049179274764764172 0.060883820318500592 0.0053798012695504965 -0.077451365651419413 -0.011248381905956999 -0.049585228608028831 0.0049619584535228502 -0.024526730935730552
leaf_count=1372 387 89 297 111 1875 3294 1216 541 70 114 631 131 776 1211 9399 255 33 96 937 403 3329 4104 1635 1070 552 323 3519 244 1286 4760
internal_value=0 0.0497286 -0.0774635 0.11282 -0.0488269 -0.234914 0.17014 0.350428 0.855875 0.0984322 -0.104845 0.243594 -0.0421009 -0.139577 -0.0123448 0.473909 1.01007 -0.0940754 0.170968 0.3541 -0.288002 0.0321822 0.0304886 0.52743 0.325198 -0.050784 0.0168623 0.0217827 -0.157613 -0.17567
internal_count=44060 28663 9959 18704 5280 3405 13424 3881 644 9543 15397 3237 11437 8587 10661 1471 574 7376 1234 1806 3960 7737 1766 1159 939 9722 7623 647 6142 6046
shrinkage=0.1


Tree=24
num_leaves=31
num_cat=0
split_feature=11 12 8 26 10 8 12 11 26 4 21 12 7 18 20 23 8 25 17 4 2 5 17 8 26 14 18 23 2 8
split_gain=39.3397 48.31 45.0268 35.6074 35.0504 33.6719 23.5049 22.7658 22.4575 21.3805 26.7769 21.9826 21.0362 20.9766 27.5644 20.5983 20.5894 19.2957 18.7261 18.0475 18.0308 17.5576 16.7855 16.7565 16.295 16.1588 15.9906 15.6987 17.1067 15.9469
threshold=5.7592649310565962 43.500000000000007 0.94587578222407032 63.422773267440355 0.032171772410304861 1.1345988032580727 99.500000000000014 1.7774754350981457 81.586851926795319 0.69746108670741036 0.061950000000000005 342.00000000000006 0.93767401224798952 487.50000000000006 0.17405000000000004 -68.088137237073383 0.86907171679720496 8.0423708607413875 398.50000000000006 0.66391939318464865 1.24578496642391 0.97251373626373627 710.50000000000011 1.0487273183555199 12.271968341323452 33.148750000000007 409.50000000000006 119.16594641313746 4.9520673611111112 1.1233579185313702
decision_type=2 2 2 2 2 2 2 2 2 2 2 2 2 2 2 2 2 2 2 2 2 2 2 2 2 2 2 2 2 2
left_child=1 4 20 9 16 6 23 8 19 10 15 -12 -2 26 -15 -4 -1 -14 -18 -6 24 -7 -23 -5 -3 -20 -11 28 29 -9
right_child=12 2 3 5 7 21 -8 27 -10 13 11 -13 17 14 -16 -17 18 -19 25 -21 -22 22 -24 -25 -26 -27 -28 -29 -30 -31
leaf_value=0.068374929299292508 -0.079909150003883003 0.080287817299183065 0.029219662751486682 -0.035587238082224269 0.031671418215914786 0.018016503333216586 0.017375408329530464 -0.019177017509854847 -0.017520646820143714 0.0047410486704000466 0.025497457461963264 -0.13310671307333236 0.11706208480685897 -0.039434924080719129 0.022198420015890959 0.079537010234811342 -0.00011057194085491627 -0.020832052494271142 0.051838455072719204 -0.0023255401297784489 -0.052987164478221799 0.040599816849402039 0.14357720668615662 -0.0023436585680905323 -0.015684718596167293 0.0062907742420720602 0.07755168863464057 -0.046344331941895585 -0.04096483284277172 0.0031678124909246715
leaf_count=219 374 90 625 1597 1398 1764 1381 5031 2567 244 2610 39 48 733 833 903 8124 2865 628 2128 774 271 106 1651 662 814 304 1081 1393 2803
internal_value=0 0.017028 0.119593 0.160024 -0.0428049 0.0438879 -0.0671059 -0.114785 7.2201e-05 0.276865 0.363937 0.229741 -0.243615 0.0891448 -0.0555899 0.587235 0.0551359 -0.183028 0.0395842 0.119027 -0.264388 0.274407 0.709986 -0.176964 -0.0185748 0.263504 0.438815 -0.183951 -0.152548 -0.111168
internal_count=44060 40773 14587 13061 26186 6770 4629 16401 6093 6291 4177 2649 3287 2114 1566 1528 9785 2913 9566 3526 1526 2141 377 3248 752 1442 548 10308 9227 7834
shrinkage=0.1


Tree=25
num_leaves=31
num_cat=0
split_feature=11 12 10 17 9 1 18 19 2 8 18 4 26 12 21 17 5 20 6 9 20 14 9 11 1 21 11 10 18 18
split_gain=35.8323 41.354 35.2546 31.2301 32.0952 29.7681 32.4378 29.7079 27.3824 25.4677 24.5977 30.9933 23.7499 23.5522 23.0192 22.0136 21.1041 20.3771 20.1966 20.1116 19.8225 19.6789 19.3626 19.0643 20.2616 18.6258 17.8168 16.4589 16.2752 23.5498
threshold=3.3796232294662332 40.500000000000007 0.69153386409614048 637.50000000000011 0.99214705137740933 3.1607606993742459 2247.5000000000005 795.50000000000011 7.7617148148148161 0.93728809752830189 557.50000000000011 0.79676548049755491 84.335319127264469 31.500000000000004 1.0000000180025095e-35 74.500000000000014 0.5457810636653514 2.5305000000000004 -63.596387372914187 1.1621840465115052 0.050000000350000011 23.117450000000005 1.1985809573468511 1.5195878063987618 2.7707501339840221 -0.0073499999999999998 2.6376924820359395 0.023530360939094549 360.50000000000006 299.50000000000006
decision_type=2 2 2 2 2 2 2 2 2 2 2 2 2 2 2 2 2 2 2 2 2 2 2 2 2 2 2 2 2 2
left_child=1 8 3 4 15 6 9 20 10 -2 14 12 16 -11 28 -3 -12 18 -15 -13 25 -19 -16 -6 -25 -5 -17 -7 29 -1
right_child=5 2 -4 7 23 27 -8 -9 -10 13 11 19 -14 17 22 26 -18 21 -20 -21 -22 -23 -24 24 -26 -27 -28 -29 -30 -31
leaf_value=0.041473258135453966 -0.042795482852383569 0.012386417831416405 -0.01982217689720361 0.067590030760361838 0.0324141528680063 -0.0025841329611474397 -0.053326370219289855 0.0052708968217940778 -0.045879099685808507 -0.017913808578335147 0.020221716507909347 -0.026411772139552737 -0.02286804749514515 -0.0019833661678350322 -0.006403611355492742 0.073817200945308525 -0.0038034967860237651 0.028425822903538751 0.053588659603055325 0.0060720363108199655 0.095968777397482788 -0.016690952602062385 0.047173863034564313 0.024444353631090557 -0.0087737479253057228 -0.10202377565005386 0.02128926188692715 -0.029422404110618711 0.04857979611640157 -0.030911310904812223
leaf_count=417 509 1134 1438 74 1074 1460 743 403 895 1016 3541 4887 1743 417 2536 878 3857 821 1078 1492 564 1034 382 1189 3640 56 521 4859 1023 379
internal_value=0 0.0375088 0.148322 0.19498 0.147077 -0.108987 0.00655435 0.53424 -0.0228346 0.0597755 -0.00714786 -0.0550964 0.0263543 0.110583 0.125585 0.359654 0.0790865 0.197921 0.38202 -0.189115 0.793719 0.0431561 0.00315746 0.0574148 -0.00293442 0.0207079 0.546548 -0.221635 0.308904 0.0848806
internal_count=44060 32123 10971 9533 8436 11937 5618 1097 21152 4875 20257 15520 9141 4366 4737 2533 7398 3350 1495 6379 694 1855 2918 5903 4829 130 1399 6319 1819 796
shrinkage=0.1


Tree=26
num_leaves=31
num_cat=0
split_feature=23 2 7 25 8 25 18 21 4 15 18 12 3 9 20 18 18 11 2 9 9 1 8 8 18 6 8 20 19 8
split_gain=33.3498 33.7008 37.0848 31.4481 45.0111 29.7428 27.6577 27.6551 27.1478 31.2684 21.6833 25.575 23.5556 21.4176 24.8682 22.7027 20.9065 20.4946 19.9275 22.0889 23.969 24.262 25.1974 19.5517 18.8339 18.82 17.2028 16.6916 16.6399 15.2517
threshold=75.602730889838355 2.8477732638888891 1.0089254095936873 79.031507556774059 1.1248395583782675 14.677727855067753 2087.5000000000005 0.0020000000500000003 0.52050459688826034 1.0000000180025095e-35 990.50000000000011 112.50000000000001 16.169425870000616 0.99214705137740933 0.33160000000000006 293.50000000000006 360.50000000000006 2.4184719941004991 8.1265444444444448 1.1539298119898687 1.0369167401399568 5.7057474312989056 1.03371986761435 1.2051835619679108 2051.5000000000005 56.425813342656774 1.0523729562966102 -4.6749999999999989 19.500000000000004 0.93728809752830189
decision_type=2 2 2 2 2 2 2 2 2 2 2 2 2 2 2 2 2 2 2 2 2 2 2 2 2 2 2 2 2 2
left_child=1 2 5 8 10 -1 27 -2 9 -4 12 -12 -5 14 -10 -15 -11 25 19 20 21 22 -3 -8 29 -9 28 -6 -21 -7
right_child=7 18 3 4 6 24 23 17 13 16 11 -13 -14 15 -16 -17 -18 -19 -20 26 -22 -23 -24 -25 -26 -27 -28 -29 -30 -31
leaf_value=0.040153123112968703 0.043581390735742825 -0.020655027710954371 -0.058446162525344528 -0.027453477153389607 0.087681904501818481 -0.034081091149416917 0.031087747926296157 -0.054717816556270997 -0.0024931542032765285 -0.0041947665267032435 -0.038199891563371835 0.018805444488326425 0.031227305680610513 0.055691994035318985 0.050241707883165745 -0.0024086265807631837 0.035376125414130905 -0.03684399574002821 -0.048770288263824069 0.13534241517456558 -0.023274968481061354 -0.064611281994848821 0.020318432482895658 0.12120262551900474 -0.0585719667396589 0.0013253704853397428 0.0021623538157494225 0.0056622022570591568 0.030427930480571103 -0.003308774940268322
leaf_count=487 327 1255 184 581 127 1253 323 384 787 668 2604 476 776 312 1102 5620 4886 2585 763 94 4534 321 2300 202 719 2194 1878 2747 465 3106
internal_value=0 0.021061 0.0637304 0.104295 -0.012938 -0.108476 0.181084 -0.173577 0.166727 0.275496 -0.168315 -0.283426 0.0588793 0.0777031 0.287348 0.0114407 0.30431 -0.219031 -0.0850424 -0.0618618 -0.118002 0.0152744 0.0658648 0.662382 -0.166096 -0.071391 0.133044 0.0945363 0.475053 -0.116741
internal_count=44060 38570 26960 21395 7836 5565 3399 5490 13559 5738 4437 3080 1357 7821 1889 5932 5554 5163 11610 10847 8410 3876 3555 525 5078 2578 2437 2874 559 4359
shrinkage=0.1


Tree=27
num_leaves=31
num_cat=0
split_feature=16 1 11 26 17 14 14 11 9 8 19 1 13 2 5 12 20 8 25 8 8 22 1 10 17 19 26 21 19 17
split_gain=31.9536 41.2043 44.4107 35.4591 35.2669 38.4375 33.189 32.9346 34.318 36.9718 28.6056 27.3712 26.9496 26.8367 26.2778 21.6621 21.6109 21.1308 18.5009 17.006 16.6684 16.3899 19.5461 16.1366 14.6608 22.3215 13.921 13.7823 13.5934 13.9032
threshold=56.500000000000007 2.5095976185291593 1.5195878063987618 12.271968341323452 549.50000000000011 50.027000000000008 -12.952499999999999 6.8835828961178409 1.0189002804039087 1.0192848775837533 551.50000000000011 4.6481086579901012 32.781097339483757 1.6279809006211179 0.35834425419698707 51.500000000000007 5.5290000000000008 0.89537084608377759 13.031284317474901 1.0602090134923903 1.0487273183555199 1.0708530637451503 5.4447576722983566 0.71950769818109184 752.50000000000011 759.50000000000011 73.255278837162663 1.0000000180025095e-35 526.50000000000011 861.50000000000011
decision_type=2 2 2 2 2 2 2 2 2 2 2 2 2 2 2 2 2 2 2 2 2 2 2 2 2 2 2 2 2 2
left_child=1 15 21 19 5 6 -5 8 9 -4 28 -11 14 27 -8 -1 -14 -15 -7 23 -20 -3 -23 -2 -12 -26 -9 -10 -6 -30
right_child=3 2 7 4 10 18 12 26 13 11 24 -13 16 17 -16 -17 -18 -19 20 -21 -22 22 -24 -25 25 -27 -28 -29 29 -31
leaf_value=0.01640739867118348 0.069687659425503409 -0.0084960985550335683 -0.0093265698877028937 -0.046663141487434695 0.028472982046196384 0.039336548506519881 0.023964696241667287 -0.056467200668539254 0.040361983496879146 0.030847593379911636 -0.068170208209834687 -0.022129659410261213 0.00082044983728775845 0.032301464726837828 -0.0055079189364279748 0.063061494067736909 -0.044148254095845607 -0.017472695002398588 -0.049650827510747272 -0.035989805710750486 -0.02154852426551113 0.039897817723541923 -0.0049677565767499042 -0.067121591413638312 0.056348849129360647 -0.011100684075624728 0.0067065531143843038 0.0021162484537883895 0.037728643749327613 0.17725621802373098
leaf_count=1101 479 596 2694 1048 1218 195 2415 804 603 3752 196 625 1094 426 4575 759 1354 7635 2490 119 2786 2428 650 47 295 1655 248 1634 80 59
internal_value=0 0.0515022 0.0231322 -0.0729597 -0.0926203 -0.141685 -0.062275 -0.02233 0.000388624 0.120147 0.114135 0.242752 -0.0195974 -0.0826533 0.0518157 0.353668 -0.236527 -0.145897 -0.313957 0.426163 -0.343461 0.245448 0.311942 0.584145 -0.0600474 0.0003353 -0.419712 0.125585 0.360438 1.0105
internal_count=44060 23955 22095 20105 19460 15957 10486 18421 17369 7071 3503 4377 9438 10298 6990 1860 2448 8061 5471 645 5276 3674 3078 526 2146 1950 1052 2237 1357 139
shrinkage=0.1


Tree=28
num_leaves=31
num_cat=0
split_feature=11 23 2 22 16 2 26 23 15 11 21 3 19 17 5 4 3 1 16 26 8 18 18 22 23 19 0 16 9 1
split_gain=29.3481 30.1994 28.3478 27.5389 27.133 24.9402 24.7632 24.0712 26.7296 22.8276 22.5867 21.2202 20.618 21.995 19.8906 18.6392 16.514 26.5183 17.5464 15.842 20.5364 16.5563 16.4182 14.7678 14.5612 18.1142 14.5279 13.8489 13.4991 13.365
threshold=2.5570038068931074 50.000001874999974 7.7617148148148161 1.0529520052619801 310.50000000000006 2.0452469135802471 46.594638508726554 -0.91533660089648528 3.3841500000000004 7.6131832249499931 0.0020000000500000003 8.5097445813009251 9.5000000000000018 425.50000000000006 0.17002024291497977 0.3320117878192535 14.149854242001833 2.7834427306527707 83.500000000000014 16.060831581279103 1.0726601262020481 1958.5000000000002 2298.5000000000005 1.1345888006477891 14.099050184225382 226.50000000000003 1.8741262715059988 95.500000000000014 1.1353184211561087 4.3726370967743895
decision_type=2 2 2 2 2 2 2 2 2 2 2 2 2 2 2 2 2 2 2 2 2 2 2 2 2 2 2 2 2 2
left_child=2 7 3 6 5 16 15 9 29 19 26 -6 28 -14 23 -1 17 -5 -18 -2 22 -22 -21 27 25 -16 -3 -10 -7 -9
right_child=1 10 -4 4 11 12 -8 8 14 -11 -12 -13 13 -15 24 -17 18 -19 -20 20 21 -23 -24 -25 -26 -27 -28 -29 -30 -31
leaf_value=0.04897151277364413 0.024420919399115178 0.093618288885302589 -0.04168945786497319 0.038614705675322825 0.078277701683703113 0.015908379118678453 -0.028205720691810227 0.02274874148376697 0.046737746575955058 -0.047237012104288406 -0.033437003069332283 -0.028683588338440886 -0.0076077650708348023 0.016107261708071901 -0.016957263860634324 -0.01077058635610246 0.037563903911658564 -0.0089613514319706582 0.0099134414648615263 -0.015268540391654857 -0.0018262743411085727 0.046366003508241778 -0.068199147169830429 -0.025300374974072698 -0.033955556106770791 0.045337620963627367 -0.027855297192186476 0.19437978914843343 0.064758389129891611 -0.018648457112953085
leaf_count=398 691 114 842 848 102 1061 2086 3491 103 845 3001 1406 6088 3046 912 604 3473 1766 1838 4891 2690 429 521 82 1408 340 80 52 434 418
internal_value=0 -0.0668742 0.0519217 0.0650838 0.0962404 0.11933 -0.132718 -0.0294293 0.0733161 -0.101967 -0.279137 -0.208159 0.0455763 0.00518135 -0.107415 0.139974 0.213569 0.0691457 0.286152 -0.069414 -0.0984402 0.0492616 -0.185731 0.535641 -0.168356 0.0150966 0.438599 0.961833 0.299142 0.183969
internal_count=44060 20068 23992 23150 20062 18554 3088 16873 6806 10067 3195 1508 10629 9134 2897 1002 7925 2614 5311 9222 8531 3119 5412 237 2660 1252 194 155 1495 3909
shrinkage=0.1


Tree=29
num_leaves=31
num_cat=0
split_feature=10 11 17 25 8 3 9 22 18 18 2 8 7 2 19 15 0 9 1 13 16 8 20 25 21 8 9 1 9 6
split_gain=28.3566 26.766 24.4515 25.9497 36.6071 27.8313 24.8172 24.7893 23.259 24.6367 22.9782 22.4818 25.6748 21.222 20.7459 22.0249 20.3354 16.5515 14.5057 19.7079 15.5553 30.411 15.9783 28.808 23.0032 18.1847 17.6717 16.4483 13.728 13.6245
threshold=0.35018073597508664 0.17638911932775528 446.50000000000006 77.749812137694121 1.0813637370349531 20.19016400065922 1.0500154102614572 1.2477514458700389 786.50000000000011 2087.5000000000005 2.4057833333333334 0.78716843411354931 0.97641589998528133 0.65391021220159151 439.50000000000006 2.6525500000000002 2.2141380249195941 1.1081423533655934 2.5895962354345143 3.8635874483838912 88.500000000000014 1.0123212781365105 1.0000000180025095e-35 72.900633522649215 1.0000000180025095e-35 1.1328508352814157 1.0263169845019144 5.7548412089107961 1.2939576298225595 40.24328821286614
decision_type=2 2 2 2 2 2 2 2 2 2 2 2 2 2 2 2 2 2 2 2 2 2 2 2 2 2 2 2 2 2
left_child=1 -1 3 7 5 -5 13 11 10 -10 -6 -3 -13 -4 15 -8 -15 -7 19 -2 21 -20 24 26 27 -25 -24 -23 -22 -21
right_child=18 2 6 4 8 17 14 -9 9 -11 -12 12 -14 16 -16 -17 -18 -19 20 29 28 22 23 25 -26 -27 -28 -29 -30 -31
leaf_value=0.066830572573040342 -0.04749172118487463 0.11339374009787904 -0.034130547800918336 -0.041225728297449277 0.044978436553463355 -0.014435867984895386 0.054214961696761987 -0.054412198638048283 -0.023284079496715907 0.035943315190641013 -0.0017021886066562416 -0.018633236318787348 0.0065050698924783703 0.052038995552200575 -0.011292798207221517 0.0051121261948542107 -0.025171074733353616 0.046031137511881787 -0.044650802979375057 0.062939455417611118 -0.034117515684419987 0.043309851329920025 0.10020762152846314 -0.035228817893538066 -0.072364359852933144 0.028198632038878336 0.011243895430755515 -0.065708567402553 0.035197787290817614 -0.028931002565135214
leaf_count=289 187 85 185 2934 885 1172 590 393 2225 494 1196 2535 18078 1407 2150 1512 193 298 1019 362 3205 292 310 526 323 565 215 124 194 117
internal_value=0 0.022121 0.0163402 -0.0104084 -0.115109 -0.274937 0.145057 0.0317431 0.0205993 -0.129031 0.190902 0.0420115 0.0370126 0.355357 0.0484792 0.201976 0.434573 -0.0134197 -0.143374 0.178817 -0.180575 -0.0624452 0.0815727 0.215505 -0.21678 -0.0178921 0.662748 0.149546 -0.301945 0.419464
internal_count=44060 36621 36332 30295 9204 4404 6037 21091 4800 2719 2081 20698 20613 1785 4252 2102 1600 1470 7439 666 6773 3374 2355 1616 739 1091 525 416 3399 479
shrinkage=0.1


Tree=30
num_leaves=31
num_cat=0
split_feature=24 11 18 18 18 4 18 21 20 1 7 25 19 8 24 21 16 2 3 8 1 26 16 13 16 9 4 6 2 19
split_gain=25.9487 27.7088 26.2477 25.1856 33.9536 64.6792 32.2222 31.2849 31.8047 30.9389 28.4929 29.9252 25.8421 25.776 23.8523 22.7692 21.293 18.8786 17.0169 18.7988 22.1921 17.5064 17.4056 16.9206 16.4964 15.6616 14.9376 13.6005 13.4212 12.6759
threshold=95.891434008204854 1.7660796968975527 2477.5000000000005 1503.5000000000002 918.50000000000011 0.55853363988383353 1183.5000000000002 1.0000000180025095e-35 0.13445000000000004 2.7562475515026095 1.0667044772802901 88.244688467523062 51.500000000000007 1.2108525813181075 49.243362683718914 -0.0099499999999999988 236.50000000000003 4.8178710526315793 13.987614011838417 0.85497944645764556 5.6584564672591862 61.032996111373706 406.50000000000006 47.124568406229272 38.500000000000007 1.2801149415666764 0.97512376539942858 8.2293736141245564 0.57809411764705898 650.50000000000011
decision_type=2 2 2 2 2 2 2 2 2 2 2 2 2 2 2 2 2 2 2 2 2 2 2 2 2 2 2 2 2 2
left_child=1 18 3 4 7 9 -7 15 -9 -6 14 12 -12 -13 23 -3 -4 -2 21 -20 22 -1 -21 -5 -16 -22 -24 -18 -29 -27
right_child=17 2 16 10 5 6 -8 8 -10 -11 11 13 -14 -15 24 -17 27 -19 19 20 25 -23 26 -25 -26 29 -28 28 -30 -31
leaf_value=0.015236359979234851 -0.010415323738650673 -0.0024715607400061191 -0.059224515778741119 0.034820421581094503 0.030983758763786114 -0.017066463536408914 -0.05575712270492738 -0.027995710876754499 0.0024258868853881412 -0.010994880598133297 0.062938923402954067 -0.036727512726619935 0.019075270207171691 0.047230942553235844 0.033247606198885948 0.03341531519664255 -0.061919450218573403 -0.052069341551714346 0.097112457785332951 0.025767758432762994 -0.024050143862275289 -0.015931468499706929 -0.055973734291845857 -0.063381038497902803 -0.039645452542089281 0.095427748051830796 0.11301734546245418 0.1130301500871034 -0.0068873065776926248 -0.075087455643735104
leaf_count=1698 2698 1395 1270 678 1340 2865 2427 2424 7889 2231 951 643 1833 262 189 2113 140 930 136 4964 1054 1930 236 115 1198 114 35 111 157 34
internal_value=0 0.0140863 -0.02093 -0.00839536 -0.0431278 -0.15936 -0.343177 0.0233387 -0.0407461 0.0607055 0.121863 0.233442 0.34092 -0.125809 -0.0960403 0.197934 -0.38455 -0.198021 0.116479 0.187123 0.167916 -0.0058347 0.228236 0.216551 -0.288311 -0.134009 -0.353872 0.149685 0.478959 0.590801
internal_count=44060 40432 30231 28553 22684 8863 5292 13821 10313 3571 5869 3689 2784 905 2180 3508 1678 3628 10201 6573 6437 3628 5235 793 1387 1202 271 408 268 148
shrinkage=0.1


Tree=31
num_leaves=31
num_cat=0
split_feature=11 2 16 9 2 25 1 7 1 21 20 22 18 24 17 10 8 19 16 11 17 19 9 8 22 22 2 19 8 9
split_gain=24.0808 27.3412 29.7177 37.3349 34.1391 27.8932 20.1417 24.301 23.7941 19.6329 19.5474 19.4589 19.3049 19.1838 17.9626 17.9213 17.447 17.1526 27.0374 17.9599 16.8775 27.195 23.0567 15.6214 15.2147 14.0759 14.0726 13.2313 15.3664 13.0309
threshold=5.273513444920833 4.387063751263903 56.500000000000007 0.98885514865402313 1.2981776666666667 13.031284317474901 4.5293435665506783 1.0827200878694336 2.4227163489662975 2.9550000000000005 1.0000000180025095e-35 1.108951065992424 1641.5000000000002 97.196097893347272 450.50000000000006 0.034667678308463672 0.99264987710783281 156.50000000000003 19.500000000000004 3.6640340269904446 736.50000000000011 795.50000000000011 1.159152960348129 0.97217971348359999 1.3566029799779451 1.1112774844358781 2.0140400735294119 119.50000000000001 1.1280842486854845 1.0148529325629285
decision_type=2 2 2 2 2 2 2 2 2 2 2 2 2 2 2 2 2 2 2 2 2 2 2 2 2 2 2 2 2 2
left_child=1 2 3 6 27 10 7 8 -1 20 -4 15 -9 14 17 -6 -12 18 19 -3 22 -22 -7 -2 -16 -8 29 28 -5 -25
right_child=23 13 5 4 11 9 25 12 -10 -11 16 -13 -14 -15 24 -17 -18 -19 -20 -21 21 -23 -24 26 -26 -27 -28 -29 -30 -31
leaf_value=0.078119128962085935 -0.039594721888683869 0.039373094524515644 -0.01959507005736609 0.0078374245439201649 0.00063248127553857791 -0.01184303822119211 0.047460516939999857 0.045688448770475676 0.010859841680752692 0.12743724286447727 0.030388768875548762 0.0078269809771529288 0.11567955257232564 -0.052638215815655934 0.0079685057186181987 -0.025507816890393799 0.12361640600512752 -0.049571783466802903 -0.024215207575513445 -0.077394401172394836 0.043105724234061275 -0.0095006577713614756 0.025066750732061951 -0.011775343438448771 0.11285899555603465 -0.045263674836595158 -0.033892925896066392 0.045096955550930753 0.059302245927829261 0.02618923646074775
leaf_count=268 1296 635 171 1997 2608 12833 128 1058 1940 55 223 5221 207 773 1213 2609 174 754 2208 76 799 1267 1019 1312 82 327 852 943 320 692
internal_value=0 0.0153439 0.0385072 0.099662 0.0455089 -0.0353205 0.291169 0.344434 0.200828 -0.0546954 0.447447 -0.017924 0.581505 -0.140822 -0.0898583 -0.113846 0.711492 -0.178466 -0.0921348 0.273959 -0.0598478 0.130265 -0.0909325 -0.171181 0.145233 -0.185325 -0.0799627 0.237278 0.148516 0.0203048
internal_count=44060 39908 34167 17626 13698 16541 3928 3473 2208 15973 568 10438 1265 5741 4968 5217 397 3673 2919 711 15918 2066 13852 4152 1295 455 2856 3260 2317 2004
shrinkage=0.1


Tree=32
num_leaves=31
num_cat=0
split_feature=10 11 12 10 20 21 8 25 25 0 26 8 18 24 14 8 23 25 8 12 23 8 18 20 7 21 18 2 20 9
split_gain=22.7404 23.0049 25.6717 21.7176 21.1818 52.8528 41.9844 24.6092 21.141 17.5494 16.7411 18.0075 16.858 16.4573 16.3675 17.0362 16.2229 16.2043 21.5322 15.7824 14.9411 14.5534 14.061 13.6112 36.1358 18.0018 13.4977 12.8675 12.2078 11.0533
threshold=0.0020038664618271611 3.5553572887217584 40.500000000000007 0.66366365821674045 1.0000000180025095e-35 0.0010500000000000004 1.0487273183555199 64.764950626233926 70.31009615384616 1.9911688317245491 4.8232215559816707 0.95763734712348636 778.50000000000011 33.958582205567104 30.157750000000004 1.1084906721355769 -64.747307373653669 77.749812137694121 1.1098945191157608 109.50000000000001 112.56313131313134 0.85497944645764556 409.50000000000006 6.8530000000000006 1.0486368998598985 0.29005000000000009 1448.5000000000002 4.5592939393939416 -15.99 1.067368838160758
decision_type=2 2 2 2 2 2 2 2 2 2 2 2 2 2 2 2 2 2 2 2 2 2 2 2 2 2 2 2 2 2
left_child=14 2 17 4 5 16 7 -6 -8 10 -3 13 27 -12 26 -16 -4 20 29 -14 23 -11 -17 25 -25 -2 -1 -13 -20 -19
right_child=1 9 3 -5 6 -7 8 -9 -10 21 11 12 19 -15 15 22 -18 18 28 -21 -22 -23 -24 24 -26 -27 -28 -29 -30 -31
leaf_value=0.055150745542341763 0.0035753468161120157 0.11380409373999108 0.0046932449945968294 -0.016161074034325918 0.01924547983896556 -0.044445374008744709 0.069196562570902787 -0.017106233232243206 0.028358236316670574 0.096996675915856284 0.013240484048288868 0.017374000599480976 -0.018018364994319417 -0.043674267625100904 0.025221158473617541 -0.10788046669301277 0.049127449069994465 -0.039704191302344545 0.09911248710515988 0.013802429022113908 -0.026235503250235027 -0.034852756704391225 0.02442106129458527 -0.025227937437865212 0.040328518734158818 -0.033803835609952211 -0.066178437246302138 -0.072607433985753991 -0.0022662016684072083 -0.013409638921495935
leaf_count=683 8404 50 1162 1558 2372 1092 795 1662 2209 44 370 1949 3586 1307 324 95 599 1765 65 1017 938 1966 64 664 1419 747 52 91 4910 2101
internal_value=0 -0.0113259 0.0185902 0.103754 0.140257 -0.0247365 0.205395 0.0507644 0.397542 -0.107138 -0.0628787 -0.0717345 -0.0215501 -0.301365 0.281905 -0.0202898 0.200994 -0.0306951 -0.110736 -0.103269 0.021561 -0.314769 -0.597702 0.0440128 0.209626 0.00617602 0.47995 0.139319 -0.00879098 -0.248761
internal_count=44060 42842 32462 11449 9891 2853 7038 4034 3004 10380 8370 8320 6643 1677 1218 483 1761 21013 8841 4603 12172 2010 159 11234 2083 9151 735 2040 4975 3866
shrinkage=0.1


Tree=33
num_leaves=31
num_cat=0
split_feature=11 18 1 18 18 6 21 7 12 18 26 8 22 18 20 1 8 18 21 14 8 16 25 8 7 20 1 18 18 2
split_gain=20.9646 22.7123 22.2911 32.2611 33.6612 21.9008 20.8073 19.6734 20.8818 17.9024 17.2691 18.2694 17.2963 17.2402 16.6846 16.3092 20.5447 16.2724 16.121 21.594 15.8744 25.2474 20.3978 14.9099 14.8594 21.2203 14.6726 16.5499 16.1261 20.2898
threshold=1.7997546762244938 2445.5000000000005 2.9938541981908529 2011.5000000000002 911.50000000000011 85.367467599520538 1.0000000180025095e-35 0.93767401224798952 68.500000000000014 353.50000000000006 81.586851926795319 1.1296335594142664 1.0454095022889345 1040.5000000000002 0.33160000000000006 3.628200251298987 0.93728809752830189 334.50000000000006 0.05655000000000001 13.380250000000002 1.1311781767825606 98.500000000000014 44.95837691100926 0.9490739468436018 1.0983517534611182 1.0000000180025095e-35 5.4834757351986338 2087.5000000000005 548.50000000000011 2.2343116666666671
decision_type=2 2 2 2 2 2 2 2 2 2 2 2 2 2 2 2 2 2 2 2 2 2 2 2 2 2 2 2 2 2
left_child=10 2 5 4 6 7 9 -2 14 -4 12 13 -1 -12 -9 16 -14 -10 -7 -20 22 -22 23 -5 -6 -26 27 28 29 -13
right_child=1 -3 3 20 24 18 -8 8 17 -11 11 26 15 -15 -16 -17 -18 -19 19 -21 21 -23 -24 -25 25 -27 -28 -29 -30 -31
leaf_value=-0.016265284550898207 -0.061262249411743477 -0.034987005117534324 -0.011439978854094509 -0.063802855223100682 -0.033351708545531711 0.019310890353550627 -0.0075139321799849836 -0.02221021443280408 -0.026699888176003175 0.024978189271692153 0.0044863417476556297 0.12070737491697643 -0.04418760897571835 -0.040718691976959487 0.010208587788987472 0.0085358566580778419 0.035444494082417156 0.031937404729939875 0.041115032542360638 -0.059725671503469004 0.084821643762663657 0.0023317454894816515 -0.017010683252886672 0.086783698645816754 -0.035288457597476473 -0.0025560428157022919 -0.017793828875093991 0.076470868150469717 -0.0041507742716932559 0.0087483250272383916
leaf_count=849 212 1989 851 52 3494 284 7800 950 237 2198 781 122 180 1229 3612 4255 2543 2651 122 607 388 343 675 180 1747 3488 809 250 965 197
internal_value=0 -0.0329394 -0.0209196 -0.0633746 -0.0906177 0.0704853 -0.00938148 0.109704 0.126566 0.140604 0.0792372 -0.0429566 0.140361 -0.214099 0.0344822 0.177398 0.306427 0.270242 -0.236036 -0.417813 0.238531 0.47724 0.0336913 0.606539 -0.20579 -0.12761 0.0955123 0.221426 0.117025 0.532632
internal_count=44060 31880 29891 21216 19578 8675 10849 7662 7450 3049 12180 4353 7827 2010 4562 6978 2723 2888 1013 729 1638 731 907 232 8729 5235 2343 1534 1284 319
shrinkage=0.1


Tree=34
num_leaves=31
num_cat=0
split_feature=10 3 26 4 11 1 11 8 2 1 21 20 16 15 8 2 20 7 20 13 8 21 24 23 1 14 16 8 9 16
split_gain=19.6376 22.2561 37.7654 33.5174 25.9236 23.1774 22.5416 22.1889 20.7629 19.6742 19.6025 21.9569 16.0383 18.47 29.2129 17.6528 16.7111 14.8878 13.8385 16.13 13.3555 13.2592 12.3194 12.1685 12.0692 16.4841 15.5038 15.6026 13.1076 12.002
threshold=0.35018073597508664 14.149854242001833 47.369555353902008 0.3320117878192535 2.5570038068931074 3.8718705829989362 8.252339673099593 0.98383452705290908 7.4032895484949846 2.3670573423626284 0.045050000000000007 0.93150000000000011 166.50000000000003 3.4558500000000003 1.0153608765424231 2.9196929583333335 0.17405000000000004 1.0474295295519218 9.1050000000000022 -3.4731814346824588 1.0192848775837533 0.50050000000000006 8.972236232896206 -663.83333333333314 3.1713143344473598 71.245800000000017 87.500000000000014 1.0123212781365105 1.2939576298225595 27.500000000000004
decision_type=2 2 2 2 2 2 2 2 2 2 2 2 2 2 2 2 2 2 2 2 2 2 2 2 2 2 2 2 2 2
left_child=1 2 3 9 8 6 10 -4 12 18 -6 -12 15 -14 -15 16 -3 29 19 -1 -20 -11 -19 -17 25 -2 27 -26 -28 -5
right_child=24 4 7 17 5 -7 -8 -9 -10 21 11 -13 13 14 -16 23 -18 22 20 -21 -22 -23 -24 -25 26 -27 28 -29 -30 -31
leaf_value=0.015290366530818285 0.015404364371465099 0.010646317900141629 -0.043912843231702914 0.0092833323303402378 0.025503513392969884 -0.015364831393154461 -0.030934199051974157 -0.010300793457568853 -0.034121126311620627 0.0037512966547236606 -0.05539759460087549 0.0052100355022324648 -0.037635107770377374 0.1353581962209893 -0.0040234522643073497 -0.049700000043153239 0.035026674012445809 -0.10349215682145595 -0.072086851654990944 0.091584430435790343 0.083943449122827252 0.085883460745003276 0.0098771814295373975 0.0093038612101125542 -0.039790719808189691 -0.045651788313950899 -0.037074474354480372 0.0046602782251612945 0.030503371655808534 -0.043770434711673904
leaf_count=170 1406 2238 1320 282 2517 4500 835 6900 577 803 371 4017 599 107 494 203 3673 47 63 471 41 98 1723 3823 765 338 2607 2127 196 749
internal_value=0 0.0183846 -0.057565 0.10182 0.0598363 -0.0151019 0.0577168 -0.152494 0.135478 0.337964 0.0984981 0.00610034 0.154615 -0.101657 0.204408 0.183216 0.258977 -0.0505203 0.59426 0.711695 -0.121717 0.12786 0.0684434 0.0648454 -0.120987 0.0486096 -0.181312 -0.0532901 -0.320484 -0.271492
internal_count=44060 36621 12667 4447 23954 12240 7740 8220 11714 1646 6905 4388 11137 1200 601 9937 5911 2801 745 641 104 901 1770 4026 7439 1744 5695 2892 2803 1031
shrinkage=0.1


Tree=35
num_leaves=31
num_cat=0
split_feature=10 18 18 4 17 19 5 21 21 7 16 2 11 9 14 25 9 17 17 18 19 10 15 2 1 15 9 19 2 26
split_gain=18.8988 20.9712 32.9782 32.1452 30.8737 31.6386 27.6708 24.6255 19.5868 19.0664 22.5316 20.185 16.9146 20.989 16.2369 22.1431 16.1536 16.0459 15.7094 15.2206 15.1819 13.6844 13.6445 13.5573 13.321 12.8975 12.6643 12.0992 10.6452 12.3884
threshold=0.0092811562208044134 340.50000000000006 508.50000000000006 0.71020664750051432 736.50000000000011 795.50000000000011 0.69608102345415779 0.20405000000000004 0.030100000000000005 1.0500367087278237 191.50000000000003 0.34674387399171575 1.6296437665729568 0.99952641371865991 -45.293499999999987 73.759142816977175 1.0500154102614572 69.500000000000014 218.50000000000003 1574.5000000000002 351.50000000000006 0.060672020898017466 4.9110000000000005 1.6451456258890471 4.5492706360550601 4.1010000000000009 0.99278107407550586 25.500000000000004 2.301463993710692 40.042612476061706
decision_type=2 2 2 2 2 2 2 2 2 2 2 2 2 2 2 2 2 2 2 2 2 2 2 2 2 2 2 2 2 2
left_child=17 -2 8 6 12 16 9 -8 14 11 -11 -4 -5 -14 15 -3 -6 26 21 -7 22 -16 -10 -24 -17 -22 28 -28 -1 -30
right_child=1 2 3 4 5 19 7 -9 20 10 -12 -13 13 -15 18 24 -18 -19 -20 -21 25 -23 23 -25 -26 -27 27 -29 29 -31
leaf_value=0.0088355556622120249 -0.02199561049732426 -0.087475496505121389 0.050451932441376961 -0.0019420044312055988 0.075927911037790341 -0.041382414178680264 -0.0016993703126025339 -0.039159376604621626 0.0092990557905846486 0.023920113416289395 -0.0085107548341934371 -0.0069357536241806631 -0.0052157227708991985 -0.030408013696963877 0.0453032377513643 0.17569662856659374 0.019406569830232149 0.021772803133215869 0.021270542344816155 0.0066425034018431431 0.13276319928627656 0.10890868250388951 0.031595764144875658 -0.051111742069222789 -0.015458367848256896 0.015344289058980521 0.00043860795366940466 -0.03819160167570939 0.14203736090997623 0.020406368955874901
leaf_count=494 2509 109 362 3182 343 682 4014 1272 1372 5166 1401 4207 3004 6623 524 32 807 3108 845 946 66 226 139 514 37 110 1298 513 65 90
internal_value=0 -0.0213714 -0.00633093 -0.0333993 -0.115969 0.105702 0.0348964 -0.103118 0.18033 0.0991602 0.173161 -0.0218791 -0.169942 -0.224092 0.346232 -0.271454 0.381533 0.114034 0.41497 -0.121308 0.0375049 0.640667 -0.0195518 -0.318482 0.686974 0.636516 -0.0140509 -0.105391 0.242474 0.72917
internal_count=44060 38492 35983 32009 15587 2778 16422 5286 3974 11136 6567 4569 12809 9627 1773 178 1150 5568 1595 1628 2201 750 2025 653 69 176 2460 1811 649 155
shrinkage=0.1


Tree=36
num_leaves=31
num_cat=0
split_feature=24 11 8 12 17 9 19 18 21 4 25 14 5 6 23 9 19 25 8 2 19 9 2 20 19 18 10 19 18 26
split_gain=17.6318 18.3223 18.2691 18.0853 27.313 19.3084 19.3014 23.0168 16.9723 17.72 16.8576 16.0141 19.7576 14.4874 19.0796 13.7483 20.3571 13.1053 12.9964 12.917 14.6619 11.5137 11.3661 10.7747 10.1713 9.87709 9.76746 9.88192 9.50572 8.99556
threshold=95.891434008204854 5.3602866991397198 0.86907171679720496 43.500000000000007 752.50000000000011 0.89236103567823999 795.50000000000011 2157.5000000000005 0.061950000000000005 0.69746108670741036 18.604251303541151 32.809750000000008 0.71453744939271269 31.023254235142282 -0.91533660089648528 1.0970134111272087 105.50000000000001 12.163332163332202 1.0055396371307543 2.3857773989898994 551.50000000000011 1.0704859353753309 5.0293003994953756 0.60300000000000009 293.50000000000006 256.50000000000006 0.021953770478969691 396.50000000000006 627.50000000000011 95.63426045652281
decision_type=2 2 2 2 2 2 2 2 2 2 2 2 2 2 2 2 2 2 2 2 2 2 2 2 2 2 2 2 2 2
left_child=1 2 15 5 8 -4 23 -8 9 -5 -10 12 -7 14 22 -1 -17 -16 -2 20 26 -13 25 -6 -15 -3 -20 28 -28 -29
right_child=18 13 3 4 6 11 7 -9 10 -11 -12 21 -14 24 17 16 -18 -19 19 -21 -22 -23 -24 -25 -26 -27 27 29 -30 -31
leaf_value=-0.026128826139586749 -0.051816181488277525 -0.091363150054566314 -0.10339206635499017 0.029135534966273819 -0.0064485625233625544 0.0012714956592041098 -0.028671516834442759 0.07336629865997682 0.035815165267377116 0.0012645441398618114 -0.0044479515158365726 -0.00081074385981296827 0.030605895407004827 -0.048605872828498209 0.13812035883625798 0.087401923797490511 -0.021199418118298303 0.013336093300393726 0.07040878984093564 -0.024876929292496394 -0.03784173821580674 -0.014685261328774414 0.11424823481950495 0.084315763851226702 0.020558779094357289 -0.018820492105612031 0.054048805884196797 0.026709736404157854 -0.013419472478802364 0.17774404301056329
leaf_count=143 593 115 127 2389 69 7877 290 164 551 2279 6860 7813 1343 917 43 306 107 961 151 1764 314 5841 39 426 129 1643 127 55 592 32
internal_value=0 0.0116517 0.0271476 0.0204738 0.0873842 -0.0192914 0.437563 0.103117 0.0566012 0.16247 -0.0122319 -0.0148278 0.0566569 -0.143923 -0.058374 0.423206 0.598569 0.190709 -0.165642 -0.104768 0.0689178 -0.0676039 -0.208336 0.719444 -0.389909 -0.234727 0.208928 0.0982911 0.00338037 0.812742
internal_count=44060 40432 36585 36029 13028 23001 949 454 12079 4668 7411 22874 9220 3847 2801 556 413 1004 3628 3035 1271 13654 1797 495 1046 1758 957 806 719 87
shrinkage=0.1


Tree=37
num_leaves=31
num_cat=0
split_feature=11 2 10 15 17 19 19 25 16 7 18 3 22 1 3 16 18 25 7 25 10 21 20 0 5 4 9 25 0 3
split_gain=16.4913 20.6788 17.2307 23.9966 15.4645 25.077 24.8227 18.1279 16.6437 15.9369 15.8296 14.9107 13.7825 12.6944 20.8885 14.0207 13.1634 12.6365 13.9669 13.7803 12.4189 12.2314 13.0321 12.1445 12.0342 11.8328 10.9479 12.426 10.9487 14.1391
threshold=1.563660687848254 9.2709800986842126 0.0092811562208044134 1.0000000180025095e-35 660.50000000000011 561.50000000000011 500.50000000000006 17.077900912646701 38.500000000000007 1.1241916020085869 2157.5000000000005 9.1737448194103557 1.0178577084510392 5.4447576722983566 13.607253917097312 331.50000000000006 2724.5000000000005 5.461812001834141 1.1406965910684883 81.492689924610062 0.0020038664618271611 0.082050000000000026 0.74040000000000006 1.0662695455843618 0.47451627981947136 0.18211990529342129 0.97012226893036735 80.488263341280074 3.0524173367257923 26.276692007301236
decision_type=2 2 2 2 2 2 2 2 2 2 2 2 2 2 2 2 2 2 2 2 2 2 2 2 2 2 2 2 2 2
left_child=13 2 11 -4 7 6 -6 9 -9 -5 -7 12 -2 14 16 -16 21 -13 20 -20 -19 -1 -23 25 -18 -14 -15 28 -28 -30
right_child=1 -3 3 4 5 10 -8 8 -10 -11 -12 17 23 26 15 -17 24 18 19 -21 -22 22 -24 -25 -26 -27 27 -29 29 -31
leaf_value=0.013368997131735253 -0.10432074042672933 -0.071031185456888302 -0.07706216274148471 0.027679905936000362 0.017404565688939656 -0.020643412032290556 0.088263915875366 0.00027015043759359979 -0.01209384936694843 -0.027413253374803871 0.023063402045750643 -0.10973497571061015 0.066135120172862202 -0.089223244005438629 0.026295313336720513 -0.026413278756051508 0.21464220928484454 0.065448748867809811 -0.0093079707441964254 0.033916606956778471 0.021954949773543044 -0.087902812377606498 -0.012832807974603705 -0.030208325157885421 0.030044370234150349 -0.0040042297833208116 -0.0070957132755296807 -0.025116692317244355 0.088832524185700298 -0.039984184852913614
leaf_count=923 72 332 217 1357 1040 1392 306 9455 15922 351 660 34 163 119 3928 313 33 362 1153 482 1534 139 1324 475 86 401 360 865 193 69
internal_value=0 -0.0232864 -0.0187338 -0.0406147 -0.0346964 0.109389 0.333812 -0.0541769 -0.0708416 0.169956 -0.0608985 0.101165 -0.119402 0.0904904 0.131052 0.228324 -0.0328641 0.167858 0.180691 0.0347206 0.304879 -0.0645226 -0.195699 -0.0560055 0.819345 0.168101 -0.107843 -0.0557488 0.197347 0.570138
internal_count=44060 35708 35376 30700 30483 3398 1346 27085 25377 1708 2052 4676 1111 8352 6746 4241 2505 3565 3531 1635 1896 2386 1463 1039 119 564 1606 1487 622 262
shrinkage=0.1


Tree=38
num_leaves=31
num_cat=0
split_feature=2 9 1 7 25 11 7 25 16 5 21 16 0 18 18 18 20 10 22 19 19 19 15 18 0 26 26 18 4 18
split_gain=16.1813 27.8657 39.0738 31.6055 32.8425 25.9087 20.4537 25.4033 23.4896 28.7711 23.0567 18.5077 18.1284 23.3682 17.8605 31.3527 26.983 17.3349 19.6397 18.5658 18.3962 26.2399 17.1386 17.0461 16.3293 19.4183 15.4367 28.4879 21.6159 18.9175
